%YAML:1.0
my_svm: !!opencv-ml-svm
   svm_type: C_SVC
   kernel: { type:RBF, gamma:5.3830000000000000e+00 }
   C: 2.6699999999999999e+00
   term_criteria: { epsilon:1.1920928955078125e-07, iterations:1000 }
   var_all: 64
   var_count: 64
   class_count: 2
   class_labels: !!opencv-matrix
      rows: 1
      cols: 2
      dt: i
      data: [ 0, 1 ]
   sv_total: 1419
   support_vectors:
      - [ 3.84888463e-02, 1.73953865e-02, 1.07676303e-02, 4.85729463e-02,
          4.49591950e-02, 4.09330241e-02, 2.29104795e-02, 1.14264404e-02,
          3.62656228e-02, 1.46630760e-02, 3.69498506e-02, 2.69390419e-02,
          4.67931814e-02, 4.28669453e-02, 3.26811858e-02, 4.39960212e-02,
          3.63788120e-02, 5.57537079e-02, 4.43218201e-02, 4.98320237e-02,
          1.24923319e-01, 5.83772883e-02, 5.45493104e-02, 1.40222469e-02,
          9.09110066e-03, 2.16667484e-02, 4.53856997e-02, 5.31201549e-02,
          7.81498849e-02, 1.01623319e-01, 1.35115296e-01, 5.87243289e-02,
          1.08982377e-01, 9.27950963e-02, 1.12540543e-01, 1.88808545e-01,
          2.13034481e-01, 1.65523469e-01, 1.24819607e-01, 8.10471624e-02,
          1.20190829e-01, 9.05959383e-02, 1.12758718e-01, 1.54253379e-01,
          1.69157133e-01, 1.66430756e-01, 1.12467833e-01, 7.55101293e-02,
          1.28891900e-01, 1.33503169e-01, 1.99348643e-01, 2.55672514e-01,
          2.99254924e-01, 1.84158802e-01, 1.96057707e-01, 1.27207115e-01,
          1.62455708e-01, 1.54312357e-01, 2.03571409e-01, 2.33427182e-01,
          2.53034085e-01, 1.74876481e-01, 1.90153763e-01, 1.18346505e-01 ]
      - [ 1.37499481e-01, 1.20570408e-02, 3.36001478e-02, 3.52907106e-02,
          6.58044070e-02, 3.29138525e-02, 1.95784699e-02, 2.10968461e-02,
          3.08010168e-02, 2.85346825e-02, 3.81107479e-02, 3.44849899e-02,
          4.77870256e-02, 2.43092217e-02, 1.15993163e-02, 7.59793371e-02,
          4.28864211e-02, 9.04219970e-03, 3.86960208e-02, 0.,
          7.92255551e-02, 0., 5.83614688e-03, 9.76506807e-03,
          1.11481920e-01, 7.58443251e-02, 2.29815096e-02, 7.84108415e-02,
          9.52765346e-02, 3.92850228e-02, 7.09232911e-02, 1.16438873e-01,
          7.90298507e-02, 8.01676810e-02, 1.04323924e-01, 2.17493683e-01,
          2.12756500e-01, 8.11192319e-02, 5.76456189e-02, 5.11681288e-02,
          1.38415724e-01, 1.02749966e-01, 1.01850510e-01, 2.12223038e-01,
          2.67072707e-01, 9.19800922e-02, 5.94279654e-02, 5.95760047e-02,
          1.63560495e-01, 1.20859466e-01, 1.47606924e-01, 2.30419561e-01,
          2.28364140e-01, 1.24595977e-01, 1.22214630e-01, 1.96413875e-01,
          2.18228057e-01, 1.65758997e-01, 1.49701431e-01, 2.79687524e-01,
          3.30391318e-01, 1.60850540e-01, 1.35406256e-01, 1.67571560e-01 ]
      - [ 1.67833436e-02, 2.00313386e-02, 9.12556332e-03, 4.72947173e-02,
          8.77831429e-02, 2.85850540e-02, 5.78533718e-03, 1.42735783e-02,
          2.54738349e-02, 1.17175272e-02, 2.23272797e-02, 5.01370654e-02,
          8.24496001e-02, 4.94581051e-02, 4.34391610e-02, 1.38309207e-02,
          1.15294503e-02, 0., 1.19461808e-02, 4.28752899e-02,
          1.64861336e-01, 3.39281149e-02, 1.54249454e-02, 1.75671931e-02,
          8.32063239e-03, 1.63322091e-02, 1.43618174e-02, 2.20110510e-02,
          1.30113021e-01, 1.41532868e-01, 3.83610204e-02, 1.26729179e-02,
          6.72784075e-02, 3.66421379e-02, 3.67770642e-02, 1.92666501e-01,
          3.06692600e-01, 1.93729326e-01, 6.88759983e-02, 2.72936542e-02,
          7.18800649e-02, 2.95335669e-02, 5.37936576e-02, 1.33047655e-01,
          3.34177911e-01, 8.77015367e-02, 5.26104197e-02, 4.38049287e-02,
          8.91747251e-02, 5.08655421e-02, 5.50807975e-02, 1.50338471e-01,
          3.31476063e-01, 2.85529017e-01, 1.28452450e-01, 9.72943231e-02,
          8.66635665e-02, 7.64076337e-02, 7.80294463e-02, 2.14703560e-01,
          3.84852797e-01, 2.87038773e-01, 1.26781836e-01, 6.88439682e-02 ]
      - [ 2.05323286e-02, 1.43947238e-02, 1.82589814e-02, 3.60433981e-02,
          8.04174021e-02, 8.50499272e-02, 7.22133443e-02, 1.71085298e-02,
          1.56823080e-02, 3.86191048e-02, 4.02087197e-02, 3.28313671e-02,
          5.14822453e-02, 1.63613018e-02, 3.10949888e-02, 1.74325556e-02,
          1.47871608e-02, 1.33833541e-02, 1.75929181e-02, 2.75276154e-02,
          4.66815308e-02, 1.59987006e-02, 2.82192156e-02, 7.08273659e-03,
          1.49206417e-02, 1.14563042e-02, 8.56784731e-03, 2.42235195e-02,
          1.10737905e-01, 1.25231162e-01, 6.34668842e-02, 2.27953177e-02,
          9.40663517e-02, 2.31229533e-02, 3.89060266e-02, 6.84707537e-02,
          1.75221428e-01, 1.81651592e-01, 1.17872961e-01, 7.34319165e-02,
          8.33015814e-02, 4.36877869e-02, 5.95302358e-02, 1.19889036e-01,
          2.45566487e-01, 2.62647927e-01, 1.44061327e-01, 4.12520133e-02,
          7.94538930e-02, 5.03900982e-02, 6.14557043e-02, 1.69716373e-01,
          4.22679156e-01, 2.38162801e-01, 1.30137041e-01, 5.61754405e-02,
          5.85660078e-02, 4.60280441e-02, 6.71871677e-02, 1.69641018e-01,
          4.65498924e-01, 2.83198506e-01, 1.26708075e-01, 7.67313316e-02 ]
      - [ 3.80221605e-02, 8.66670385e-02, 0., 0., 0., 0., 0., 0., 0., 0.,
          0., 0., 0., 1.37392888e-02, 6.47533163e-02, 4.24406230e-02,
          1.38940774e-02, 1.81426555e-02, 1.20231528e-02, 1.62207596e-02,
          1.19244754e-02, 3.38533637e-03, 9.61985253e-03, 2.84671714e-03,
          5.60547644e-03, 1.05081480e-02, 3.38533637e-03, 1.48851713e-02,
          1.90954935e-02, 2.60462556e-02, 3.79088633e-02, 2.19190437e-02,
          1.63434416e-01, 1.58325449e-01, 1.83261633e-01, 8.97938162e-02,
          1.12708725e-01, 2.15074793e-01, 1.69223964e-01, 1.25928164e-01,
          1.18647017e-01, 8.55591968e-02, 9.49602276e-02, 9.65992883e-02,
          7.53169358e-02, 1.77766621e-01, 1.50693923e-01, 1.23392172e-01,
          1.60777986e-01, 1.22674532e-01, 1.06855184e-01, 1.95057526e-01,
          3.63837302e-01, 2.48195976e-01, 1.70258865e-01, 8.04521441e-02,
          9.89164785e-02, 1.72223583e-01, 2.12183923e-01, 1.83338866e-01,
          2.47624233e-01, 3.22898358e-01, 2.32756481e-01, 1.04233868e-01 ]
      - [ 4.92003746e-02, 7.17667490e-02, 5.55944815e-02, 6.21197224e-02,
          4.86172251e-02, 5.89552289e-03, 7.20788119e-03, 7.36042531e-03,
          4.46452014e-03, 2.77255494e-02, 3.88429910e-02, 2.15403326e-02,
          6.92282170e-02, 1.88167281e-02, 0., 0., 1.07584469e-01,
          3.42916995e-02, 1.38275940e-02, 4.42255139e-02, 3.68846208e-02,
          3.76041941e-02, 5.37487864e-02, 7.03900829e-02, 7.46787935e-02,
          4.47217934e-02, 2.90622953e-02, 2.85629556e-02, 7.24228397e-02,
          4.68340181e-02, 8.79360139e-02, 1.09122410e-01, 1.22938678e-01,
          1.20779805e-01, 9.90195423e-02, 2.18630821e-01, 2.34006494e-01,
          1.11101493e-01, 8.74747708e-02, 1.56985924e-01, 1.05579048e-01,
          8.99322331e-02, 1.09190151e-01, 1.57612607e-01, 1.61345527e-01,
          1.12671956e-01, 7.32457563e-02, 6.81195930e-02, 2.22381324e-01,
          1.73753917e-01, 1.47754043e-01, 2.13178977e-01, 1.92101628e-01,
          1.52956650e-01, 1.26341045e-01, 2.27838054e-01, 2.25708514e-01,
          1.93147734e-01, 1.66478172e-01, 2.66148061e-01, 2.49766976e-01,
          1.80169702e-01, 1.54651597e-01, 2.02841282e-01 ]
      - [ 1.94100346e-02, 2.58556549e-02, 1.51487235e-02, 1.71190389e-02,
          1.02383886e-02, 0., 0., 0., 5.20630414e-03, 5.95950754e-03, 0.,
          0., 0., 0., 8.69649835e-03, 1.04500148e-02, 1.76641662e-02,
          4.82927077e-02, 2.91461684e-02, 2.60540694e-02, 7.54143149e-02,
          6.06712401e-02, 3.76823060e-02, 2.54423749e-02, 3.19411829e-02,
          2.66639944e-02, 2.12769452e-02, 6.55388981e-02, 6.14315383e-02,
          2.70335358e-02, 1.86615996e-02, 1.48413163e-02, 7.42930770e-02,
          1.62860796e-01, 1.45997718e-01, 1.33480206e-01, 2.22918391e-01,
          1.66543826e-01, 6.85930476e-02, 3.30580622e-02, 8.45317394e-02,
          1.15234733e-01, 1.17889784e-01, 8.73648375e-02, 1.12537280e-01,
          1.02920279e-01, 6.61656186e-02, 5.16112596e-02, 1.37191698e-01,
          2.49538630e-01, 2.69244820e-01, 2.28440315e-01, 2.58799225e-01,
          1.97543189e-01, 1.40249163e-01, 9.04341340e-02, 1.39711291e-01,
          2.63449013e-01, 3.15971404e-01, 2.23927349e-01, 2.77781367e-01,
          2.57739991e-01, 1.15550913e-01, 9.37796086e-02 ]
      - [ 4.32411842e-02, 1.05930269e-01, 0., 0., 9.20973066e-03, 0.,
          1.61350593e-02, 1.05342921e-02, 1.19861094e-02, 1.49030127e-02,
          2.37829462e-02, 2.21654195e-02, 2.14919690e-02, 7.67129660e-03,
          1.52054755e-02, 1.15068574e-02, 2.55409200e-02, 8.97624493e-02,
          4.04290147e-02, 4.84617613e-02, 8.29867944e-02, 4.83851507e-02,
          6.67515025e-02, 5.28663695e-02, 4.65805717e-02, 4.47781570e-02,
          4.21118252e-02, 3.70748937e-02, 3.52576599e-02, 3.41332369e-02,
          3.06337290e-02, 3.39857787e-02, 1.61430776e-01, 1.37408644e-01,
          1.24360584e-01, 1.58461228e-01, 1.49228573e-01, 1.49020031e-01,
          9.24136639e-02, 8.33930969e-02, 1.36913642e-01, 1.64406493e-01,
          1.32933900e-01, 1.35351330e-01, 1.17404647e-01, 1.60500273e-01,
          1.29468605e-01, 7.31678829e-02, 1.62333310e-01, 1.81530774e-01,
          1.98889986e-01, 1.96275070e-01, 3.55090231e-01, 2.22443789e-01,
          1.18751474e-01, 1.01961963e-01, 1.59587875e-01, 2.56118000e-01,
          2.09683582e-01, 1.78307325e-01, 1.92846060e-01, 2.66070455e-01,
          1.73631951e-01, 1.08741753e-01 ]
      - [ 1.10150231e-02, 1.85137615e-02, 2.36624423e-02, 3.89461294e-02,
          6.12747557e-02, 3.92037593e-02, 2.25161314e-02, 1.54527221e-02,
          2.36499757e-02, 1.39719825e-02, 3.07140760e-02, 1.98842976e-02,
          3.37894186e-02, 9.67477448e-03, 2.31660288e-02, 1.82073805e-02,
          5.03182635e-02, 2.06202976e-02, 2.86494382e-02, 5.27488217e-02,
          1.02817230e-01, 2.80314889e-02, 2.79114973e-02, 8.60006735e-03,
          1.68503337e-02, 1.47292893e-02, 1.07811978e-02, 4.48340364e-02,
          8.22669417e-02, 8.83159116e-02, 1.50971323e-01, 7.66239911e-02,
          5.99121153e-02, 4.34368998e-02, 4.26702462e-02, 1.42098859e-01,
          3.04026902e-01, 1.94676578e-01, 1.24007933e-01, 6.65340349e-02,
          6.53843507e-02, 2.74826698e-02, 3.61526161e-02, 5.48301972e-02,
          2.09808886e-01, 1.82739004e-01, 8.68645832e-02, 6.12893440e-02,
          1.29444972e-01, 9.17144343e-02, 1.04209617e-01, 1.59646034e-01,
          3.70394647e-01, 3.17673355e-01, 1.60935089e-01, 9.25548822e-02,
          9.74860489e-02, 8.27386230e-02, 1.06764153e-01, 2.13153377e-01,
          3.85103047e-01, 2.57880419e-01, 1.30987823e-01, 8.76144767e-02 ]
      - [ 1.56414494e-01, 4.64952923e-02, 3.23591344e-02, 4.47377264e-02,
          7.55297095e-02, 3.09755299e-02, 8.59795325e-03, 0.,
          1.60419028e-02, 1.54564446e-02, 1.98037289e-02, 3.43858376e-02,
          8.39179233e-02, 7.73039162e-02, 1.83272790e-02, 6.24974817e-02,
          4.16190661e-02, 4.03934531e-02, 1.71831734e-02, 2.79740635e-02,
          9.68730897e-02, 2.21877340e-02, 1.02743013e-02, 6.03419589e-03,
          3.12635042e-02, 1.57980286e-02, 2.49089077e-02, 2.68500615e-02,
          1.07904144e-01, 5.84276207e-02, 3.43963094e-02, 4.05514129e-02,
          7.24352971e-02, 6.80465847e-02, 8.06045756e-02, 1.63794339e-01,
          2.55463660e-01, 1.47561982e-01, 8.91034529e-02, 8.32948610e-02,
          1.12104110e-01, 7.40484744e-02, 1.17299058e-01, 1.16735183e-01,
          1.64635256e-01, 9.44182873e-02, 6.00605197e-02, 4.49004062e-02,
          1.20555356e-01, 1.00568570e-01, 9.48804542e-02, 1.77315235e-01,
          3.06856990e-01, 1.98235407e-01, 1.25622526e-01, 1.44723609e-01,
          2.41665542e-01, 1.65116236e-01, 1.27954185e-01, 2.57063836e-01,
          4.30631310e-01, 1.91271588e-01, 1.93332300e-01, 1.19772136e-01 ]
      - [ 6.05791844e-02, 3.09845582e-02, 2.54767295e-02, 4.48116623e-02,
          4.99148071e-02, 3.88385653e-02, 2.54732799e-02, 1.18274055e-02,
          2.67196279e-02, 1.08907809e-02, 1.37646506e-02, 1.66172516e-02,
          5.67118376e-02, 4.81244698e-02, 2.89677940e-02, 4.02916819e-02,
          2.04353835e-02, 1.86374895e-02, 1.75001565e-02, 2.04681531e-02,
          3.42480727e-02, 3.03210281e-02, 3.60375792e-02, 1.41233094e-02,
          2.08314117e-02, 2.31951308e-02, 1.54290665e-02, 4.25174646e-02,
          8.65875483e-02, 8.09362531e-02, 3.78640033e-02, 1.19358357e-02,
          9.04748961e-02, 4.68444005e-02, 6.86314031e-02, 4.81577516e-02,
          1.64469197e-01, 1.26730636e-01, 8.43678862e-02, 4.91901226e-02,
          9.24851745e-02, 8.48852098e-02, 1.00797467e-01, 1.75527439e-01,
          2.24479899e-01, 1.73433512e-01, 7.82469586e-02, 6.53013662e-02,
          1.83091313e-01, 1.65927395e-01, 1.81102902e-01, 2.35223219e-01,
          3.63896817e-01, 2.49163836e-01, 1.51124313e-01, 1.06506899e-01,
          1.85406283e-01, 1.56567231e-01, 1.65367484e-01, 2.06949010e-01,
          3.75541776e-01, 2.33784556e-01, 1.27396524e-01, 1.35706306e-01 ]
      - [ 1.13308141e-02, 1.60545204e-02, 1.73622910e-02, 0., 0., 0., 0.,
          0., 0., 0., 0., 0., 0., 0., 0., 0., 5.79657443e-02,
          6.82014972e-02, 1.59778342e-01, 8.08339939e-02, 8.62841308e-02,
          2.75953300e-02, 3.97377089e-02, 3.53361703e-02, 4.33799177e-02,
          4.99470122e-02, 9.24542546e-02, 8.40795264e-02, 8.99661332e-02,
          5.51780164e-02, 2.78685987e-02, 3.12625058e-02, 8.25840086e-02,
          9.18525234e-02, 1.69953346e-01, 9.63591188e-02, 2.39568084e-01,
          1.18336543e-01, 7.90013894e-02, 6.14665598e-02, 7.23816007e-02,
          6.00861162e-02, 8.03495422e-02, 1.08758137e-01, 9.99493748e-02,
          3.27588618e-02, 5.39043844e-02, 6.13452680e-02, 1.51367515e-01,
          2.12671086e-01, 3.82509351e-01, 1.98530540e-01, 2.42583632e-01,
          1.48090571e-01, 8.34336430e-02, 1.03900693e-01, 1.51292637e-01,
          2.07699433e-01, 4.52659160e-01, 1.96755871e-01, 1.73619598e-01,
          1.51730433e-01, 1.05617799e-01, 9.61436555e-02 ]
      - [ 1.48977553e-02, 3.85332294e-02, 5.45440689e-02, 4.73509356e-02,
          9.20264609e-03, 0., 4.88848938e-03, 1.16193928e-02,
          1.33869564e-02, 7.38550583e-03, 6.08468428e-03, 1.12746879e-02,
          9.74766258e-03, 9.35862865e-03, 1.19697871e-02, 9.66964010e-03,
          6.57511428e-02, 6.31530359e-02, 3.43136638e-02, 2.43420117e-02,
          4.35722396e-02, 1.98051501e-02, 2.69789938e-02, 7.46841878e-02,
          5.45891225e-02, 3.99663523e-02, 4.25595045e-02, 4.91234735e-02,
          6.13094755e-02, 6.33433461e-02, 5.58235347e-02, 8.25877860e-02,
          8.26532543e-02, 6.86847717e-02, 1.32485583e-01, 1.96110755e-01,
          2.59992391e-01, 9.59217027e-02, 7.08899349e-02, 1.01529613e-01,
          6.69594854e-02, 5.82435653e-02, 9.22688022e-02, 1.98276550e-01,
          2.48510376e-01, 1.36351243e-01, 6.39316812e-02, 7.38687068e-02,
          1.68478519e-01, 1.40064746e-01, 1.83355317e-01, 3.12992930e-01,
          2.39025742e-01, 1.39681786e-01, 1.47547901e-01, 1.65043265e-01,
          1.58424497e-01, 1.38326138e-01, 1.45340666e-01, 3.11251611e-01,
          3.21291536e-01, 1.49944291e-01, 1.24409817e-01, 1.81315929e-01 ]
      - [ 1.19126560e-02, 8.84065963e-03, 2.27404069e-02, 1.82338040e-02,
          5.65063879e-02, 3.12654376e-02, 0., 9.10362974e-03,
          2.47056372e-02, 0., 1.65104680e-02, 6.51545227e-02,
          1.56556308e-01, 2.20572781e-02, 4.93201986e-03, 1.56434570e-02,
          6.90992400e-02, 1.15133049e-02, 2.22264994e-02, 4.59705554e-02,
          9.79113355e-02, 3.98590825e-02, 1.28187556e-02, 1.19498707e-02,
          1.06090093e-02, 1.14709968e-02, 1.45344511e-02, 2.93568913e-02,
          5.20176739e-02, 2.40788460e-02, 7.78919607e-02, 1.62106901e-01,
          9.06791985e-02, 3.99242714e-02, 5.56810312e-02, 1.14020191e-01,
          1.50912210e-01, 1.21362507e-01, 1.36189386e-01, 1.89151734e-01,
          1.34556621e-01, 1.21445261e-01, 8.93724114e-02, 8.33839625e-02,
          1.82239994e-01, 1.09420784e-01, 1.83623001e-01, 8.32244158e-02,
          1.13918222e-01, 7.94426352e-02, 6.83339685e-02, 1.37988076e-01,
          2.94493705e-01, 2.06916764e-01, 2.12035403e-01, 1.47582889e-01,
          1.36755973e-01, 1.44627571e-01, 1.65647715e-01, 2.42325202e-01,
          4.34147716e-01, 2.44715557e-01, 1.82933167e-01, 1.00368284e-01 ]
      - [ 5.47505878e-02, 7.52928108e-02, 3.03645823e-02, 2.11937260e-02,
          5.22982795e-03, 9.66221839e-03, 0., 0., 0., 0., 0., 0., 0.,
          3.01191956e-02, 2.54685357e-02, 1.30564291e-02, 3.84856835e-02,
          5.43182418e-02, 5.08200154e-02, 3.30662541e-02, 5.26757389e-02,
          5.22754863e-02, 6.70973510e-02, 4.97111715e-02, 2.70857066e-02,
          3.52619998e-02, 3.59121300e-02, 5.24102859e-02, 7.39086270e-02,
          2.93162838e-02, 1.93683617e-02, 1.62864979e-02, 8.78512561e-02,
          7.53080547e-02, 1.00391746e-01, 2.10049689e-01, 3.84046584e-01,
          8.20832253e-02, 4.17633504e-02, 3.38334292e-02, 8.22712705e-02,
          3.88219766e-02, 9.12349671e-02, 1.62868291e-01, 2.94930875e-01,
          1.22414283e-01, 6.95505291e-02, 3.16717289e-02, 1.63882881e-01,
          2.03890488e-01, 1.87244654e-01, 2.02841356e-01, 2.85965770e-01,
          1.18516251e-01, 8.18966255e-02, 8.70178491e-02, 1.47951141e-01,
          2.57271856e-01, 1.25181988e-01, 1.92032069e-01, 3.74514133e-01,
          1.46433175e-01, 1.00795992e-01, 1.08092949e-01 ]
      - [ 4.30120938e-02, 1.55592114e-01, 5.67240715e-02, 8.12094212e-02,
          0., 9.37256496e-03, 0., 8.97632632e-03, 0., 0., 0.,
          1.43644251e-02, 1.73935033e-02, 0., 0., 0., 5.13214469e-02,
          1.20491318e-01, 1.00095458e-01, 1.12646900e-01, 7.03896731e-02,
          2.69353855e-02, 2.17566304e-02, 2.14596409e-02, 2.42491104e-02,
          2.61919443e-02, 4.44859192e-02, 1.02264844e-01, 1.27159908e-01,
          2.65940446e-02, 1.91481505e-02, 4.99862842e-02, 7.08156973e-02,
          5.05415127e-02, 1.19646281e-01, 2.19824344e-01, 4.00187373e-01,
          9.93229970e-02, 8.70961025e-02, 8.74162018e-02, 9.42441598e-02,
          6.72750100e-02, 6.49037659e-02, 1.27008945e-01, 1.18666098e-01,
          5.68742827e-02, 4.31909114e-02, 3.21125612e-02, 7.58712962e-02,
          7.17217103e-02, 1.63552910e-01, 2.14991778e-01, 2.03988448e-01,
          2.14100972e-01, 1.38684899e-01, 1.09404311e-01, 1.05063327e-01,
          1.92066759e-01, 1.74638778e-01, 2.77529359e-01, 4.49262470e-01,
          9.22393799e-02, 6.29992187e-02, 4.26744334e-02 ]
      - [ 2.30741184e-02, 1.49437571e-02, 2.91999821e-02, 4.61489856e-02,
          2.25363430e-02, 0., 0., 0., 0., 2.04305351e-03, 0.,
          3.05507774e-03, 8.28638896e-02, 2.08990369e-02, 1.46372262e-02,
          1.27140936e-02, 1.00965820e-01, 3.60488780e-02, 7.63375908e-02,
          1.14826255e-01, 9.63040963e-02, 1.39661729e-01, 4.36974466e-02,
          3.05507774e-03, 2.57068984e-02, 3.53867258e-03, 3.28595936e-02,
          7.47565776e-02, 5.63488714e-02, 2.40489170e-02, 2.51546223e-02,
          1.95023611e-01, 1.12581514e-01, 9.88594890e-02, 7.96728134e-02,
          6.77545294e-02, 1.20385930e-01, 1.31425783e-01, 1.06596455e-01,
          2.13165253e-01, 1.01745561e-01, 9.06467438e-02, 9.08412337e-02,
          9.88447815e-02, 1.38598755e-01, 2.32619345e-01, 1.32027417e-01,
          5.95366955e-02, 1.19966142e-01, 9.53318328e-02, 9.84409675e-02,
          1.31029576e-01, 1.81257710e-01, 2.36685425e-01, 1.25839174e-01,
          1.39128879e-01, 1.07917666e-01, 1.38853848e-01, 1.84209451e-01,
          2.39950389e-01, 3.71274620e-01, 4.04712796e-01, 1.35197610e-01,
          8.65674466e-02 ]
      - [ 3.74248922e-02, 3.92715745e-02, 2.33388152e-02, 9.51292366e-03,
          7.60427164e-03, 0., 4.10321914e-03, 1.77379753e-02,
          2.31782142e-02, 2.37973295e-02, 1.87912825e-02, 1.34488586e-02,
          1.10545829e-02, 0., 1.17979357e-02, 1.33659989e-02,
          2.19950397e-02, 1.11219930e-02, 1.86178181e-02, 1.10186916e-02,
          3.68213765e-02, 4.95747887e-02, 5.86442538e-02, 2.65137348e-02,
          3.24177854e-02, 1.50496047e-02, 1.56953335e-02, 1.06082335e-02,
          2.55158488e-02, 2.39591226e-02, 2.78716628e-02, 2.33627521e-02,
          9.61476937e-02, 7.59295672e-02, 1.91070780e-01, 1.47924602e-01,
          1.44824967e-01, 1.97451413e-01, 1.27599344e-01, 8.45105723e-02,
          9.26550999e-02, 6.80216327e-02, 8.86358693e-02, 1.42378196e-01,
          1.34146884e-01, 1.37961224e-01, 1.15269981e-01, 7.35002309e-02,
          1.59389690e-01, 1.42796367e-01, 2.06119746e-01, 2.55356818e-01,
          2.40513638e-01, 3.01942199e-01, 2.20227912e-01, 1.29208654e-01,
          1.85970068e-01, 1.54595479e-01, 1.99507371e-01, 2.15642497e-01,
          2.17299208e-01, 3.13990951e-01, 2.26956025e-01, 1.30729392e-01 ]
      - [ 2.61940192e-02, 5.09444289e-02, 3.35760862e-02, 1.51715325e-02,
          8.37278366e-03, 0., 0., 0., 0., 0., 0., 0., 1.07898964e-02, 0.,
          0., 1.23328427e-02, 5.39916903e-02, 5.35230488e-02,
          3.96210290e-02, 1.55419530e-02, 2.66113188e-02, 5.88401640e-03,
          8.10493436e-03, 4.94784815e-03, 7.86975771e-03, 1.37470840e-02,
          2.64005885e-02, 2.01559551e-02, 4.55362722e-02, 4.46136817e-02,
          5.12833111e-02, 5.03173172e-02, 4.80621196e-02, 5.31419553e-02,
          1.09195009e-01, 2.77277023e-01, 2.99667448e-01, 7.52631575e-02,
          4.86727394e-02, 3.68522480e-02, 5.19779995e-02, 4.15938534e-02,
          5.08539006e-02, 1.48938075e-01, 1.34955525e-01, 5.65140061e-02,
          3.78242172e-02, 2.25257780e-02, 1.31557941e-01, 1.68229893e-01,
          1.73897386e-01, 2.79547185e-01, 3.25646907e-01, 1.02626815e-01,
          8.93461108e-02, 8.19936618e-02, 1.22087620e-01, 1.94899052e-01,
          2.51745999e-01, 3.49268466e-01, 3.94612879e-01, 1.63769692e-01,
          1.13712132e-01, 1.06466100e-01 ]
      - [ 1.59471128e-02, 0., 0., 1.08622927e-02, 6.60582930e-02,
          2.16326099e-02, 0., 6.23802142e-03, 9.49943066e-03,
          5.43859927e-03, 0., 4.13082615e-02, 6.93811104e-02,
          2.18206700e-02, 6.44568866e-03, 0., 4.83031794e-02,
          4.18583341e-02, 5.43137640e-02, 2.39647869e-02, 1.02044925e-01,
          2.82408446e-02, 2.56982129e-02, 0., 8.54742154e-03,
          3.33013535e-02, 2.18492839e-02, 6.44666478e-02, 1.00149617e-01,
          5.86752072e-02, 1.58034250e-01, 5.82003891e-02, 7.23747984e-02,
          4.40762676e-02, 4.19577397e-02, 1.02552243e-01, 1.28729478e-01,
          8.31135735e-02, 1.51864707e-01, 1.40993968e-01, 9.61155444e-02,
          5.39848395e-02, 5.57535477e-02, 1.25517666e-01, 4.56405044e-01,
          1.06809773e-01, 6.06879480e-02, 6.05582856e-02, 6.84335679e-02,
          9.22357664e-02, 1.01537399e-01, 2.02274695e-01, 3.24440837e-01,
          1.48740947e-01, 1.44203499e-01, 1.11139350e-01, 8.45424831e-02,
          1.08726077e-01, 1.61855817e-01, 2.49235094e-01, 4.41233218e-01,
          1.71893939e-01, 1.20674677e-01, 7.40280449e-02 ]
      - [ 2.89737731e-02, 1.35190869e-02, 7.90660176e-03, 6.94802869e-03,
          3.73933762e-02, 1.88162923e-02, 5.16191795e-02, 1.68274324e-02,
          1.09681217e-02, 1.53574767e-02, 1.07321655e-02, 1.70023385e-02,
          2.44128238e-02, 2.91814897e-02, 1.81163661e-02, 1.47597417e-02,
          2.11197045e-02, 1.08079333e-02, 1.60373412e-02, 0.,
          4.01308015e-02, 1.50702968e-01, 7.09566548e-02, 1.38860755e-02,
          4.64642700e-03, 0., 1.67436115e-02, 1.47646861e-02,
          8.15708786e-02, 1.38680607e-01, 1.00220211e-01, 4.78928797e-02,
          1.50366157e-01, 7.28309974e-02, 4.71938252e-02, 4.78064716e-02,
          1.25347808e-01, 2.33977750e-01, 1.35572478e-01, 1.78733513e-01,
          1.09859340e-01, 5.94235547e-02, 4.15643752e-02, 5.29076047e-02,
          1.22566976e-01, 2.41626844e-01, 1.29800901e-01, 1.05944484e-01,
          1.58343986e-01, 9.68496576e-02, 1.03800505e-01, 9.08334851e-02,
          1.92624331e-01, 3.28764707e-01, 1.44944444e-01, 1.66291177e-01,
          1.94171935e-01, 1.25336632e-01, 1.08961441e-01, 1.17438361e-01,
          1.77428469e-01, 4.81315047e-01, 1.96044773e-01, 1.39636412e-01 ]
      - [ 3.41557078e-02, 8.37513208e-02, 3.20496857e-02, 3.79329287e-02,
          3.56133729e-02, 8.66372045e-03, 9.49228741e-03, 0., 0., 0.,
          8.47135577e-03, 0., 0., 0., 0., 0., 4.74895425e-02,
          5.68070412e-02, 7.08777681e-02, 8.46912116e-02, 4.82407659e-02,
          9.76767391e-03, 1.30248480e-02, 5.64023480e-03, 1.77509878e-02,
          1.60129275e-02, 6.89600408e-02, 9.57081318e-02, 6.61449730e-02,
          1.43407555e-02, 1.61646735e-02, 2.69426350e-02, 9.61593688e-02,
          6.94333389e-02, 9.20314044e-02, 1.86203703e-01, 3.35439414e-01,
          1.23066776e-01, 7.24213272e-02, 5.06749935e-02, 9.48459506e-02,
          7.89161548e-02, 8.69051069e-02, 1.17650636e-01, 3.79815280e-01,
          1.24289930e-01, 5.04308566e-02, 3.45047414e-02, 1.12681493e-01,
          1.10918954e-01, 2.40556583e-01, 2.90292919e-01, 2.77452439e-01,
          1.25382945e-01, 7.63390958e-02, 6.21052608e-02, 1.69719517e-01,
          1.84494853e-01, 1.41041979e-01, 1.89264178e-01, 3.77789795e-01,
          1.26401827e-01, 6.91959411e-02, 5.63310906e-02 ]
      - [ 4.83697560e-03, 8.33567977e-03, 5.80884423e-03, 3.58718708e-02,
          1.34153903e-01, 1.33864405e-02, 2.08448078e-02, 7.36664003e-03,
          9.67395119e-03, 1.81899453e-03, 2.09969115e-02, 1.14646681e-01,
          7.63344243e-02, 0., 5.31694433e-03, 0., 2.07877532e-02,
          2.34563947e-02, 4.73377854e-02, 5.42064942e-02, 6.39121458e-02,
          2.20278390e-02, 1.45261372e-02, 1.30815739e-02, 2.58297343e-02,
          1.74646694e-02, 9.15988013e-02, 1.09276697e-01, 1.03411391e-01,
          3.37831676e-02, 1.54437888e-02, 2.53308527e-02, 5.26457168e-02,
          3.32986638e-02, 6.56657964e-02, 1.96113646e-01, 2.27556795e-01,
          5.60034290e-02, 3.24158818e-02, 2.88543887e-02, 5.38832396e-02,
          5.43923266e-02, 8.57044086e-02, 2.85298795e-01, 3.23260874e-01,
          4.30303812e-02, 1.76113360e-02, 2.19905060e-02, 1.46534517e-01,
          1.40402645e-01, 1.89748332e-01, 2.73133695e-01, 3.01557690e-01,
          1.63601235e-01, 1.18086107e-01, 1.05171494e-01, 1.23486482e-01,
          1.33245125e-01, 1.87196404e-01, 2.98726529e-01, 2.98087686e-01,
          1.81383416e-01, 1.41023070e-01, 1.28936440e-01 ]
      - [ 1.25029877e-01, 1.33939102e-01, 2.81137768e-02, 1.39821516e-02,
          1.03720371e-02, 9.36795119e-03, 0., 5.48002357e-03,
          5.28833922e-03, 0., 1.15714539e-02, 2.42396761e-02,
          1.75517201e-02, 1.02069862e-02, 1.47315990e-02, 2.02460513e-02,
          2.88458224e-02, 1.08024657e-01, 4.28228825e-02, 4.10954691e-02,
          1.21064901e-01, 5.36294058e-02, 2.43733376e-02, 0.,
          2.68895775e-02, 3.36096734e-02, 4.02074642e-02, 5.58294021e-02,
          1.63479462e-01, 3.18268128e-02, 1.21214511e-02, 1.28581645e-02,
          7.00542331e-02, 6.15570918e-02, 8.74505788e-02, 1.49163619e-01,
          2.61607885e-01, 9.59566534e-02, 3.26561071e-02, 4.12234552e-02,
          9.44972411e-02, 8.46806914e-02, 1.14132129e-01, 1.59562260e-01,
          1.29953861e-01, 7.69166201e-02, 5.30772619e-02, 5.71185276e-02,
          9.56880525e-02, 1.11269206e-01, 1.56675965e-01, 2.31493756e-01,
          4.44085270e-01, 1.37354136e-01, 6.86125904e-02, 6.81069642e-02,
          1.42861277e-01, 2.06712931e-01, 1.60757095e-01, 2.70677060e-01,
          4.02218580e-01, 1.55644685e-01, 1.03207029e-01, 9.03308988e-02 ]
      - [ 4.02927175e-02, 3.48514691e-02, 0., 3.80787924e-02,
          4.29182053e-02, 3.04705789e-03, 0., 0., 1.30475843e-02,
          4.84647183e-03, 3.09117083e-02, 7.22984448e-02, 4.46821079e-02,
          5.53652551e-03, 4.55641421e-03, 7.30313808e-02, 2.14510188e-02,
          3.06042954e-02, 3.73190269e-02, 1.13943353e-01, 7.55170286e-02,
          2.73385122e-02, 2.17157658e-02, 0., 5.88580817e-02,
          2.40052994e-02, 5.16891144e-02, 1.60197333e-01, 5.77884652e-02,
          4.43933383e-02, 2.53466442e-02, 4.33315597e-02, 7.58853406e-02,
          6.52582720e-02, 1.01102576e-01, 2.15068936e-01, 7.00782463e-02,
          4.11304049e-02, 2.72532012e-02, 2.13000625e-02, 5.22461534e-02,
          3.95138785e-02, 8.65890682e-02, 3.04001868e-01, 1.08662210e-01,
          4.17730547e-02, 5.32151386e-02, 4.67516705e-02, 1.37206331e-01,
          1.19172148e-01, 1.59296200e-01, 4.65958834e-01, 1.42761603e-01,
          1.13887802e-01, 1.10738978e-01, 1.33287817e-01, 1.19181104e-01,
          9.54542086e-02, 1.66834503e-01, 5.14630914e-01, 1.67854190e-01,
          1.04143418e-01, 9.03294310e-02, 1.34382337e-01 ]
      - [ 7.68561810e-02, 7.80825838e-02, 5.98325357e-02, 4.61414866e-02,
          4.25958335e-02, 0., 0., 0., 1.22511405e-02, 0., 0.,
          1.23682078e-02, 6.67908862e-02, 3.62463556e-02, 1.50393322e-02,
          2.99089793e-02, 4.23029177e-02, 7.58185834e-02, 5.92947342e-02,
          1.14053257e-01, 7.29657039e-02, 1.66147891e-02, 7.61789968e-03,
          1.31430356e-02, 5.49793616e-03, 2.22827103e-02, 4.97205630e-02,
          1.26687899e-01, 7.70538375e-02, 2.34481134e-02, 1.34323649e-02,
          7.64371734e-03, 5.68896346e-02, 7.24846199e-02, 1.33192375e-01,
          1.47820935e-01, 1.16854027e-01, 1.05265312e-01, 6.03306107e-02,
          4.08493280e-02, 5.38398735e-02, 4.69497666e-02, 1.18832342e-01,
          1.62922636e-01, 9.04111788e-02, 2.25104447e-02, 3.81696634e-02,
          5.03908172e-02, 2.22915664e-01, 1.94368601e-01, 2.35445738e-01,
          3.26798975e-01, 2.65400380e-01, 2.23004907e-01, 1.96570754e-01,
          1.90602928e-01, 2.11792663e-01, 1.82572439e-01, 1.99469060e-01,
          2.90687203e-01, 1.95907190e-01, 1.63343877e-01, 1.84763268e-01,
          1.85797781e-01 ]
      - [ 7.22680092e-02, 2.56268717e-02, 2.17198487e-02, 6.95791692e-02,
          6.93940744e-02, 1.09278401e-02, 5.48528647e-03, 9.21944156e-03,
          1.93183927e-03, 0., 0., 9.28223971e-03, 1.64305374e-01,
          6.28972724e-02, 3.85304131e-02, 3.65947112e-02, 1.54073210e-02,
          1.09086148e-02, 6.08597323e-03, 6.38984814e-02, 1.81237683e-01,
          1.34409992e-02, 1.16291102e-02, 1.19820843e-02, 1.38399629e-02,
          1.81181133e-02, 1.70542933e-02, 5.35381138e-02, 1.05518237e-01,
          2.68906653e-02, 8.47285520e-03, 0., 4.55985181e-02,
          6.01850152e-02, 6.76973984e-02, 2.60032088e-01, 1.26295254e-01,
          1.03289887e-01, 6.89543635e-02, 1.34114502e-02, 6.31027892e-02,
          3.78886126e-02, 8.77837688e-02, 3.67336750e-01, 3.61982465e-01,
          5.01024537e-02, 3.41737531e-02, 3.12630385e-02, 7.62590691e-02,
          8.89723226e-02, 1.16019413e-01, 2.22471744e-01, 3.79179150e-01,
          2.95802951e-01, 1.60696104e-01, 1.38926342e-01, 9.53198671e-02,
          5.49121425e-02, 5.72997853e-02, 1.50934562e-01, 2.04688370e-01,
          1.55584663e-01, 1.52459994e-01, 1.50670037e-01 ]
      - [ 5.58568202e-02, 4.35649380e-02, 1.26109291e-02, 1.23286573e-02,
          9.36723575e-02, 5.12660369e-02, 2.82542594e-02, 1.62300766e-02,
          2.67145056e-02, 2.33101193e-02, 2.76417919e-02, 2.95358244e-02,
          1.51982997e-02, 0., 2.44934224e-02, 0., 1.95880327e-02,
          2.71840468e-02, 3.43866721e-02, 3.87305245e-02, 1.32530168e-01,
          1.74870286e-02, 5.52922301e-03, 3.09793232e-03, 1.47821698e-02,
          2.92984350e-03, 7.57247442e-03, 4.42802496e-02, 1.67632490e-01,
          2.67487951e-02, 2.94582788e-02, 1.40235694e-02, 8.22578818e-02,
          7.86305144e-02, 7.62694404e-02, 1.77711651e-01, 2.14713499e-01,
          9.03268978e-02, 4.52984460e-02, 3.75873633e-02, 5.86973950e-02,
          5.81524968e-02, 6.91904426e-02, 2.11326227e-01, 2.77270198e-01,
          8.93100649e-02, 5.39591797e-02, 3.21313031e-02, 1.30622983e-01,
          1.26551643e-01, 1.19250633e-01, 2.00572506e-01, 3.70489776e-01,
          2.06044808e-01, 1.52344987e-01, 1.40974954e-01, 1.26272604e-01,
          1.19420737e-01, 1.23704217e-01, 2.41191417e-01, 4.30473268e-01,
          2.06598386e-01, 1.33380041e-01, 1.08190611e-01 ]
      - [ 4.86456305e-02, 3.14311609e-02, 2.22172216e-02, 0.,
          1.31908990e-02, 0., 8.26312229e-03, 0., 7.89377932e-03,
          2.48028687e-03, 1.36997346e-02, 3.93358693e-02, 9.71647352e-02,
          4.45839427e-02, 4.12329994e-02, 3.51626836e-02, 3.52002084e-02,
          3.54802199e-02, 2.94570476e-02, 2.86940765e-02, 1.01763725e-01,
          3.47427838e-02, 1.71254296e-02, 1.17003880e-02, 1.58938952e-02,
          2.22546682e-02, 1.84470434e-02, 1.17706871e-02, 3.57836299e-02,
          3.34709771e-02, 3.26455943e-02, 1.81142259e-02, 7.19364882e-02,
          5.30402102e-02, 5.91198467e-02, 1.57110080e-01, 3.17266583e-01,
          1.24711238e-01, 9.97930393e-02, 2.63085477e-02, 8.03171545e-02,
          4.06257696e-02, 4.04806286e-02, 1.08075261e-01, 4.56093550e-01,
          1.23609774e-01, 1.08377159e-01, 5.52673154e-02, 1.31730676e-01,
          9.80787203e-02, 8.52891728e-02, 1.02029294e-01, 2.80032903e-01,
          2.57351905e-01, 1.72004625e-01, 1.08130574e-01, 1.10020690e-01,
          1.03889517e-01, 8.35667700e-02, 1.50601000e-01, 3.27986479e-01,
          3.05522949e-01, 2.07894221e-01, 9.32943076e-02 ]
      - [ 6.61135837e-02, 3.15334201e-02, 2.46487744e-02, 4.76275086e-02,
          3.22040692e-02, 1.72377955e-02, 1.21847661e-02, 6.39103120e-03,
          1.26833543e-02, 7.28495792e-03, 0., 0., 1.72821321e-02,
          1.49243278e-02, 2.10320279e-02, 3.70871462e-02, 2.55654678e-02,
          1.81717910e-02, 1.29579436e-02, 2.40990110e-02, 7.65404627e-02,
          1.60623211e-02, 7.57302297e-03, 8.68448988e-03, 9.64924134e-03,
          5.52462600e-03, 8.59647151e-03, 1.45905865e-02, 9.32768881e-02,
          4.58137840e-02, 6.30873395e-03, 2.69777533e-02, 6.41188696e-02,
          4.83942777e-02, 7.96887577e-02, 2.43630156e-01, 2.98481107e-01,
          3.65173668e-02, 2.39312891e-02, 1.89731270e-02, 2.58859508e-02,
          1.69426873e-02, 3.74257825e-02, 9.65152159e-02, 3.33273292e-01,
          7.17444420e-02, 4.01430838e-02, 2.36098748e-02, 5.80604225e-02,
          5.86549714e-02, 9.01850313e-02, 2.41909415e-01, 3.87827814e-01,
          1.09412462e-01, 7.30370209e-02, 5.96549064e-02, 7.99408555e-02,
          9.05002356e-02, 9.72941592e-02, 2.41578609e-01, 5.61035037e-01,
          1.53556064e-01, 7.95527548e-02, 4.82785702e-02 ]
      - [ 5.03521897e-02, 3.09634693e-02, 0., 3.99472453e-02,
          5.16076684e-02, 2.17987932e-02, 1.27795301e-02, 0.,
          1.49801197e-02, 1.72081254e-02, 0., 2.83219665e-02,
          6.45792410e-02, 7.19584748e-02, 4.02193442e-02, 4.68260273e-02,
          3.65602113e-02, 3.18708345e-02, 2.57029627e-02, 2.68468466e-02,
          7.56989345e-02, 3.37924846e-02, 6.95185503e-03, 0.,
          3.23665738e-02, 2.31728493e-03, 0., 4.12157178e-02,
          8.77478346e-02, 8.29245448e-02, 4.52726893e-02, 2.46248767e-02,
          5.63781969e-02, 4.82477024e-02, 4.28037904e-02, 1.62070647e-01,
          1.47539705e-01, 1.37092188e-01, 1.05243683e-01, 7.99331069e-02,
          6.04735091e-02, 5.75819723e-02, 8.33962858e-02, 2.29772255e-01,
          3.78714323e-01, 1.28558725e-01, 5.61014265e-02, 5.22383787e-02,
          8.13347027e-02, 4.39840779e-02, 7.72238821e-02, 7.53610954e-02,
          4.57857907e-01, 3.03620011e-01, 1.39562339e-01, 9.96628925e-02,
          8.12966526e-02, 5.63946180e-02, 5.12942672e-02, 6.57893419e-02,
          3.87621701e-01, 2.88821191e-01, 1.21513158e-01, 7.54953176e-02 ]
      - [ 2.69338023e-02, 3.77224796e-02, 2.14117095e-02, 3.60606313e-02,
          4.05374318e-02, 8.12482983e-02, 3.47525366e-02, 0.,
          5.85871143e-03, 0., 0., 1.57082528e-02, 6.08527064e-02,
          7.65168890e-02, 3.21856961e-02, 3.64504866e-02, 1.42449532e-02,
          9.57915559e-03, 8.05800874e-03, 1.57135297e-02, 6.16462640e-02,
          3.86316590e-02, 2.67815273e-02, 1.34875057e-02, 2.89897770e-02,
          9.57307406e-03, 7.68056326e-03, 4.76795295e-03, 1.42496331e-02,
          1.48963006e-02, 1.12661421e-02, 5.99321304e-03, 1.95583075e-01,
          1.53020367e-01, 1.47666276e-01, 1.39561266e-01, 2.15766639e-01,
          1.83336824e-01, 1.13706112e-01, 1.13199592e-01, 1.66411385e-01,
          1.77065402e-01, 1.30908400e-01, 1.52324557e-01, 2.07850918e-01,
          1.71437576e-01, 1.11788169e-01, 1.10600978e-01, 1.25206217e-01,
          1.97718844e-01, 1.32921875e-01, 1.55011088e-01, 2.33140767e-01,
          1.86094508e-01, 1.08876765e-01, 8.42282325e-02, 1.67610303e-01,
          2.25671560e-01, 1.83980107e-01, 1.51832193e-01, 3.60623688e-01,
          2.80707091e-01, 8.12490955e-02, 6.85446039e-02 ]
      - [ 4.64524981e-03, 6.61399774e-03, 0., 4.49977629e-02,
          4.57865521e-02, 4.41026734e-03, 0., 0., 1.61831193e-02,
          6.61944738e-03, 1.27706388e-02, 6.79676756e-02, 5.55184782e-02,
          8.59423913e-03, 8.16587545e-03, 7.77247781e-03, 1.52963521e-02,
          2.72980854e-02, 3.79560553e-02, 1.24231227e-01, 8.20251033e-02,
          2.12391522e-02, 1.00230305e-02, 2.00313143e-02, 2.16320902e-02,
          2.76208203e-03, 9.46467556e-03, 1.20887049e-02, 9.38658491e-02,
          1.21175483e-01, 1.17655464e-01, 8.79631937e-03, 6.34145886e-02,
          5.37690371e-02, 1.00559838e-01, 2.29061574e-01, 2.21044019e-01,
          1.19068593e-01, 7.50762597e-02, 5.39085604e-02, 4.68886383e-02,
          3.36508937e-02, 3.83818448e-02, 1.46067739e-01, 1.05599575e-01,
          2.46302690e-02, 5.28448746e-02, 7.79961869e-02, 1.13339454e-01,
          1.05311327e-01, 1.20124474e-01, 1.78886384e-01, 2.40224600e-01,
          2.70542800e-01, 2.45768547e-01, 2.14410633e-01, 1.35404274e-01,
          1.55328989e-01, 1.71881244e-01, 2.41512403e-01, 3.21011245e-01,
          3.35016549e-01, 2.32043236e-01, 1.69737995e-01 ]
      - [ 4.89469767e-02, 4.58650254e-02, 8.67849737e-02, 4.31694873e-02,
          0., 0., 2.43872125e-02, 0., 3.43293473e-02, 1.81880165e-02, 0.,
          0., 0., 0., 4.20554914e-02, 4.93271388e-02, 1.19315200e-02,
          1.61177646e-02, 3.28754373e-02, 3.26739959e-02, 4.12105061e-02,
          2.85050999e-02, 1.27181768e-01, 5.40549606e-02, 5.32872863e-02,
          3.35535314e-03, 3.40493657e-02, 2.65459269e-02, 2.37718690e-02,
          5.85701950e-02, 1.02340616e-01, 5.25835678e-02, 1.24240488e-01,
          5.73898591e-02, 1.14318721e-01, 9.46891680e-02, 1.64791107e-01,
          2.09583908e-01, 1.49635926e-01, 9.19412374e-02, 1.11350253e-01,
          7.49863014e-02, 1.01177938e-01, 1.11684904e-01, 1.67146757e-01,
          2.71914065e-01, 1.79027975e-01, 8.28225091e-02, 1.22749388e-01,
          9.43534374e-02, 1.67408481e-01, 2.74232537e-01, 2.45821640e-01,
          3.00291151e-01, 1.64499745e-01, 1.05325200e-01, 1.32800937e-01,
          2.05849692e-01, 1.68026745e-01, 1.59561694e-01, 1.71910122e-01,
          3.01282674e-01, 2.17400357e-01, 1.10624336e-01 ]
      - [ 1.17457747e-01, 5.60113341e-02, 0., 1.05323354e-02,
          1.07443603e-02, 0., 0., 1.05987983e-02, 9.63097811e-03,
          1.75829735e-02, 1.45888710e-02, 4.41975445e-02, 9.56075415e-02,
          3.85616198e-02, 5.48508950e-02, 6.15631938e-02, 4.51438390e-02,
          5.48797660e-02, 5.23964129e-02, 4.74396423e-02, 1.09409630e-01,
          8.60103145e-02, 8.95109028e-02, 5.91254011e-02, 5.94653636e-02,
          3.58348563e-02, 6.76864684e-02, 8.10728222e-02, 1.22156538e-01,
          4.66290005e-02, 2.76988260e-02, 3.39938663e-02, 1.05898418e-01,
          8.09054449e-02, 9.17703062e-02, 1.14827827e-01, 2.29078636e-01,
          1.28276184e-01, 8.29515234e-02, 6.15503490e-02, 7.91325793e-02,
          6.22618534e-02, 6.68300316e-02, 1.30360350e-01, 3.14705431e-01,
          1.64523348e-01, 8.01226646e-02, 7.91143253e-02, 1.67854518e-01,
          1.05586775e-01, 1.21223472e-01, 1.40022233e-01, 1.70907378e-01,
          1.46667197e-01, 1.34089336e-01, 1.17241293e-01, 2.22262397e-01,
          2.00642303e-01, 1.51475355e-01, 2.37502843e-01, 3.92827034e-01,
          2.38820210e-01, 1.71915919e-01, 1.77423656e-01 ]
      - [ 1.45703018e-01, 1.21758416e-01, 2.98034512e-02, 1.97010338e-02,
          2.60262620e-02, 1.84907001e-02, 4.64215456e-03, 4.87876078e-03,
          1.15236966e-02, 1.05463741e-02, 0., 3.53074409e-02,
          4.77662496e-02, 2.78465785e-02, 1.11524118e-02, 2.39870436e-02,
          9.22715142e-02, 3.10641751e-02, 3.35946977e-02, 1.98974963e-02,
          3.56765017e-02, 1.47236967e-02, 1.74222048e-02, 7.10344035e-03,
          1.38356593e-02, 2.29415614e-02, 2.77407244e-02, 2.33638920e-02,
          9.85682979e-02, 1.05163060e-01, 6.95550069e-02, 4.89525348e-02,
          1.16263725e-01, 8.48241076e-02, 8.87279510e-02, 7.87501857e-02,
          2.42087945e-01, 1.66260943e-01, 8.29238668e-02, 6.09128065e-02,
          1.25499085e-01, 8.63374397e-02, 1.10081859e-01, 8.63398314e-02,
          2.28373453e-01, 2.12156430e-01, 8.09232742e-02, 7.41724148e-02,
          1.16318502e-01, 1.06130473e-01, 1.01829842e-01, 8.80005509e-02,
          2.98237532e-01, 3.30131263e-01, 1.31924376e-01, 1.15239076e-01,
          1.41593009e-01, 1.38466865e-01, 8.85423645e-02, 1.68702140e-01,
          3.82242650e-01, 3.33850056e-01, 1.40477121e-01, 7.42204636e-02 ]
      - [ 5.83845153e-02, 1.26056895e-01, 4.95244451e-02, 0.,
          6.05948679e-02, 4.42071222e-02, 1.52834980e-02, 1.95648056e-02,
          0., 0., 2.68326495e-02, 4.25413065e-02, 1.98267046e-02,
          2.17938367e-02, 3.74421626e-02, 0., 5.17466553e-02,
          2.03195624e-02, 1.35384537e-02, 1.87046696e-02, 4.66985777e-02,
          4.15988863e-02, 2.23499518e-02, 2.15780586e-02, 1.81856360e-02,
          1.44972997e-02, 2.25778315e-02, 1.86203439e-02, 8.38741735e-02,
          1.06249243e-01, 5.42824157e-02, 3.93899530e-02, 1.09012716e-01,
          9.36538354e-02, 2.02553406e-01, 1.15250155e-01, 1.54229447e-01,
          1.68264613e-01, 6.61773905e-02, 4.20055911e-02, 8.34592208e-02,
          1.04212783e-01, 1.44830719e-01, 1.39056236e-01, 1.33871540e-01,
          1.65546015e-01, 1.04956761e-01, 2.55461354e-02, 1.24752343e-01,
          1.42285034e-01, 3.23636830e-01, 2.24557251e-01, 2.38582298e-01,
          1.63333759e-01, 1.12979472e-01, 1.08185463e-01, 1.66588083e-01,
          2.13698566e-01, 2.93216676e-01, 2.55825758e-01, 2.45137244e-01,
          2.48014316e-01, 1.75067291e-01, 1.00037195e-01 ]
      - [ 2.70753168e-02, 1.61708016e-02, 3.99277406e-03, 8.74196365e-03,
          2.15620920e-02, 1.69955008e-02, 1.31781064e-02, 9.26804077e-03,
          1.08484626e-02, 1.30840773e-02, 7.18738511e-03, 1.17439767e-02,
          4.24354076e-02, 5.92079796e-02, 2.56551895e-02, 1.40381493e-02,
          3.28125469e-02, 3.77058871e-02, 2.53125466e-02, 2.68746372e-02,
          4.55847532e-02, 4.04518805e-02, 2.42783353e-02, 1.23749869e-02,
          2.43619345e-02, 1.77128557e-02, 3.36594954e-02, 3.32574137e-02,
          1.71227735e-02, 1.89235266e-02, 2.31540799e-02, 2.67925709e-02,
          8.87991488e-02, 1.00090757e-01, 1.08647756e-01, 1.23778686e-01,
          2.26513386e-01, 1.52915850e-01, 8.49353224e-02, 4.33204174e-02,
          6.97971210e-02, 3.23795788e-02, 7.49830008e-02, 1.31989986e-01,
          1.56512231e-01, 1.07870325e-01, 5.40748388e-02, 5.20174503e-02,
          1.79438308e-01, 2.02536806e-01, 1.70641169e-01, 2.36410663e-01,
          3.44810426e-01, 2.81827927e-01, 1.67301431e-01, 1.27553701e-01,
          1.78810507e-01, 1.97861850e-01, 1.65468812e-01, 1.94757134e-01,
          3.22915167e-01, 3.10396910e-01, 1.74996674e-01, 9.93326381e-02 ]
      - [ 3.89120542e-02, 2.11202204e-02, 2.30031237e-02, 4.77883928e-02,
          6.28578812e-02, 0., 0., 0., 5.90419546e-02, 1.21721551e-02,
          3.72261852e-02, 7.72599503e-02, 9.85996500e-02, 3.07226218e-02,
          3.38665769e-02, 2.73116082e-02, 5.71742877e-02, 4.49123383e-02,
          3.55987810e-02, 6.33619726e-02, 9.46318358e-02, 3.54104489e-02,
          2.74109226e-02, 4.48805280e-02, 0., 1.64325163e-02,
          3.00215520e-02, 5.29667996e-02, 1.01903826e-01, 7.02255666e-02,
          1.23039797e-01, 1.17969558e-01, 7.58514404e-02, 2.07392424e-02,
          3.35868485e-02, 1.13587499e-01, 3.56958628e-01, 8.43472257e-02,
          1.55742988e-01, 8.51890668e-02, 9.41832289e-02, 5.58327585e-02,
          8.21920857e-02, 1.46010578e-01, 4.13451403e-01, 1.24618873e-01,
          3.75564843e-02, 2.48714611e-02, 8.90521929e-02, 7.61366040e-02,
          9.63781923e-02, 1.53740570e-01, 3.16088825e-01, 2.15874061e-01,
          1.24999218e-01, 1.14137217e-01, 1.01378828e-01, 6.76944256e-02,
          9.79648158e-02, 1.97919354e-01, 3.84707689e-01, 1.84693009e-01,
          8.55174735e-02, 7.83623457e-02 ]
      - [ 6.83323070e-02, 4.94959243e-02, 5.41867651e-02, 6.03072233e-02,
          2.17813067e-02, 2.18392350e-02, 2.56179404e-02, 1.22853154e-02,
          1.71781704e-02, 1.28260525e-02, 7.08870264e-03, 3.18860635e-02,
          1.15300179e-01, 2.21733525e-02, 1.02171581e-02, 3.67532261e-02,
          8.75822231e-02, 4.40195389e-02, 7.77393952e-02, 6.93645328e-02,
          4.76965085e-02, 4.50677909e-02, 1.66143160e-02, 2.46806890e-02,
          1.59821864e-02, 1.57664772e-02, 0., 8.22193734e-03,
          1.18145518e-01, 7.86860436e-02, 6.32350445e-02, 8.27299058e-02,
          1.38011932e-01, 1.11386232e-01, 1.17079340e-01, 1.72433332e-01,
          1.67971924e-01, 9.43046585e-02, 9.90259051e-02, 1.01181120e-01,
          1.33618861e-01, 9.39645246e-02, 7.96354935e-02, 2.62787640e-01,
          2.72670269e-01, 9.17045325e-02, 5.74071296e-02, 8.54261965e-02,
          2.27069438e-01, 1.68648571e-01, 1.98082373e-01, 2.37541199e-01,
          1.75871417e-01, 1.62888139e-01, 1.20136872e-01, 1.59733847e-01,
          2.10915521e-01, 1.81800097e-01, 1.60506427e-01, 2.86801308e-01,
          2.71359473e-01, 1.09502666e-01, 1.13860935e-01, 1.60810038e-01 ]
      - [ 8.05022269e-02, 5.90613633e-02, 1.37831261e-02, 5.25686331e-02,
          9.27406922e-02, 1.22740772e-02, 1.34600252e-02, 0.,
          1.45946182e-02, 1.92431621e-02, 0., 5.06099313e-02,
          4.81312349e-02, 3.44724022e-02, 1.69390328e-02, 4.12208587e-02,
          2.24421751e-02, 2.89404243e-02, 2.28316896e-02, 4.70451117e-02,
          8.75365436e-02, 3.35525051e-02, 1.57143530e-02, 6.70111552e-03,
          9.97002237e-03, 6.40220894e-03, 6.34849770e-03, 2.06041895e-02,
          1.34874210e-01, 1.41564580e-02, 2.86104549e-02, 1.41296387e-02,
          6.74715564e-02, 6.89986423e-02, 9.65853110e-02, 2.57835835e-01,
          3.33514094e-01, 6.51729703e-02, 4.42075320e-02, 4.47499268e-02,
          5.46677783e-02, 5.08298166e-02, 1.26351878e-01, 1.81021422e-01,
          1.31380677e-01, 5.96323758e-02, 4.16981652e-02, 3.25138420e-02,
          1.83999985e-01, 2.05759183e-01, 1.87784865e-01, 2.21498147e-01,
          2.56783992e-01, 9.86468941e-02, 9.52148810e-02, 1.05369806e-01,
          1.83294177e-01, 2.12322623e-01, 1.88218564e-01, 3.11814040e-01,
          3.76477808e-01, 1.46277323e-01, 1.02914505e-01, 1.11584961e-01 ]
      - [ 2.66028605e-02, 2.06589978e-02, 1.48732085e-02, 0., 0., 0.,
          3.31560336e-03, 0., 2.78807897e-03, 6.29118178e-03,
          4.68897121e-03, 5.00683673e-03, 1.28899189e-02, 4.21023089e-03,
          1.73799936e-02, 8.37196782e-03, 1.82223096e-02, 1.81310400e-02,
          2.63241529e-02, 9.94825810e-02, 9.34526473e-02, 1.80461146e-02,
          1.29243499e-02, 8.46065581e-03, 1.06609492e-02, 4.21023089e-03,
          6.11895230e-03, 1.04502521e-01, 8.70040953e-02, 1.37085011e-02,
          1.32095870e-02, 9.34106484e-03, 9.86079872e-02, 4.27979007e-02,
          1.28546119e-01, 1.86955646e-01, 1.92405552e-01, 1.37929186e-01,
          9.80942324e-02, 5.96732721e-02, 1.03350967e-01, 6.51351288e-02,
          1.25404924e-01, 1.57591298e-01, 2.01764911e-01, 1.90531418e-01,
          8.57821479e-02, 6.32350445e-02, 7.50583410e-02, 6.60325810e-02,
          1.34699211e-01, 2.72634268e-01, 4.19069439e-01, 9.14195701e-02,
          6.55025616e-02, 6.95996806e-02, 8.25835839e-02, 1.39133975e-01,
          1.87819228e-01, 2.25846902e-01, 4.86673534e-01, 1.76022604e-01,
          6.06583245e-02, 5.15511222e-02 ]
      - [ 0., 5.70511334e-02, 4.23515737e-02, 0., 0., 0., 1.15171066e-02,
          0., 0., 1.65200103e-02, 0., 1.00103980e-02, 9.77208279e-03, 0.,
          9.24186502e-03, 0., 3.10333725e-02, 5.24520390e-02,
          6.98924363e-02, 3.29585746e-02, 3.93894315e-02, 4.37020836e-03,
          7.21347379e-03, 1.66691616e-02, 2.13784147e-02, 3.27815339e-02,
          8.39245096e-02, 2.50821970e-02, 3.16153392e-02, 2.30053850e-02,
          2.50037052e-02, 2.50234380e-02, 8.16843733e-02, 1.00272745e-01,
          1.19318016e-01, 1.75495103e-01, 3.63204956e-01, 8.14707801e-02,
          2.56910864e-02, 2.99104750e-02, 3.09315808e-02, 1.69786569e-02,
          4.61463928e-02, 1.03105314e-01, 3.19472998e-01, 1.11594997e-01,
          5.78827783e-02, 5.74204288e-02, 1.58233523e-01, 1.84169114e-01,
          1.06560692e-01, 1.21126018e-01, 2.99330205e-01, 1.46708637e-01,
          1.46714732e-01, 1.13783263e-01, 1.34866595e-01, 2.16135114e-01,
          2.04200789e-01, 1.49296984e-01, 4.21868742e-01, 2.51362234e-01,
          1.23165980e-01, 1.33638442e-01 ]
      - [ 7.24315718e-02, 5.58748879e-02, 4.98669408e-02, 1.96296871e-02,
          1.98546536e-02, 2.97319014e-02, 1.10096801e-02, 0.,
          6.08274527e-03, 8.77509732e-03, 3.78784537e-02, 3.22717875e-02,
          4.23551239e-02, 3.39980721e-02, 4.65023778e-02, 5.04151583e-02,
          4.64740247e-02, 3.12266629e-02, 2.52054334e-02, 1.91115681e-02,
          4.65810113e-02, 8.56248885e-02, 6.74186274e-02, 5.68155497e-02,
          5.13513684e-02, 7.68034235e-02, 6.97438195e-02, 2.34360918e-02,
          4.93107215e-02, 7.91446418e-02, 3.08537707e-02, 2.25794148e-02,
          1.01216346e-01, 7.11538792e-02, 9.88697335e-02, 1.19981691e-01,
          1.83118179e-01, 1.82456598e-01, 1.02336362e-01, 6.88648447e-02,
          9.23120826e-02, 7.67969564e-02, 6.77091181e-02, 8.44963267e-02,
          2.52899647e-01, 1.64489880e-01, 1.04431435e-01, 7.64466971e-02,
          1.69469729e-01, 1.56393826e-01, 1.59162328e-01, 1.72224328e-01,
          3.50546330e-01, 2.28860766e-01, 1.52498156e-01, 1.14471599e-01,
          2.08608538e-01, 1.77775562e-01, 1.30831748e-01, 1.65038928e-01,
          3.47791523e-01, 2.68886864e-01, 1.76977336e-01, 1.11020312e-01 ]
      - [ 7.34237731e-02, 3.82639058e-02, 0., 0., 1.75593253e-02,
          1.60826836e-02, 2.39172131e-02, 1.87455993e-02, 3.91823053e-02,
          2.45072059e-02, 2.94034984e-02, 2.82319319e-02, 3.58821228e-02,
          4.12349328e-02, 3.37766223e-02, 6.53760582e-02, 4.65214550e-02,
          4.53608595e-02, 3.64910737e-02, 4.36153673e-02, 6.07132390e-02,
          2.50998214e-02, 2.54010446e-02, 4.13276181e-02, 2.83775236e-02,
          2.86849067e-02, 3.61316316e-02, 2.94538494e-02, 6.60969317e-02,
          4.40693274e-02, 2.28891093e-02, 2.29290668e-02, 8.12297240e-02,
          9.52184871e-02, 8.31865370e-02, 1.06025696e-01, 3.14451247e-01,
          1.44440502e-01, 6.87974095e-02, 3.84857468e-02, 7.25183412e-02,
          1.96903646e-02, 4.38640676e-02, 1.14245132e-01, 1.77960515e-01,
          1.56571433e-01, 7.73006901e-02, 5.14540225e-02, 1.14236414e-01,
          1.19887635e-01, 1.60375044e-01, 1.99810162e-01, 3.53684336e-01,
          2.46678740e-01, 1.21251710e-01, 1.00096181e-01, 1.65524647e-01,
          1.81681871e-01, 1.51971042e-01, 1.92941576e-01, 4.42953587e-01,
          2.62301087e-01, 1.11920074e-01, 8.34166929e-02 ]
      - [ 0., 0., 0., 0., 0., 0., 0., 0., 0., 0., 0., 0., 0., 0., 0., 0.,
          5.76376058e-02, 6.17624586e-03, 0., 6.53058477e-03,
          1.40558686e-02, 0., 9.76550207e-03, 1.13113048e-02,
          9.76550207e-03, 9.88498982e-03, 1.31420474e-02, 1.05554368e-02,
          5.64167500e-02, 0., 1.57463998e-02, 1.48027658e-01,
          4.29126732e-02, 2.13951431e-02, 2.51076259e-02, 2.40010485e-01,
          3.54120106e-01, 7.24234805e-02, 6.20322153e-02, 1.23233691e-01,
          1.00934424e-01, 1.52060539e-02, 2.46625878e-02, 1.13596469e-01,
          6.74680099e-02, 2.29350328e-02, 2.63801739e-02, 1.63082555e-02,
          1.40334263e-01, 7.66180158e-02, 1.58375055e-01, 4.04057354e-01,
          2.26241633e-01, 9.59619731e-02, 8.35118666e-02, 9.59179699e-02,
          1.77123338e-01, 1.44390628e-01, 2.32876480e-01, 4.79142517e-01,
          2.95511454e-01, 6.25132546e-02, 8.36208612e-02, 7.37157091e-02 ]
      - [ 6.35352582e-02, 1.31873280e-01, 2.01573633e-02, 0.,
          2.37731468e-02, 0., 9.56720207e-03, 0., 8.83460417e-03, 0., 0.,
          0., 1.47790937e-02, 2.10816171e-02, 0., 2.40371097e-02,
          5.16848303e-02, 8.41503441e-02, 9.32063833e-02, 7.01710507e-02,
          5.11564501e-02, 4.40392196e-02, 2.55849566e-02, 2.42913570e-02,
          4.25829589e-02, 4.53265719e-02, 6.56661168e-02, 7.59440586e-02,
          1.01627298e-01, 3.13688628e-02, 4.23629209e-02, 3.95823605e-02,
          1.11695386e-01, 7.50489682e-02, 6.65677339e-02, 1.23121701e-01,
          2.69020587e-01, 2.08552688e-01, 4.97817546e-02, 3.69508527e-02,
          6.93461075e-02, 4.40914556e-02, 5.82130738e-02, 1.05982304e-01,
          1.96281284e-01, 2.58671165e-01, 9.48341116e-02, 5.56656905e-02,
          1.02141142e-01, 1.05361193e-01, 1.36679634e-01, 2.60804713e-01,
          3.50429624e-01, 2.38040090e-01, 8.24065730e-02, 6.53960109e-02,
          1.16264157e-01, 2.40076348e-01, 1.54657632e-01, 1.64558098e-01,
          2.82109737e-01, 3.26252699e-01, 1.01610780e-01, 6.94533810e-02 ]
      - [ 2.66020093e-02, 4.58244840e-03, 1.25557454e-02, 7.91242253e-03,
          3.95737216e-02, 4.76602353e-02, 1.26047850e-01, 8.50452334e-02,
          5.72654530e-02, 3.12172119e-02, 2.87388861e-02, 3.46168354e-02,
          1.14672102e-01, 4.84364666e-02, 1.68009084e-02, 1.30170146e-02,
          8.40962902e-02, 3.48493867e-02, 3.79173756e-02, 2.70674508e-02,
          9.53480229e-02, 5.08610867e-02, 3.09685189e-02, 4.18318436e-03,
          2.35076267e-02, 6.31882064e-03, 1.12463171e-02, 1.88620221e-02,
          5.58116026e-02, 5.34495860e-02, 1.56675309e-01, 1.01440959e-01,
          5.02455384e-02, 5.44383153e-02, 6.72049895e-02, 1.61039874e-01,
          2.21119732e-01, 1.13676943e-01, 1.05258793e-01, 4.93123122e-02,
          6.13254607e-02, 4.00889441e-02, 8.53391215e-02, 1.78955749e-01,
          1.76547512e-01, 8.42807293e-02, 7.15256482e-02, 4.80955541e-02,
          8.96103755e-02, 9.75129083e-02, 1.21168859e-01, 2.04825953e-01,
          4.04711455e-01, 2.41544172e-01, 1.94605067e-01, 9.44887474e-02,
          1.08202659e-01, 1.02448031e-01, 1.24231853e-01, 3.14527273e-01,
          3.65199208e-01, 2.00886786e-01, 1.27716556e-01, 1.16265379e-01 ]
      - [ 5.09213377e-03, 3.94738978e-03, 1.42184403e-02, 2.30972022e-02,
          3.04122791e-02, 1.65916439e-02, 1.15820542e-02, 0.,
          9.52650979e-03, 5.64837223e-03, 6.88764779e-03, 3.76828685e-02,
          4.47115526e-02, 0., 8.45147949e-03, 0., 4.34812456e-02,
          2.13795118e-02, 2.98876595e-02, 2.50146743e-02, 1.36804447e-01,
          3.88362221e-02, 8.34925380e-03, 0., 2.02621706e-02,
          9.42004658e-03, 7.77206803e-03, 3.72596495e-02, 1.06567703e-01,
          6.73938096e-02, 6.23548999e-02, 4.90989499e-02, 9.41135362e-02,
          7.66419768e-02, 9.31711420e-02, 1.86655134e-01, 2.18426511e-01,
          7.43884668e-02, 1.57964721e-01, 5.48516028e-02, 8.32199156e-02,
          6.53828084e-02, 7.74851963e-02, 8.24273452e-02, 3.07762712e-01,
          8.51144865e-02, 4.56340387e-02, 5.34523129e-02, 1.41993269e-01,
          1.04895197e-01, 1.23949394e-01, 2.14608565e-01, 3.99950176e-01,
          1.34275660e-01, 1.59164801e-01, 1.51785925e-01, 1.58660978e-01,
          1.23799875e-01, 1.10272072e-01, 2.32423380e-01, 4.34948683e-01,
          1.74753964e-01, 1.09420031e-01, 1.35068759e-01 ]
      - [ 4.20581810e-02, 4.73092459e-02, 1.18729085e-01, 9.96965691e-02,
          2.75080521e-02, 0., 0., 0., 2.16404069e-02, 0., 3.48206796e-02,
          2.15725396e-02, 2.69454811e-02, 2.36910023e-02, 2.86398493e-02,
          1.94193404e-02, 7.65475035e-02, 6.73583671e-02, 4.46531437e-02,
          3.35443914e-02, 4.59205471e-02, 2.56526712e-02, 1.13646472e-02,
          3.43175791e-02, 3.43327932e-02, 3.85889634e-02, 4.85957116e-02,
          9.94865522e-02, 7.30576590e-02, 9.99489054e-02, 9.91971940e-02,
          7.87540153e-02, 6.60382509e-02, 3.87371704e-02, 9.11099464e-02,
          2.59911001e-01, 2.98998266e-01, 1.21674061e-01, 4.69319634e-02,
          3.21526825e-02, 3.41530591e-02, 3.54989395e-02, 7.58855939e-02,
          2.17324913e-01, 3.41516674e-01, 6.29523620e-02, 4.19753231e-02,
          1.34661337e-02, 1.26717672e-01, 1.54861197e-01, 1.36792377e-01,
          2.05535397e-01, 1.95948467e-01, 1.61932424e-01, 1.15907878e-01,
          9.97588262e-02, 1.23666056e-01, 1.24835975e-01, 1.87753797e-01,
          3.32870096e-01, 3.63617957e-01, 1.36641040e-01, 9.82786044e-02,
          9.53484252e-02 ]
      - [ 1.99523009e-02, 1.79833472e-02, 2.04849076e-02, 1.44338712e-01,
          7.42608607e-02, 0., 0., 0., 0., 1.04718320e-02, 0.,
          4.90978546e-02, 4.81380485e-02, 0., 5.48372231e-03, 0.,
          9.42642838e-02, 2.46400069e-02, 2.42669079e-02, 6.80624917e-02,
          1.05727762e-01, 2.93472577e-02, 3.29372361e-02, 1.10461423e-02,
          2.51000412e-02, 2.63884012e-02, 2.83453222e-02, 7.74774253e-02,
          1.34671837e-01, 5.79949245e-02, 4.45837714e-02, 1.36709452e-01,
          7.88606405e-02, 7.72306770e-02, 9.07562822e-02, 3.24490994e-01,
          1.84580639e-01, 9.89387929e-02, 1.13262847e-01, 1.19456589e-01,
          1.39734805e-01, 9.50809792e-02, 6.56822696e-02, 2.07971856e-01,
          1.43331006e-01, 6.34511337e-02, 4.22343239e-02, 5.52369878e-02,
          1.76020011e-01, 1.29802987e-01, 1.21770695e-01, 1.82172284e-01,
          2.45643735e-01, 1.34042338e-01, 1.04533449e-01, 2.53019810e-01,
          1.94966465e-01, 1.48380652e-01, 1.77811012e-01, 3.06439072e-01,
          3.02161783e-01, 1.40636951e-01, 1.24972306e-01, 1.60663873e-01 ]
      - [ 1.21302500e-01, 4.48359326e-02, 3.44001055e-02, 2.34213881e-02,
          9.68463812e-03, 0., 9.22553428e-03, 1.06812837e-02,
          6.82711881e-03, 1.19357128e-02, 1.88487731e-02, 1.35496957e-02,
          2.23002583e-02, 0., 1.07906759e-02, 1.28140822e-02,
          1.94127426e-01, 5.12642339e-02, 1.95385609e-02, 4.05961536e-02,
          4.41444591e-02, 4.16363440e-02, 3.44451703e-02, 4.27688397e-02,
          1.31589338e-01, 3.63407545e-02, 1.49644949e-02, 1.29694650e-02,
          1.17655836e-01, 3.81950997e-02, 3.32199037e-02, 5.40615208e-02,
          3.03137098e-02, 3.62268165e-02, 4.32995409e-02, 1.21569000e-01,
          2.95505315e-01, 9.19208974e-02, 5.47329262e-02, 3.57859954e-02,
          4.93043028e-02, 3.06056999e-02, 2.51654126e-02, 6.53432980e-02,
          1.48883253e-01, 6.75880089e-02, 3.08260433e-02, 2.88003068e-02,
          2.48455316e-01, 1.66955814e-01, 1.68795466e-01, 2.12451681e-01,
          3.43527287e-01, 1.89057440e-01, 1.23837352e-01, 1.39780983e-01,
          2.88914710e-01, 2.10260972e-01, 1.76064536e-01, 1.94207817e-01,
          3.07389051e-01, 2.11424485e-01, 1.54531196e-01, 1.59067780e-01 ]
      - [ 5.99762239e-02, 2.86676083e-02, 3.52440327e-02, 3.27931307e-02,
          3.25909518e-02, 2.83978004e-02, 3.49494927e-02, 6.75656870e-02,
          5.54835834e-02, 2.79201753e-02, 2.49579474e-02, 2.35872492e-02,
          4.49794307e-02, 4.44779024e-02, 5.33191003e-02, 7.68946782e-02,
          3.22352014e-02, 1.62679870e-02, 1.97684802e-02, 2.19178610e-02,
          9.15977955e-02, 7.22527131e-02, 3.78638804e-02, 4.52295989e-02,
          4.15495820e-02, 3.26186568e-02, 3.71122509e-02, 6.21428415e-02,
          6.90228119e-02, 2.56155282e-02, 4.85647134e-02, 7.54427910e-02,
          1.11852676e-01, 1.04506254e-01, 1.00527048e-01, 1.57721177e-01,
          3.14746678e-01, 1.03518799e-01, 8.36136490e-02, 1.30126595e-01,
          1.25517562e-01, 8.15821737e-02, 9.52100530e-02, 1.70879140e-01,
          1.97303429e-01, 1.29068807e-01, 1.21479698e-01, 9.19083208e-02,
          1.02162771e-01, 6.74856231e-02, 9.67717096e-02, 1.52100667e-01,
          3.05780411e-01, 1.68976292e-01, 1.21103898e-01, 1.81184754e-01,
          1.57997131e-01, 8.80912691e-02, 1.21697254e-01, 2.04282463e-01,
          4.61513847e-01, 2.13044912e-01, 1.25744998e-01, 1.22322507e-01 ]
      - [ 5.94834564e-03, 1.92781296e-02, 7.12589622e-02, 9.33934823e-02,
          5.50769493e-02, 2.11920384e-02, 4.04016161e-03, 0.,
          2.63038520e-02, 1.46871097e-02, 7.52844438e-02, 1.17448166e-01,
          6.16542771e-02, 3.12395468e-02, 2.55522248e-03, 1.25571890e-02,
          9.75610241e-02, 6.21923804e-02, 5.85977361e-02, 9.58906487e-02,
          1.36916652e-01, 2.54187491e-02, 8.01573414e-03, 5.94834564e-03,
          3.82094900e-03, 1.10208709e-02, 2.78127175e-02, 9.56861526e-02,
          1.30311742e-01, 8.76111314e-02, 7.60616586e-02, 1.17266759e-01,
          3.75334807e-02, 2.63810270e-02, 5.31051867e-02, 9.32028145e-02,
          1.71437576e-01, 5.06836362e-02, 4.73069921e-02, 1.77314982e-01,
          9.18903425e-02, 6.64234459e-02, 1.14594512e-01, 1.75114170e-01,
          2.45816439e-01, 1.04465477e-01, 8.80216062e-02, 6.89585507e-02,
          2.16880858e-01, 1.81418136e-01, 2.10905284e-01, 3.12732100e-01,
          2.22656861e-01, 1.24209516e-01, 1.22753941e-01, 1.40329450e-01,
          2.00523689e-01, 2.73752719e-01, 2.02166900e-01, 2.15104923e-01,
          2.49608964e-01, 1.11035988e-01, 1.34803787e-01, 1.42750755e-01 ]
      - [ 1.97258312e-02, 1.06108310e-02, 0., 6.21724175e-03,
          9.28577874e-03, 0., 6.40662527e-03, 0., 2.85464502e-03, 0., 0.,
          4.55806451e-03, 2.38898732e-02, 1.70389842e-02, 8.98170192e-03,
          3.58952628e-03, 3.63768674e-02, 9.00446996e-03, 2.12672595e-02,
          1.72928069e-02, 3.33850272e-02, 0., 6.35102252e-03,
          4.55806451e-03, 1.92715265e-02, 9.60184354e-03, 1.28060700e-02,
          4.00086790e-02, 7.53508881e-02, 1.42724402e-02, 9.43304412e-03,
          9.35578272e-02, 4.75779288e-02, 8.34865123e-02, 1.01834744e-01,
          1.07307948e-01, 1.44385830e-01, 1.25955403e-01, 8.41493011e-02,
          6.41633645e-02, 1.53774992e-01, 1.61241889e-01, 9.47289914e-02,
          1.95034072e-01, 2.61573642e-01, 1.17814042e-01, 5.04604466e-02,
          3.89223807e-02, 1.21189982e-01, 1.09188065e-01, 1.49471164e-01,
          2.24753425e-01, 4.08963948e-01, 1.98391408e-01, 1.79168463e-01,
          1.64937511e-01, 1.75633386e-01, 1.82187453e-01, 1.68905780e-01,
          2.93217152e-01, 3.49240571e-01, 1.70543611e-01, 1.02795713e-01,
          1.02321722e-01 ]
      - [ 7.98131600e-02, 4.75107469e-02, 3.36200893e-02, 1.74387321e-02,
          0., 5.47258966e-02, 0., 9.23289079e-03, 0., 0., 1.16565945e-02,
          0., 4.36044335e-02, 3.20589468e-02, 1.62191819e-02,
          3.42412964e-02, 3.03778816e-02, 3.04172542e-02, 0.,
          8.62863567e-03, 4.28643972e-02, 4.20319326e-02, 1.15006613e-02,
          2.44735461e-02, 2.02842671e-02, 2.21439227e-02, 1.57648381e-02,
          3.43463495e-02, 7.20024258e-02, 5.60479611e-02, 4.75703143e-02,
          3.37842293e-02, 1.03171684e-01, 8.71179923e-02, 1.10195071e-01,
          2.61923939e-01, 2.51481622e-01, 6.43184409e-02, 5.83377294e-02,
          5.02522029e-02, 7.27323070e-02, 5.66458292e-02, 7.04775006e-02,
          1.01111926e-01, 4.18519795e-01, 9.80763957e-02, 7.54614025e-02,
          4.69883941e-02, 1.46313488e-01, 1.36842608e-01, 9.59566832e-02,
          2.12497219e-01, 2.52878904e-01, 1.15672201e-01, 1.06401354e-01,
          9.56467241e-02, 1.50042281e-01, 1.54315665e-01, 1.37868598e-01,
          2.62136102e-01, 4.44731236e-01, 1.72591686e-01, 9.64953303e-02,
          1.00760125e-01 ]
      - [ 0., 7.21125817e-03, 3.09070982e-02, 0., 0., 0., 0., 0., 0., 0.,
          0., 0., 0., 0., 0., 0., 4.25375924e-02, 4.38872948e-02,
          5.87446690e-02, 5.62349148e-02, 1.05754428e-01, 2.73697991e-02,
          2.78330762e-02, 0., 1.14202006e-02, 2.49041151e-02,
          2.02464238e-02, 3.43300737e-02, 1.19001351e-01, 4.48696613e-02,
          4.09212261e-02, 2.29566041e-02, 8.01985264e-02, 7.54633993e-02,
          1.31636068e-01, 1.57918185e-01, 3.41779947e-01, 1.02091484e-01,
          4.14961316e-02, 2.53631342e-02, 5.16817793e-02, 3.63068841e-02,
          6.85065389e-02, 1.53496325e-01, 2.45209739e-01, 9.20467898e-02,
          3.91059928e-02, 3.84743735e-02, 1.08065099e-01, 1.29504979e-01,
          2.31711090e-01, 3.19699466e-01, 3.13420415e-01, 1.07549593e-01,
          9.97640416e-02, 9.46421847e-02, 1.22980662e-01, 1.22710317e-01,
          3.17828864e-01, 2.57544279e-01, 3.34158778e-01, 1.37645081e-01,
          1.18226387e-01, 1.10473253e-01 ]
      - [ 2.87921485e-02, 2.54851971e-02, 1.91123709e-02, 3.84582542e-02,
          5.37437685e-02, 5.15124835e-02, 4.39335033e-02, 3.76092643e-02,
          4.47373204e-02, 4.93658967e-02, 5.50039671e-02, 3.70505042e-02,
          5.72606176e-02, 3.31434943e-02, 1.95764862e-02, 2.68642660e-02,
          9.58863497e-02, 5.42176813e-02, 5.47859631e-02, 6.89335465e-02,
          1.15368284e-01, 7.63339624e-02, 6.08884431e-02, 4.58225720e-02,
          5.17899022e-02, 3.30978073e-02, 4.14534472e-02, 5.65630533e-02,
          1.05168901e-01, 4.44507264e-02, 9.99919549e-02, 1.71263173e-01,
          1.16752200e-01, 9.38471109e-02, 8.23241770e-02, 9.68714133e-02,
          1.15402371e-01, 1.00482754e-01, 1.49329945e-01, 1.89019740e-01,
          1.26026943e-01, 7.26993009e-02, 9.17455778e-02, 1.23357512e-01,
          1.50136009e-01, 1.09920487e-01, 1.31977499e-01, 1.00568064e-01,
          2.10582748e-01, 1.76833242e-01, 1.60620481e-01, 2.13316530e-01,
          2.85829782e-01, 2.04629466e-01, 2.19368458e-01, 2.34867826e-01,
          1.81677014e-01, 1.55994490e-01, 1.32433668e-01, 1.85958207e-01,
          2.34038785e-01, 1.64866045e-01, 1.69406563e-01, 2.16081038e-01 ]
      - [ 0., 3.59891132e-02, 2.22210065e-02, 0., 0., 0., 3.16207483e-03,
          0., 0., 0., 0., 0., 0., 0., 0., 8.47394671e-03, 1.83678642e-02,
          3.71013097e-02, 3.61150913e-02, 5.01570217e-02, 6.89322725e-02,
          2.12095976e-02, 2.61134878e-02, 4.49954020e-03, 1.59083791e-02,
          2.38662679e-02, 3.47641855e-02, 5.01371659e-02, 3.01398598e-02,
          1.45189669e-02, 1.16681652e-02, 1.50653040e-02, 1.05674058e-01,
          1.28933832e-01, 1.43186480e-01, 1.78678542e-01, 3.73053014e-01,
          9.80814993e-02, 7.69679993e-02, 6.01725131e-02, 8.79181251e-02,
          7.81431347e-02, 1.08091384e-01, 1.28946513e-01, 2.32937038e-01,
          1.31732464e-01, 1.02512240e-01, 7.39516988e-02, 9.01023671e-02,
          1.11301854e-01, 1.57059059e-01, 2.52799064e-01, 3.46805930e-01,
          1.87281623e-01, 1.22431159e-01, 6.53711930e-02, 1.11409858e-01,
          2.00800359e-01, 1.56831995e-01, 1.43607542e-01, 4.14985359e-01,
          2.08759129e-01, 9.90139693e-02, 7.16347173e-02 ]
      - [ 6.02202490e-02, 1.27119925e-02, 3.70748006e-02, 9.62147042e-02,
          5.99688664e-02, 1.13822920e-02, 0., 4.39362600e-03,
          1.75174419e-02, 9.81688034e-03, 2.52113659e-02, 1.95366032e-02,
          4.08608653e-02, 3.23087052e-02, 1.77214798e-02, 0.,
          3.55529077e-02, 3.32859457e-02, 4.11012173e-02, 6.44583106e-02,
          4.89945896e-02, 4.09210101e-02, 9.48124472e-03, 2.04917211e-02,
          6.74016215e-03, 0., 4.45436798e-02, 8.85679200e-02,
          7.67136365e-02, 4.04979847e-02, 1.00860432e-01, 6.83249831e-02,
          1.15560472e-01, 6.91163763e-02, 1.14734948e-01, 1.61844045e-01,
          2.97066063e-01, 1.36843607e-01, 1.39465526e-01, 1.17451698e-01,
          9.90322977e-02, 6.57055303e-02, 8.52897763e-02, 1.49406433e-01,
          2.29687721e-01, 1.36596531e-01, 1.01017512e-01, 6.92602843e-02,
          1.18030861e-01, 1.03998706e-01, 1.39189303e-01, 2.05537766e-01,
          3.06130141e-01, 2.15811938e-01, 2.11779892e-01, 1.17339849e-01,
          8.24287310e-02, 1.15374379e-01, 1.59426898e-01, 2.05630749e-01,
          3.93552333e-01, 1.96899220e-01, 1.71151236e-01, 9.20361429e-02 ]
      - [ 1.44305658e-02, 1.01297786e-02, 2.27395166e-02, 3.40656713e-02,
          5.52443378e-02, 1.19499229e-02, 2.58190986e-02, 2.40602400e-02,
          2.85103321e-02, 2.39743404e-02, 2.68578045e-02, 1.06217943e-01,
          6.48268312e-02, 2.81645600e-02, 7.84708653e-03, 7.56938988e-03,
          4.51884158e-02, 5.93622075e-03, 0., 1.07874675e-02,
          5.54521494e-02, 7.87596107e-02, 2.56112535e-02, 3.50172482e-02,
          1.18956110e-02, 1.32518075e-02, 1.13778226e-02, 3.46020656e-03,
          6.35320544e-02, 3.94459292e-02, 6.27573282e-02, 1.40649453e-01,
          6.79268762e-02, 2.16854997e-02, 3.07580400e-02, 6.97280094e-02,
          8.03278461e-02, 4.48340960e-02, 8.82407799e-02, 1.82257369e-01,
          7.20724612e-02, 2.48702168e-02, 5.97333983e-02, 1.54732898e-01,
          3.30653280e-01, 1.04010090e-01, 6.10740669e-02, 5.35220690e-02,
          9.93306041e-02, 7.70063475e-02, 1.04652978e-01, 2.44441986e-01,
          4.03315902e-01, 1.75097570e-01, 1.39432475e-01, 1.10235713e-01,
          1.04526564e-01, 8.98589939e-02, 7.70772770e-02, 3.16256195e-01,
          4.84976321e-01, 1.40025735e-01, 1.24091774e-01, 7.02057183e-02 ]
      - [ 3.63353044e-02, 2.63648443e-02, 3.38435173e-02, 5.35305887e-02,
          1.25551611e-01, 1.94325950e-02, 1.08473934e-02, 9.02919471e-03,
          4.05600341e-03, 2.78480747e-03, 7.83006102e-03, 3.81169692e-02,
          1.28408134e-01, 2.99190823e-02, 6.06513955e-03, 2.15684026e-02,
          5.23627782e-03, 8.11903924e-03, 0., 8.36332981e-03,
          6.62342552e-03, 0., 9.55040846e-03, 6.22971915e-03,
          1.90211721e-02, 2.72337608e-02, 4.80901971e-02, 6.21273257e-02,
          8.41828883e-02, 2.25986559e-02, 1.08483983e-02, 1.34799490e-02,
          8.34936723e-02, 4.16001566e-02, 6.22693859e-02, 1.96763068e-01,
          2.00088829e-01, 1.92101553e-01, 1.56250149e-01, 1.10387057e-01,
          1.04180977e-01, 7.96696469e-02, 9.59837064e-02, 2.18456000e-01,
          2.80805469e-01, 1.87823787e-01, 1.20432734e-01, 8.78014937e-02,
          1.28460169e-01, 1.20487884e-01, 1.40259758e-01, 1.74644843e-01,
          1.76492795e-01, 1.57933697e-01, 2.26445585e-01, 2.17139438e-01,
          1.57850608e-01, 8.30665007e-02, 1.43346220e-01, 2.99960077e-01,
          2.32843831e-01, 2.13713974e-01, 2.20457301e-01, 2.02093333e-01 ]
      - [ 7.75899440e-02, 3.66953462e-02, 2.65879799e-02, 4.72461469e-02,
          6.45432323e-02, 2.68346537e-02, 1.02467062e-02, 1.30266082e-02,
          2.41077822e-02, 1.87853444e-02, 2.21331976e-02, 5.92541732e-02,
          8.09748173e-02, 2.51248609e-02, 2.88807321e-02, 3.06483284e-02,
          1.23334322e-02, 1.45758158e-02, 4.61149178e-02, 3.64536010e-02,
          1.11630507e-01, 4.16986123e-02, 1.23475399e-02, 0.,
          1.13640958e-02, 5.71168074e-03, 1.06977969e-02, 4.00687717e-02,
          1.15596324e-01, 4.06307764e-02, 2.95193288e-02, 1.15701146e-02,
          8.72320309e-02, 1.03261732e-01, 1.41956672e-01, 2.75293589e-01,
          2.50398159e-01, 8.19679499e-02, 6.38956204e-02, 6.20386526e-02,
          1.18391655e-01, 1.05251633e-01, 1.02767885e-01, 1.69691309e-01,
          1.89141467e-01, 8.26547220e-02, 6.14739060e-02, 7.48567954e-02,
          2.39466101e-01, 1.67710468e-01, 1.66049898e-01, 2.44616151e-01,
          2.59166360e-01, 9.90771800e-02, 7.76717588e-02, 1.35200500e-01,
          2.30606452e-01, 1.84493721e-01, 1.48417979e-01, 3.11775565e-01,
          3.36030155e-01, 9.90367606e-02, 8.24054554e-02, 1.28154203e-01 ]
      - [ 2.34603742e-03, 1.97277428e-03, 0., 0., 5.47612756e-02,
          4.68667261e-02, 2.76456438e-02, 9.80414823e-03, 3.83199491e-02,
          1.82160530e-02, 3.71381305e-02, 4.30999622e-02, 3.41971554e-02,
          0., 5.32287639e-03, 0., 5.06734923e-02, 1.69854388e-02,
          1.73741505e-02, 2.72153225e-02, 4.67565097e-02, 5.08056469e-02,
          3.70187759e-02, 2.32904460e-02, 3.07905935e-02, 2.56906562e-02,
          4.79839630e-02, 5.09089045e-02, 6.63763955e-02, 2.88728997e-02,
          1.55052841e-01, 9.24858227e-02, 7.77425393e-02, 3.11500411e-02,
          3.13826911e-02, 1.01518154e-01, 2.49588415e-01, 1.29689395e-01,
          1.22205988e-01, 8.66283104e-02, 1.13156527e-01, 7.51920044e-02,
          8.28946680e-02, 1.78111464e-01, 2.44967192e-01, 1.77245960e-01,
          8.77751783e-02, 3.93687710e-02, 8.70180652e-02, 7.56916627e-02,
          8.74069259e-02, 1.75998628e-01, 3.54640931e-01, 2.17958808e-01,
          2.19790369e-01, 1.15229465e-01, 1.35591492e-01, 8.90942067e-02,
          8.88617858e-02, 2.11951464e-01, 4.68149871e-01, 2.12540567e-01,
          1.44956574e-01, 6.26262724e-02 ]
      - [ 4.96351831e-02, 5.74027449e-02, 4.66020480e-02, 2.47665234e-02,
          3.34860035e-03, 3.54071381e-03, 0., 0., 6.49433397e-03,
          4.62051434e-03, 1.37387812e-02, 6.65760925e-03, 2.04285663e-02,
          2.81625539e-02, 3.16526368e-02, 3.19893807e-02, 4.48690169e-02,
          3.85772027e-02, 3.00997775e-02, 5.37438802e-02, 7.60237053e-02,
          7.06853345e-02, 5.85202724e-02, 4.34797481e-02, 4.24432941e-02,
          1.09207621e-02, 0., 8.40147678e-03, 2.58030128e-02,
          8.04537460e-02, 7.68169761e-02, 4.02842574e-02, 1.19055763e-01,
          1.20741136e-01, 1.24872588e-01, 1.02490529e-01, 1.09923042e-01,
          9.75873396e-02, 5.00404909e-02, 4.98932190e-02, 8.93836543e-02,
          6.87734112e-02, 1.64886102e-01, 2.46948317e-01, 2.19437063e-01,
          1.81475922e-01, 1.03215471e-01, 6.89704940e-02, 1.36481896e-01,
          1.96145982e-01, 3.51353437e-01, 2.15155244e-01, 2.15943292e-01,
          2.36025706e-01, 7.33052939e-02, 5.29243052e-02, 2.46359527e-01,
          1.94934800e-01, 2.30738595e-01, 1.79563567e-01, 2.82088608e-01,
          2.31279224e-01, 9.48338509e-02, 7.37123564e-02 ]
      - [ 1.67816635e-02, 2.09678207e-02, 2.96105053e-02, 1.75589696e-02,
          1.65927172e-01, 3.34704407e-02, 0., 4.67343442e-03,
          2.91245803e-02, 0., 3.11570913e-02, 5.28694578e-02,
          1.00364909e-01, 3.65667529e-02, 2.08350774e-02, 1.98271517e-02,
          1.02985734e-02, 3.79854627e-02, 4.07512039e-02, 3.61617096e-02,
          9.96435210e-02, 6.05130754e-02, 3.60239483e-02, 2.09803246e-02,
          2.09792517e-02, 3.12408097e-02, 3.06765418e-02, 4.16823067e-02,
          1.35468602e-01, 1.13881856e-01, 4.69456725e-02, 2.48817019e-02,
          6.08925223e-02, 1.56631991e-02, 2.72682328e-02, 6.85157925e-02,
          2.52356648e-01, 2.14561969e-01, 7.83691555e-02, 7.60082016e-03,
          6.16060272e-02, 9.36680101e-03, 2.82647423e-02, 8.16867873e-02,
          4.49514598e-01, 6.78722188e-02, 2.49549448e-02, 2.15640347e-02,
          8.87682140e-02, 6.76029772e-02, 7.12834597e-02, 1.44705117e-01,
          3.81493777e-01, 2.02556953e-01, 1.93675846e-01, 1.03508689e-01,
          8.74502584e-02, 7.41964132e-02, 7.04516619e-02, 1.61524639e-01,
          4.20775443e-01, 1.55909419e-01, 1.34861290e-01, 1.14210613e-01 ]
      - [ 1.51707053e-01, 6.81306124e-02, 1.41477082e-02, 8.69254395e-03,
          5.73371630e-03, 8.95886775e-03, 6.09872025e-03, 0.,
          3.22430581e-03, 8.43887404e-03, 0., 4.55985684e-03,
          7.19244033e-02, 6.19644374e-02, 3.05511598e-02, 4.94690426e-02,
          3.04728691e-02, 2.74700783e-02, 1.98645331e-02, 1.62023213e-02,
          5.51245585e-02, 1.94484256e-02, 0., 0., 5.48830116e-03,
          6.52672676e-03, 4.37830435e-03, 8.59174971e-03, 1.08217709e-01,
          7.77660161e-02, 2.75509767e-02, 2.01126076e-02, 5.89957424e-02,
          4.48934659e-02, 7.25320727e-02, 9.45363864e-02, 1.59754902e-01,
          9.57672074e-02, 5.47290482e-02, 3.07555236e-02, 4.45037261e-02,
          7.11596385e-02, 8.34721252e-02, 1.50193617e-01, 3.06094170e-01,
          1.65062517e-01, 7.80658573e-02, 2.43670549e-02, 1.82251155e-01,
          1.60652876e-01, 1.33463532e-01, 2.57876873e-01, 3.34412962e-01,
          1.81231067e-01, 1.25258431e-01, 1.22840360e-01, 2.01705247e-01,
          1.76556587e-01, 9.99012440e-02, 2.39145517e-01, 4.06854689e-01,
          2.20292792e-01, 1.41196713e-01, 1.42240822e-01 ]
      - [ 3.84882614e-02, 2.10788902e-02, 4.79711778e-02, 3.16719599e-02,
          8.26193392e-03, 0., 4.15889360e-03, 0., 8.60162266e-03,
          1.22191021e-02, 3.69783747e-03, 5.26191434e-03, 2.73075942e-02,
          3.93729061e-02, 3.15049849e-02, 6.39143959e-03, 2.32869405e-02,
          1.83023252e-02, 1.87717229e-02, 3.69388908e-02, 9.50293764e-02,
          3.48532014e-02, 1.39493532e-02, 1.05300993e-02, 7.41867861e-03,
          1.56627651e-02, 2.29456872e-02, 3.98054011e-02, 5.21133505e-02,
          7.94170424e-03, 9.11958795e-03, 1.60183553e-02, 7.82017708e-02,
          9.80010703e-02, 1.17791817e-01, 2.17511460e-01, 2.76101917e-01,
          1.28141433e-01, 5.97921833e-02, 6.61467686e-02, 7.02146888e-02,
          4.23964076e-02, 7.26203471e-02, 1.63077384e-01, 1.85838416e-01,
          8.25867802e-02, 4.68063615e-02, 4.55492474e-02, 1.24122500e-01,
          1.52281687e-01, 2.08452865e-01, 2.60994315e-01, 3.32027316e-01,
          1.87267110e-01, 1.55140340e-01, 1.19131081e-01, 1.46079436e-01,
          1.39503941e-01, 1.92703187e-01, 3.16975623e-01, 3.52082700e-01,
          1.97871462e-01, 1.26305014e-01, 1.39547244e-01 ]
      - [ 3.00907586e-02, 9.22394097e-02, 2.68957242e-02, 0.,
          3.78108956e-03, 0., 0., 0., 7.37530505e-03, 9.21865273e-03,
          1.15905330e-02, 6.26878766e-03, 0., 4.95299418e-03, 0.,
          2.17060093e-02, 2.81477161e-02, 4.05505523e-02, 3.30707021e-02,
          2.79315058e-02, 6.11938499e-02, 2.40047146e-02, 2.36360077e-02,
          1.68977287e-02, 3.76902260e-02, 4.35955226e-02, 3.02033015e-02,
          4.42696586e-02, 3.78685817e-02, 1.05077839e-02, 3.72744328e-03,
          1.70740541e-02, 8.51115808e-02, 5.48386164e-02, 7.00137392e-02,
          2.23377332e-01, 4.40794438e-01, 1.32250831e-01, 4.12376970e-02,
          2.35216189e-02, 9.07429382e-02, 5.72773963e-02, 4.28692885e-02,
          1.12627901e-01, 4.74173576e-01, 7.61583969e-02, 4.47358787e-02,
          6.70758933e-02, 9.35445800e-02, 1.83086559e-01, 1.45864367e-01,
          2.19916821e-01, 2.72451192e-01, 1.16792791e-01, 7.66512826e-02,
          8.33163187e-02, 1.07610866e-01, 1.94492877e-01, 1.62902653e-01,
          2.01846004e-01, 2.85847038e-01, 9.50417891e-02, 7.40626529e-02,
          6.11238070e-02 ]
      - [ 1.05267232e-02, 2.85005569e-02, 1.25053413e-02, 7.37775769e-03,
          4.20102803e-03, 0., 0., 0., 0., 0., 0., 0., 0., 1.73062794e-02,
          8.68302956e-03, 2.18590647e-02, 2.45237313e-02, 4.00256366e-02,
          4.34458964e-02, 5.64008355e-02, 4.55710776e-02, 1.43264933e-02,
          6.63729291e-03, 3.49816075e-03, 0., 7.36326631e-03,
          1.69520881e-02, 3.18558700e-02, 5.27507402e-02, 1.75019633e-02,
          2.63710693e-02, 2.34053154e-02, 7.81407952e-02, 7.32672438e-02,
          1.20213106e-01, 1.48009881e-01, 4.29051310e-01, 1.00376822e-01,
          3.23134512e-02, 3.71980406e-02, 7.16985986e-02, 4.51743044e-02,
          5.76555431e-02, 7.64939114e-02, 3.47603977e-01, 7.17943311e-02,
          5.26643470e-02, 5.00093736e-02, 1.08680449e-01, 1.18953384e-01,
          3.08366567e-01, 2.21418455e-01, 2.40762800e-01, 1.57490417e-01,
          9.74326059e-02, 7.62619153e-02, 1.00685410e-01, 1.32307038e-01,
          3.12268794e-01, 2.68717289e-01, 3.13591570e-01, 1.30419478e-01,
          6.71120510e-02, 7.27249384e-02 ]
      - [ 2.01906990e-02, 0., 1.73358917e-02, 2.92011909e-02,
          9.63684544e-02, 9.16169360e-02, 2.42407452e-02, 6.72406889e-03,
          3.74529846e-02, 2.89662387e-02, 5.78027517e-02, 1.13545312e-02,
          1.69545170e-02, 7.94679951e-03, 0., 0., 4.97908657e-03, 0.,
          1.90395080e-02, 0., 9.16989893e-02, 6.57355860e-02,
          5.08622546e-03, 5.74935414e-03, 0., 4.46114223e-03,
          9.99579113e-03, 2.24252287e-02, 1.18696183e-01, 1.22875646e-01,
          1.15335934e-01, 1.24017661e-02, 8.10517967e-02, 6.56978190e-02,
          1.75929338e-01, 1.68320611e-01, 1.41653612e-01, 1.67284101e-01,
          1.34427100e-01, 3.33007164e-02, 8.17479342e-02, 6.12634793e-02,
          1.35414347e-01, 1.63498506e-01, 2.28802100e-01, 1.26978353e-01,
          5.75522296e-02, 3.00067179e-02, 1.30416751e-01, 1.00559749e-01,
          1.96360439e-01, 1.78114057e-01, 2.69247800e-01, 1.81037202e-01,
          3.41622263e-01, 1.46454841e-01, 1.33834675e-01, 1.00214213e-01,
          1.10259965e-01, 1.55223429e-01, 3.61087143e-01, 1.93379998e-01,
          2.54890591e-01, 1.19373836e-01 ]
      - [ 3.52988578e-02, 1.63341947e-02, 9.98122990e-03, 4.73035425e-02,
          8.35613981e-02, 5.29656708e-02, 5.79107814e-02, 2.95647085e-02,
          2.31223609e-02, 1.55919297e-02, 3.25540714e-02, 3.92866842e-02,
          6.13983795e-02, 6.03816807e-02, 0., 9.80112329e-03,
          4.24586087e-02, 2.51624715e-02, 2.96982843e-02, 1.74323898e-02,
          3.64865363e-02, 2.71051135e-02, 2.07950193e-02, 2.25157905e-02,
          2.87773665e-02, 2.21656244e-02, 3.36564742e-02, 3.59434038e-02,
          7.25196004e-02, 7.66264051e-02, 2.28801779e-02, 8.83616805e-02,
          8.12131763e-02, 5.17425351e-02, 7.50272200e-02, 1.60905138e-01,
          2.41106242e-01, 1.44807667e-01, 1.43324032e-01, 1.39929608e-01,
          9.79935527e-02, 7.52652735e-02, 7.66964480e-02, 1.32630914e-01,
          3.39728802e-01, 1.18892819e-01, 1.20347597e-01, 1.13345571e-01,
          8.60438645e-02, 7.44607076e-02, 9.75104049e-02, 1.52456984e-01,
          4.21360821e-01, 1.77405760e-01, 1.17629096e-01, 1.41352013e-01,
          1.17950961e-01, 9.65116620e-02, 9.47661996e-02, 1.71803117e-01,
          4.19162989e-01, 1.74774781e-01, 1.11369230e-01, 1.29863277e-01 ]
      - [ 9.80439261e-02, 2.79958807e-02, 1.80186369e-02, 0.,
          5.30945100e-02, 2.20470652e-02, 6.20597117e-02, 2.75068749e-02,
          4.79220971e-02, 5.49587756e-02, 6.28328770e-02, 6.79749921e-02,
          7.28629231e-02, 2.06473805e-02, 1.76418088e-02, 8.04704800e-02,
          3.85640748e-02, 4.15558219e-02, 2.50912532e-02, 8.00095424e-02,
          1.27188012e-01, 5.60186543e-02, 5.35048880e-02, 1.16108749e-02,
          4.05914634e-02, 6.62411973e-02, 5.58855757e-02, 1.02015033e-01,
          9.71941426e-02, 5.30861579e-02, 2.90526971e-02, 2.20681522e-02,
          1.81204423e-01, 1.36482373e-01, 1.01830103e-01, 1.25528961e-01,
          1.48131266e-01, 1.24791704e-01, 1.17384218e-01, 7.94728696e-02,
          1.35607287e-01, 1.19343176e-01, 1.18342370e-01, 1.70315012e-01,
          1.81809708e-01, 1.15203381e-01, 1.35937721e-01, 1.12423129e-01,
          2.15792626e-01, 2.31730714e-01, 1.90928861e-01, 2.06935897e-01,
          2.19533905e-01, 1.26321435e-01, 1.63224593e-01, 1.63394287e-01,
          2.50024617e-01, 1.76103920e-01, 1.49988413e-01, 1.91652790e-01,
          2.48297662e-01, 1.55481085e-01, 1.91606909e-01, 1.69186205e-01 ]
      - [ 1.48572391e-02, 6.80590421e-02, 1.28513724e-02, 1.36622461e-02,
          0., 1.54866418e-02, 0., 7.96069764e-03, 0., 1.11095058e-02,
          5.15381759e-03, 8.20175279e-03, 0., 1.15737775e-02,
          5.29645383e-03, 0., 1.64819565e-02, 3.92998196e-02,
          2.54830830e-02, 1.55902375e-02, 2.13747751e-02, 6.73495186e-03,
          1.19164530e-02, 1.04471948e-02, 1.40868863e-02, 1.44772148e-02,
          2.41604522e-02, 4.00869623e-02, 3.65023613e-02, 1.69884581e-02,
          7.96499848e-03, 1.16950572e-02, 1.29782617e-01, 1.55107096e-01,
          2.22208187e-01, 1.79974586e-01, 1.70690536e-01, 1.55855477e-01,
          1.00555003e-01, 8.08818191e-02, 1.24782242e-01, 1.52333856e-01,
          2.14992672e-01, 1.56975657e-01, 1.60230026e-01, 1.48754537e-01,
          1.05290376e-01, 8.52478817e-02, 1.32944092e-01, 1.79871678e-01,
          2.34342635e-01, 2.38018572e-01, 1.62945807e-01, 1.39483392e-01,
          1.23354256e-01, 9.74997655e-02, 1.50863037e-01, 1.87483802e-01,
          2.98205942e-01, 2.76598215e-01, 2.64174312e-01, 2.53515065e-01,
          1.42121613e-01, 8.81007165e-02 ]
      - [ 1.13421101e-02, 5.68741374e-02, 2.95290314e-02, 8.93909018e-03,
          1.90337934e-02, 0., 8.06427747e-03, 0., 1.76614535e-03, 0., 0.,
          0., 0., 0., 0., 0., 3.78841348e-02, 4.64842282e-02,
          2.84672398e-02, 2.20926981e-02, 4.10844944e-02, 2.37236414e-02,
          3.81218866e-02, 5.72289061e-03, 2.34633815e-02, 1.20215546e-02,
          2.85277329e-02, 3.28047834e-02, 6.15606606e-02, 4.50178683e-02,
          2.07801405e-02, 1.36997793e-02, 1.28533572e-01, 1.14085682e-01,
          1.97513506e-01, 1.64601088e-01, 2.34771714e-01, 1.90540820e-01,
          9.44054425e-02, 8.63529220e-02, 1.21547662e-01, 1.04952030e-01,
          1.68429434e-01, 1.97743490e-01, 2.01276243e-01, 1.47554234e-01,
          1.20317630e-01, 8.27169120e-02, 1.08562775e-01, 1.33853853e-01,
          1.86387613e-01, 2.28778407e-01, 2.19323561e-01, 1.76100507e-01,
          1.50231019e-01, 1.33531839e-01, 1.10584907e-01, 1.50103956e-01,
          2.78726876e-01, 2.11384669e-01, 3.18580151e-01, 2.75759786e-01,
          1.23085983e-01, 1.05778128e-01 ]
      - [ 1.63862064e-01, 7.12527484e-02, 5.93553334e-02, 1.16321348e-01,
          6.82950765e-02, 4.68393601e-03, 4.56217118e-03, 0.,
          3.18650194e-02, 1.46948313e-02, 5.90440724e-03, 5.73389120e-02,
          2.63525508e-02, 4.32210648e-03, 8.71787407e-03, 4.34781574e-02,
          8.50969180e-02, 2.95768585e-02, 1.51481228e-02, 1.16112866e-02,
          6.34564161e-02, 1.47168729e-02, 2.80467048e-02, 2.18839962e-02,
          2.24936791e-02, 2.23538820e-02, 3.31204315e-03, 6.08194135e-02,
          1.80065855e-01, 2.79382151e-02, 1.89784225e-02, 1.29330428e-02,
          6.21200763e-02, 4.05597761e-02, 9.21242535e-02, 3.09714168e-01,
          3.51918250e-01, 1.25804365e-01, 5.63924722e-02, 5.00830151e-02,
          7.68129751e-02, 6.42090514e-02, 1.31126717e-01, 1.23005770e-01,
          1.08518429e-01, 8.00261274e-02, 5.60387932e-02, 2.61744615e-02,
          1.04135379e-01, 1.12088010e-01, 1.56738520e-01, 2.35297039e-01,
          2.03276813e-01, 1.26823485e-01, 9.06040519e-02, 1.04760043e-01,
          1.74327224e-01, 1.47459269e-01, 2.41711035e-01, 3.08756918e-01,
          3.87271881e-01, 1.19619191e-01, 1.02521352e-01, 7.99698681e-02 ]
      - [ 3.37023474e-02, 1.37382736e-02, 0., 3.17374729e-02,
          7.75272921e-02, 5.07431403e-02, 1.01201357e-02, 0.,
          5.35704941e-02, 5.24267415e-03, 5.24267415e-03, 3.67513411e-02,
          2.01458454e-01, 3.36750336e-02, 1.84364300e-02, 8.66976753e-03,
          3.23171541e-02, 2.68019997e-02, 0., 4.72971722e-02,
          1.39199585e-01, 6.19088635e-02, 1.72456875e-02, 0., 0., 0., 0.,
          5.60633792e-03, 2.73703262e-02, 1.61058187e-01, 6.15681112e-02,
          3.40636857e-02, 8.60466585e-02, 2.51292586e-02, 3.99696529e-02,
          7.88903758e-02, 1.82335854e-01, 2.09641993e-01, 8.19904134e-02,
          6.16292134e-02, 1.00440398e-01, 5.00763506e-02, 4.38333526e-02,
          9.68907475e-02, 3.46666217e-01, 1.25828594e-01, 7.37615004e-02,
          2.82242447e-02, 8.50123465e-02, 4.23420966e-02, 6.10815175e-02,
          1.45335913e-01, 5.12156069e-01, 1.81167632e-01, 1.02510132e-01,
          6.40147850e-02, 7.47780576e-02, 1.89285539e-02, 2.19179653e-02,
          8.22414085e-02, 4.48265076e-01, 2.10746735e-01, 8.93408284e-02,
          5.94083853e-02 ]
      - [ 9.19349417e-02, 1.58628765e-02, 0., 9.45890788e-03,
          3.03999912e-02, 2.18109377e-02, 1.88580900e-02, 2.96780374e-02,
          2.82187555e-02, 2.29705013e-02, 1.07793715e-02, 1.00390129e-02,
          0., 4.23015235e-03, 0., 1.79307610e-02, 3.02982777e-02,
          1.77411232e-02, 6.42069755e-03, 1.90431010e-02, 3.50153558e-02,
          2.78413594e-02, 2.66110208e-02, 2.10158937e-02, 3.06407958e-02,
          2.88358927e-02, 3.26010734e-02, 3.03162597e-02, 2.81556342e-02,
          1.84920579e-02, 1.28239170e-02, 2.22312417e-02, 1.61556959e-01,
          1.49174109e-01, 1.42444044e-01, 1.92383513e-01, 2.88818866e-01,
          1.77428573e-01, 8.10212120e-02, 1.21445492e-01, 1.64530948e-01,
          1.23986453e-01, 1.53483272e-01, 9.90612060e-02, 2.18379065e-01,
          1.45062551e-01, 1.44473076e-01, 1.10581294e-01, 1.36203215e-01,
          1.28971756e-01, 1.51115909e-01, 1.84723839e-01, 2.46878132e-01,
          1.07394159e-01, 7.73921087e-02, 9.18980241e-02, 1.71047136e-01,
          1.36298776e-01, 1.71858370e-01, 2.82517910e-01, 4.09809947e-01,
          1.76487967e-01, 1.21569224e-01, 8.20108354e-02 ]
      - [ 3.26720290e-02, 3.65210138e-02, 1.21358363e-02, 0., 0., 0., 0.,
          0., 0., 0., 0., 0., 0., 0., 2.55732648e-02, 2.34292597e-02,
          1.08953258e-02, 1.65533815e-02, 6.94778981e-03, 6.04821229e-03,
          8.41893442e-03, 3.34902667e-03, 3.76659213e-03, 0.,
          5.74548403e-03, 1.01916390e-02, 7.18885614e-03, 1.00281378e-02,
          1.47699332e-02, 7.42570078e-03, 2.19966993e-02, 2.54173074e-02,
          1.09498233e-01, 1.40241429e-01, 2.11691082e-01, 1.31830215e-01,
          1.32420227e-01, 1.60304353e-01, 1.61083326e-01, 1.24796346e-01,
          1.19669184e-01, 7.70787150e-02, 1.26492038e-01, 1.43278584e-01,
          1.24475576e-01, 1.18470922e-01, 1.29691094e-01, 1.07170068e-01,
          1.62579954e-01, 1.44200459e-01, 2.00172082e-01, 2.14133382e-01,
          2.12347135e-01, 2.48530269e-01, 2.17814192e-01, 1.57040238e-01,
          1.38595596e-01, 1.48504436e-01, 2.94205725e-01, 2.28368953e-01,
          1.70093715e-01, 2.15437368e-01, 3.08482945e-01, 1.95352033e-01 ]
      - [ 1.01617761e-02, 0., 5.34821767e-03, 4.28808145e-02,
          6.34146482e-02, 3.63188274e-02, 1.65349972e-02, 1.53397927e-02,
          2.34497115e-02, 1.97331458e-02, 2.96239872e-02, 6.35478869e-02,
          4.35105599e-02, 0., 0., 5.98433148e-03, 7.69587979e-02,
          3.63247581e-02, 2.55607497e-02, 1.13963164e-01, 8.07032436e-02,
          1.42885419e-02, 5.03220316e-03, 0., 1.06326276e-02,
          1.14740077e-02, 1.98152661e-02, 6.61346763e-02, 9.70120504e-02,
          6.19868934e-02, 5.16739450e-02, 8.11844394e-02, 7.44841844e-02,
          5.81872538e-02, 7.97759071e-02, 2.21671179e-01, 3.06638300e-01,
          1.23427764e-01, 1.13698609e-01, 9.77332443e-02, 1.08251795e-01,
          5.97723946e-02, 1.07582994e-01, 1.99514493e-01, 2.69872338e-01,
          1.11538380e-01, 6.43903837e-02, 4.41800021e-02, 9.14701149e-02,
          9.02513042e-02, 8.68535712e-02, 2.32491210e-01, 3.65174264e-01,
          1.90272957e-01, 1.52088672e-01, 1.67454496e-01, 1.56234413e-01,
          1.00531764e-01, 1.06917903e-01, 3.10387373e-01, 3.11589509e-01,
          1.49195030e-01, 9.71768722e-02, 7.15020671e-02 ]
      - [ 2.74392013e-02, 1.75791252e-02, 3.15214545e-02, 7.84747973e-02,
          4.08683084e-02, 2.44178176e-02, 1.99070126e-02, 1.23450095e-02,
          1.52768102e-02, 2.08350439e-02, 7.25814654e-03, 6.89388812e-02,
          2.49300040e-02, 2.38347910e-02, 2.81019043e-03, 2.73446739e-02,
          3.06450296e-02, 2.34166421e-02, 2.41802856e-02, 3.59254517e-02,
          4.45766598e-02, 0., 3.44176614e-03, 4.79833409e-03,
          1.84063725e-02, 1.22821080e-02, 1.88485906e-02, 4.52316999e-02,
          3.87392230e-02, 3.67391333e-02, 2.40277182e-02, 8.19833204e-03,
          6.19463027e-02, 1.09961681e-01, 1.45664588e-01, 1.98929057e-01,
          2.46072680e-01, 1.35291442e-01, 6.92558661e-02, 6.51229024e-02,
          5.10624349e-02, 4.53880951e-02, 9.17584971e-02, 2.00489059e-01,
          1.93194345e-01, 1.05857119e-01, 7.03733414e-02, 5.46655990e-02,
          1.26329720e-01, 1.42695233e-01, 1.83337599e-01, 3.18830609e-01,
          2.62462169e-01, 2.00735763e-01, 1.58977106e-01, 1.03854164e-01,
          1.68333039e-01, 1.42567322e-01, 1.88792497e-01, 3.30699444e-01,
          3.03400844e-01, 2.12163955e-01, 1.56614989e-01, 1.52736992e-01 ]
      - [ 2.90866159e-02, 1.32730901e-02, 2.92561147e-02, 1.01080447e-01,
          6.78737462e-02, 3.68822627e-02, 2.55923383e-02, 1.07310694e-02,
          3.19261104e-02, 0., 2.70966273e-02, 1.45165741e-01,
          1.00582577e-01, 2.91246772e-02, 1.35966046e-02, 0.,
          7.57507384e-02, 2.76190918e-02, 1.97816174e-02, 5.30134067e-02,
          1.31938800e-01, 1.05137400e-01, 3.54327746e-02, 1.81604438e-02,
          2.09528189e-02, 1.25424815e-02, 2.88204737e-02, 4.77503948e-02,
          8.20296034e-02, 5.07741459e-02, 4.03755009e-02, 7.89400637e-02,
          4.19274531e-02, 3.89269516e-02, 6.50332049e-02, 1.59460500e-01,
          2.24192604e-01, 6.69219643e-02, 3.61728743e-02, 1.09321401e-01,
          6.14218190e-02, 5.11749163e-02, 6.43228889e-02, 2.36486197e-01,
          3.69806409e-01, 9.28948671e-02, 5.30315004e-02, 2.13150140e-02,
          1.19735137e-01, 1.17141962e-01, 1.46686763e-01, 2.26765752e-01,
          3.01546723e-01, 1.93884388e-01, 1.36213690e-01, 1.14668161e-01,
          1.21795535e-01, 1.21744931e-01, 1.60943493e-01, 2.14834228e-01,
          3.09444785e-01, 2.44033441e-01, 1.74472764e-01, 1.47791266e-01 ]
      - [ 1.50675267e-01, 2.75689736e-02, 1.32287322e-02, 4.57038842e-02,
          4.84371819e-02, 1.13474615e-02, 6.38113637e-03, 7.02701369e-03,
          1.24179656e-02, 9.89754312e-03, 1.90407746e-02, 4.08656597e-02,
          1.12561703e-01, 3.56612578e-02, 1.07198935e-02, 5.60037903e-02,
          6.55254424e-02, 4.34473529e-02, 4.24971096e-02, 5.03140539e-02,
          5.12965769e-02, 3.11405640e-02, 1.58802606e-02, 2.15773955e-02,
          1.71631966e-02, 1.97666064e-02, 3.32792066e-02, 4.62979302e-02,
          5.18405698e-02, 4.32890989e-02, 2.85581909e-02, 3.63291875e-02,
          8.62567201e-02, 3.94681096e-02, 3.69451605e-02, 5.43162711e-02,
          1.07489005e-01, 1.00101367e-01, 7.21061528e-02, 1.17362432e-01,
          1.08010501e-01, 5.06941043e-02, 4.93666641e-02, 1.26096606e-01,
          2.85109818e-01, 1.63807854e-01, 1.21847451e-01, 1.06139831e-01,
          1.66215286e-01, 1.57537431e-01, 1.58779442e-01, 2.69046456e-01,
          2.59088218e-01, 1.52534395e-01, 1.14490993e-01, 1.30655751e-01,
          2.52145290e-01, 1.32027686e-01, 1.40445903e-01, 2.74491280e-01,
          4.30085480e-01, 2.05030844e-01, 1.41453952e-01, 1.11254320e-01 ]
      - [ 0., 0., 0., 0., 0., 0., 0., 0., 0., 0., 0., 0., 0., 0., 0., 0.,
          2.04535313e-02, 2.26458851e-02, 3.24880518e-02, 5.72908744e-02,
          3.82449627e-02, 8.59548897e-03, 1.53719345e-02, 8.06688238e-03,
          7.90321641e-03, 5.61671425e-03, 8.48981738e-03, 2.57932674e-02,
          2.13825013e-02, 2.15495657e-02, 1.96510609e-02, 9.93776787e-03,
          6.78138435e-02, 6.97906017e-02, 1.15169808e-01, 1.42367959e-01,
          1.94550350e-01, 1.11635827e-01, 6.38213828e-02, 3.47468965e-02,
          4.26990278e-02, 5.13197146e-02, 6.97466135e-02, 9.65360925e-02,
          5.07135615e-02, 3.74568477e-02, 3.86261903e-02, 6.68596178e-02,
          1.86530814e-01, 1.86708704e-01, 2.25337341e-01, 2.92331964e-01,
          3.23156327e-01, 2.77531803e-01, 1.86430067e-01, 1.50651827e-01,
          1.64144844e-01, 1.85402662e-01, 2.78431803e-01, 3.27734530e-01,
          1.86586916e-01, 2.26189405e-01, 2.14613810e-01, 2.00997725e-01 ]
      - [ 1.30496994e-01, 4.22460325e-02, 1.23065747e-02, 9.29896254e-03,
          1.15637798e-02, 0., 7.53068831e-03, 1.91888586e-02,
          2.06989795e-02, 2.02770196e-02, 0., 8.34520906e-03,
          3.11045740e-02, 3.57415862e-02, 1.11566717e-02, 0.,
          6.35287687e-02, 3.44134010e-02, 1.44222332e-02, 2.36473773e-02,
          6.23230785e-02, 9.54892561e-02, 8.88117403e-02, 3.58918458e-02,
          3.87193710e-02, 2.28781439e-02, 1.63936354e-02, 2.06197388e-02,
          5.71603030e-02, 7.94957280e-02, 3.66275087e-02, 5.39782690e-03,
          1.33323118e-01, 7.74942636e-02, 1.34127989e-01, 1.36418328e-01,
          1.65605366e-01, 2.59965986e-01, 1.43252894e-01, 9.65990648e-02,
          1.34147704e-01, 1.33213729e-01, 1.36066720e-01, 1.44637987e-01,
          1.65199280e-01, 2.55069643e-01, 1.82630286e-01, 6.75565898e-02,
          1.17443949e-01, 1.15403317e-01, 1.16718009e-01, 1.14846662e-01,
          2.43521973e-01, 3.27261627e-01, 1.35234952e-01, 1.19137973e-01,
          1.72509223e-01, 1.51147574e-01, 1.50489941e-01, 1.51021153e-01,
          1.78752601e-01, 3.33296448e-01, 1.94270447e-01, 1.13736607e-01 ]
      - [ 1.13475531e-01, 1.10182472e-01, 6.00797031e-03, 2.54247617e-02,
          5.45722023e-02, 2.33939867e-02, 1.07393702e-02, 4.60834568e-03,
          2.05146149e-02, 5.96684916e-03, 3.61288525e-03, 2.66062981e-03,
          0., 0., 0., 0., 6.91190660e-02, 6.35622516e-02, 2.44882498e-02,
          1.67544950e-02, 7.14059621e-02, 2.78035533e-02, 3.51126492e-02,
          3.31447795e-02, 2.32662372e-02, 3.40607353e-02, 3.81184593e-02,
          8.29416588e-02, 3.43855433e-02, 1.59111824e-02, 3.08178645e-03,
          3.76269873e-03, 1.11653507e-01, 7.31447339e-02, 9.77449492e-02,
          1.68976098e-01, 3.12187105e-01, 1.45952597e-01, 6.02639690e-02,
          5.50239831e-02, 1.20657399e-01, 9.50722471e-02, 9.19189751e-02,
          1.66065022e-01, 3.15155804e-01, 1.24872826e-01, 7.97440708e-02,
          6.06871657e-02, 1.50480524e-01, 2.36652598e-01, 1.91510707e-01,
          1.99998617e-01, 2.85012692e-01, 1.63911790e-01, 1.18094310e-01,
          1.20663151e-01, 2.03339800e-01, 2.41120934e-01, 1.79630026e-01,
          2.02364117e-01, 2.67790556e-01, 1.22663490e-01, 9.75574702e-02,
          1.18023485e-01 ]
      - [ 1.76125821e-02, 2.01062113e-02, 1.43845063e-02, 3.00062504e-02,
          3.45067158e-02, 1.88831780e-02, 1.53110540e-02, 5.45979757e-03,
          2.40261126e-02, 1.08116679e-02, 1.78380180e-02, 3.07743400e-02,
          2.60389801e-02, 2.26232875e-02, 1.94626898e-02, 8.59199744e-03,
          3.16583812e-02, 4.82621491e-02, 3.82111259e-02, 1.61845207e-01,
          6.20715581e-02, 2.51751039e-02, 2.58006286e-02, 9.18877870e-03,
          2.05305982e-02, 2.20733527e-02, 1.85273718e-02, 3.03109623e-02,
          7.48793036e-02, 1.48246899e-01, 3.56947184e-02, 1.87279377e-02,
          5.63998260e-02, 4.87584285e-02, 1.09816588e-01, 1.83550403e-01,
          1.72873899e-01, 1.68624938e-01, 4.59634326e-02, 2.94615272e-02,
          5.47486395e-02, 3.89497578e-02, 8.98190066e-02, 1.10538565e-01,
          1.13298111e-01, 1.25826776e-01, 6.24994785e-02, 3.95113081e-02,
