%YAML:1.0
my_svm: !!opencv-ml-svm
   svm_type: C_SVC
   kernel: { type:RBF, gamma:5.3830000000000000e+00 }
   C: 2.6699999999999999e+00
   term_criteria: { epsilon:1.1920928955078125e-07, iterations:1000 }
   var_all: 64
   var_count: 64
   class_count: 2
   class_labels: !!opencv-matrix
      rows: 1
      cols: 2
      dt: i
      data: [ 0, 1 ]
   sv_total: 1864
   support_vectors:
      - [ 6.19557388e-02, 2.09925339e-01, 1.89950373e-02, 0., 0., 0.,
          3.05024232e-03, 0., 6.65635755e-03, 1.11827441e-02,
          1.31988870e-02, 0., 1.23358369e-02, 3.48294456e-03,
          2.97094742e-03, 0., 1.08284168e-02, 1.35427833e-01,
          3.08198687e-02, 2.84474585e-02, 1.01012819e-01, 2.40779873e-02,
          2.01279223e-02, 1.75627787e-02, 3.40270177e-02, 5.65220155e-02,
          8.97266567e-02, 1.05816573e-01, 1.01896703e-01, 5.17203808e-02,
          1.73351616e-02, 1.45439142e-02, 9.87245291e-02, 1.24874853e-01,
          1.89638838e-01, 2.33856991e-01, 1.54944479e-01, 1.25587955e-01,
          1.01851277e-01, 7.28398263e-02, 1.24114826e-01, 1.02996066e-01,
          2.10156038e-01, 1.83437049e-01, 1.25734091e-01, 7.40934685e-02,
          6.55003563e-02, 4.33686562e-02, 1.18346639e-01, 1.74525723e-01,
          2.96737224e-01, 3.06071401e-01, 1.99092194e-01, 1.24567576e-01,
          9.10279974e-02, 7.07993284e-02, 1.35025740e-01, 2.77278572e-01,
          2.41035804e-01, 2.24959403e-01, 2.33590364e-01, 1.34148747e-01,
          6.95374832e-02, 6.08663484e-02 ]
      - [ 2.22629998e-02, 1.40874302e-02, 8.65793508e-03, 6.39522225e-02,
          8.06846693e-02, 2.81146914e-02, 1.48638533e-02, 9.73829161e-03,
          2.31342539e-02, 1.33916894e-02, 3.15605290e-02, 7.50885606e-02,
          6.87897876e-02, 2.16139983e-02, 1.83981732e-02, 1.59120057e-02,
          3.56429666e-02, 4.53202054e-02, 6.24050722e-02, 1.24003403e-01,
          7.35898465e-02, 3.93228307e-02, 0., 3.09457500e-02,
          1.68398768e-02, 1.38427326e-02, 1.80221125e-02, 7.12168366e-02,
          1.65200546e-01, 2.81258263e-02, 1.80933066e-02, 2.48484276e-02,
          6.41344562e-02, 4.67679761e-02, 7.70600885e-02, 1.69053778e-01,
          1.86396405e-01, 9.59588066e-02, 7.40746111e-02, 4.20698114e-02,
          9.47984755e-02, 5.70570007e-02, 1.02959745e-01, 2.56367564e-01,
          2.38028154e-01, 6.54207021e-02, 5.48522882e-02, 3.10218260e-02,
          7.25867078e-02, 8.24156478e-02, 1.05683297e-01, 3.69359046e-01,
          4.12949294e-01, 1.21166006e-01, 8.57820734e-02, 6.86986819e-02,
          1.30136222e-01, 1.34176567e-01, 1.30275398e-01, 3.67454469e-01,
          3.15679908e-01, 9.10745859e-02, 7.47355670e-02, 7.78398961e-02 ]
      - [ 1.08123712e-01, 7.07155541e-02, 5.01590930e-02, 4.17454466e-02,
          2.39122454e-02, 4.44039237e-03, 9.14871413e-03, 2.31877770e-02,
          2.76410244e-02, 2.73890831e-02, 2.33174954e-02, 7.65657285e-03,
          0., 2.66619213e-02, 1.93057545e-02, 3.99010368e-02,
          9.14455280e-02, 5.56517690e-02, 2.52480730e-02, 5.20205684e-02,
          7.95678422e-02, 1.82871968e-02, 9.89709329e-03, 4.79565188e-02,
          9.28229541e-02, 4.41387929e-02, 4.92235385e-02, 3.32557261e-02,
          6.01746663e-02, 3.45770456e-02, 4.79553081e-02, 4.64376323e-02,
          1.09139986e-01, 8.81217048e-02, 9.21890438e-02, 1.49291381e-01,
          1.99072912e-01, 8.71290267e-02, 8.65673423e-02, 6.29141256e-02,
          1.34069875e-01, 8.95313099e-02, 5.19001037e-02, 9.18164179e-02,
          1.78693518e-01, 8.37098882e-02, 5.27108572e-02, 6.65703118e-02,
          2.58500725e-01, 2.08257660e-01, 1.63171455e-01, 2.52297312e-01,
          2.97667474e-01, 1.51547283e-01, 1.21031664e-01, 1.55374408e-01,
          3.12089324e-01, 2.01270223e-01, 1.60631984e-01, 2.07633018e-01,
          3.05218428e-01, 1.68536574e-01, 1.55500025e-01, 1.73234463e-01 ]
      - [ 3.06897927e-02, 1.97610632e-02, 7.64137879e-03, 1.24801457e-01,
          1.78763166e-01, 4.95028943e-02, 1.49128260e-02, 0.,
          1.90268792e-02, 0., 2.84002945e-02, 1.34648457e-01,
          7.86158442e-02, 1.39035070e-02, 3.94279808e-02, 0.,
          6.63066208e-02, 4.07634899e-02, 4.58585806e-02, 1.17849179e-01,
          1.04861617e-01, 1.58504751e-02, 1.20307198e-02, 2.49830876e-02,
          5.83741181e-02, 2.95504071e-02, 5.66230901e-02, 6.17622249e-02,
          1.75404966e-01, 3.53038013e-02, 1.42345622e-01, 9.14920196e-02,
          9.68176126e-02, 1.00962065e-01, 1.17159478e-01, 2.55281866e-01,
          2.71672934e-01, 1.31899238e-01, 1.08551055e-01, 1.10298716e-01,
          1.27817065e-01, 7.54434243e-02, 1.01184428e-01, 1.99951783e-01,
          2.24117205e-01, 1.13017723e-01, 9.98630524e-02, 7.41779804e-02,
          1.39184803e-01, 1.03444174e-01, 1.03019804e-01, 1.99393377e-01,
          2.87667006e-01, 1.64861053e-01, 1.74698934e-01, 1.74892098e-01,
          1.38933629e-01, 8.52953419e-02, 9.99201313e-02, 2.29765341e-01,
          2.60244936e-01, 1.02302350e-01, 1.18452527e-01, 1.33281067e-01 ]
      - [ 6.20503314e-02, 1.10894926e-02, 0., 0., 0., 0., 0., 0., 0., 0.,
          6.29597576e-03, 4.00046539e-03, 6.46456406e-02, 7.25234002e-02,
          5.20000830e-02, 3.08652669e-02, 3.68505204e-03, 5.68087539e-03,
          6.83268532e-03, 5.08474326e-03, 5.40921278e-02, 1.40329584e-01,
          5.32276630e-02, 5.24825417e-03, 2.22454835e-02, 1.21216038e-02,
          0., 2.67527252e-03, 2.67527252e-03, 0., 4.38228995e-03,
          4.63370793e-03, 1.00262791e-01, 1.21826284e-01, 1.04305245e-01,
          1.09475709e-01, 2.23093018e-01, 2.20315993e-01, 1.06771834e-01,
          7.97148198e-02, 1.02661453e-01, 7.83988833e-02, 1.30701035e-01,
          1.13414168e-01, 2.09454805e-01, 2.02832103e-01, 1.19029343e-01,
          5.18067740e-02, 8.88827443e-02, 7.77142644e-02, 1.19204625e-01,
          1.42108887e-01, 3.73541713e-01, 2.80173421e-01, 1.03860818e-01,
          4.64507975e-02, 1.02072127e-01, 9.98671949e-02, 2.22501442e-01,
          1.75119862e-01, 3.64129335e-01, 3.41551006e-01, 1.06129669e-01,
          6.21801354e-02 ]
      - [ 2.04859227e-02, 3.93753359e-03, 1.27066169e-02, 2.71032732e-02,
          4.85987440e-02, 3.89633626e-02, 3.30247506e-02, 0.,
          5.79643715e-03, 0., 1.39348973e-02, 4.13783640e-02,
          8.79146308e-02, 4.57875617e-02, 1.90939028e-02, 4.09726938e-03,
          5.20858802e-02, 9.75952391e-03, 2.53933836e-02, 7.47297779e-02,
          7.86778927e-02, 3.31709534e-02, 2.74543241e-02, 8.52431823e-03,
          1.76588502e-02, 2.07922384e-02, 4.30774055e-02, 4.52227108e-02,
          6.88034967e-02, 2.15905402e-02, 4.87250183e-03, 4.91012186e-02,
          1.16087958e-01, 8.92464370e-02, 1.13591678e-01, 3.19430470e-01,
          3.58442068e-01, 1.12292051e-01, 8.07211250e-02, 7.59774372e-02,
          1.25736222e-01, 8.51159021e-02, 1.07302405e-01, 1.91944197e-01,
          3.27381164e-01, 1.19161740e-01, 8.40152130e-02, 7.39735290e-02,
          8.26763287e-02, 6.44812211e-02, 9.16398466e-02, 2.13697866e-01,
          2.23443910e-01, 1.05381697e-01, 5.98287210e-02, 6.64563179e-02,
          7.33995065e-02, 1.26617998e-01, 1.21640496e-01, 1.76102221e-01,
          4.77247328e-01, 1.33586019e-01, 7.57607445e-02, 6.61410540e-02 ]
      - [ 7.36478157e-03, 1.71763427e-03, 6.10886747e-03, 0.,
          3.37901860e-02, 6.32132217e-02, 6.33500442e-02, 5.94922751e-02,
          4.43786010e-02, 1.21471062e-02, 2.50321832e-02, 3.80218662e-02,
          6.08656369e-02, 0., 0., 0., 1.92531347e-02, 8.61892290e-03,
          2.94530075e-02, 7.19923601e-02, 6.43101633e-02, 4.01850529e-02,
          1.52845494e-02, 6.98824832e-03, 1.12587698e-02, 5.71284676e-03,
          1.07295346e-02, 1.84212346e-02, 1.08380154e-01, 9.74767357e-02,
          4.88294773e-02, 4.27332222e-02, 6.91895261e-02, 4.29648235e-02,
          5.02254479e-02, 1.01667225e-01, 3.60137343e-01, 1.28184393e-01,
          9.82869044e-02, 6.51553199e-02, 6.68839961e-02, 2.44277697e-02,
          4.07266021e-02, 5.08530103e-02, 3.07110429e-01, 1.22424982e-01,
          8.84583965e-02, 5.65167740e-02, 1.18851647e-01, 7.40673691e-02,
          9.44551602e-02, 1.23255149e-01, 3.54056537e-01, 2.57970363e-01,
          1.66099533e-01, 1.69444889e-01, 1.01194076e-01, 9.93612111e-02,
          1.08566351e-01, 1.36258617e-01, 4.33425784e-01, 2.26843506e-01,
          1.84989139e-01, 1.24982640e-01 ]
      - [ 4.40920927e-02, 3.30838375e-02, 3.76609042e-02, 6.10684650e-03,
          0., 0., 0., 0., 0., 0., 0., 0., 1.64755695e-02, 2.92008296e-02,
          4.25914340e-02, 2.67052371e-02, 3.35480310e-02, 2.68755034e-02,
          1.30885877e-02, 4.98621911e-03, 7.80257024e-03, 0.,
          5.77549869e-03, 0., 5.98072261e-03, 5.27228462e-03, 0.,
          5.69876144e-03, 1.15155354e-02, 4.19289386e-03, 1.00034568e-02,
          8.53762776e-03, 9.20954645e-02, 1.16112873e-01, 1.95464849e-01,
          9.09137204e-02, 3.68419260e-01, 1.44672558e-01, 5.51741570e-02,
          5.52752465e-02, 8.39935243e-02, 5.02694473e-02, 8.10621455e-02,
          1.11217290e-01, 1.50257319e-01, 1.63708478e-01, 7.06789270e-02,
          5.81584349e-02, 1.25785559e-01, 1.24814495e-01, 1.10401727e-01,
          9.72971320e-02, 3.44276160e-01, 1.82064161e-01, 9.99914110e-02,
          1.20857842e-01, 1.20596468e-01, 1.61812440e-01, 1.92374483e-01,
          2.38209426e-01, 4.90212649e-01, 2.10341841e-01, 1.18933395e-01,
          9.64927599e-02 ]
      - [ 1.23840198e-01, 4.21654508e-02, 0., 5.55785000e-03,
          1.74554884e-02, 0., 1.21336319e-02, 0., 2.25349399e-03,
          1.23443920e-02, 1.23079019e-02, 2.27712039e-02, 3.33113931e-02,
          3.32843624e-02, 7.10349977e-02, 2.95783393e-02, 5.34843430e-02,
          1.39407469e-02, 1.26805129e-02, 2.40520518e-02, 3.27963680e-02,
          0., 4.23724810e-03, 0., 7.12617347e-03, 5.01357950e-03,
          9.88457073e-03, 2.81299967e-02, 8.01066756e-02, 5.52411303e-02,
          2.96488348e-02, 1.63588244e-02, 1.10237598e-01, 6.41755611e-02,
          8.44276100e-02, 1.95449084e-01, 2.49697506e-01, 1.90112486e-01,
          1.13174103e-01, 8.18125755e-02, 1.12939104e-01, 5.45892939e-02,
          8.02813992e-02, 1.19599760e-01, 2.68256545e-01, 1.85296640e-01,
          1.30313843e-01, 6.87825233e-02, 8.23893249e-02, 6.19238466e-02,
          7.29011223e-02, 1.60494283e-01, 3.46423388e-01, 1.37387022e-01,
          7.21451715e-02, 6.92605674e-02, 1.45846710e-01, 9.83129814e-02,
          1.09253511e-01, 2.21060097e-01, 5.24295568e-01, 2.06675783e-01,
          9.36113521e-02, 6.47803694e-02 ]
      - [ 1.04842216e-01, 2.07334086e-02, 1.80738196e-02, 1.48008373e-02,
          2.32056156e-02, 3.20274639e-03, 5.09410119e-03, 0.,
          7.33968290e-03, 1.19164456e-02, 1.35829458e-02, 1.16422279e-02,
          1.39165847e-02, 1.47467256e-02, 7.22012855e-03, 3.41986050e-03,
          4.90801856e-02, 1.61634460e-02, 8.78631044e-03, 1.53035410e-02,
          2.65903808e-02, 5.54731954e-03, 0., 3.41986050e-03,
          5.04553644e-03, 9.56383348e-03, 1.91564150e-02, 3.50167714e-02,
          7.87176192e-02, 2.81898882e-02, 2.53788326e-02, 2.50182487e-02,
          5.51711433e-02, 6.38394430e-02, 1.36250198e-01, 2.66396165e-01,
          2.51898766e-01, 1.29771382e-01, 9.32575390e-02, 3.96967530e-02,
          4.24887128e-02, 5.26482984e-02, 6.14395589e-02, 1.02243967e-01,
          1.60874054e-01, 7.79356211e-02, 7.91304186e-02, 6.66784495e-02,
          1.71575621e-01, 1.87178656e-01, 2.17854917e-01, 3.11555505e-01,
          2.27318481e-01, 1.20612673e-01, 1.03339545e-01, 9.69128758e-02,
          1.56184942e-01, 1.69210330e-01, 2.57550746e-01, 4.07714725e-01,
          3.16269070e-01, 1.52923658e-01, 9.73844826e-02, 1.01493515e-01 ]
      - [ 5.37395738e-02, 1.17032826e-01, 4.81049269e-02, 2.01680698e-02,
          1.90383662e-02, 0., 8.09394568e-03, 1.71867516e-02,
          2.13464126e-02, 5.30143119e-02, 2.77417190e-02, 3.05712558e-02,
          2.08734386e-02, 0., 1.45154474e-02, 2.15627365e-02,
          2.20589712e-02, 9.64967832e-02, 4.81759571e-02, 7.41053596e-02,
          7.59212896e-02, 6.08702600e-02, 3.51380482e-02, 5.91091365e-02,
          5.29378317e-02, 5.84605746e-02, 4.61594872e-02, 1.03076294e-01,
          1.18453480e-01, 2.89440323e-02, 3.24216895e-02, 1.78113151e-02,
          1.02696650e-01, 9.96946916e-02, 1.60105526e-01, 1.82197377e-01,
          1.62752092e-01, 1.44948125e-01, 8.62931311e-02, 6.04332983e-02,
          1.16841078e-01, 7.19949529e-02, 1.22881994e-01, 1.69770092e-01,
          1.71398669e-01, 1.70001879e-01, 1.11378126e-01, 7.67421350e-02,
          1.51720688e-01, 1.46132454e-01, 1.73557565e-01, 1.66783795e-01,
          3.04951370e-01, 2.07474589e-01, 1.23081326e-01, 8.17356929e-02,
          1.25130683e-01, 2.39198670e-01, 1.63748369e-01, 2.44493112e-01,
          2.91250795e-01, 2.79405355e-01, 1.82653293e-01, 1.17139444e-01 ]
      - [ 1.03191547e-01, 3.62295397e-02, 3.46229598e-02, 3.64671424e-02,
          3.64247710e-02, 2.87370794e-02, 0., 0., 1.24455951e-02, 0., 0.,
          4.08953056e-02, 5.96324950e-02, 1.78835131e-02, 1.65232271e-02,
          4.35466170e-02, 4.56069298e-02, 2.08514743e-02, 3.14574968e-03,
          5.92631698e-02, 1.30841166e-01, 2.28686966e-02, 1.22791799e-02,
          4.88181319e-03, 5.55158639e-03, 0., 0., 9.01033580e-02,
          1.00898795e-01, 2.13931482e-02, 2.60845814e-02, 3.35899997e-03,
          1.16677321e-01, 9.55448076e-02, 9.26521644e-02, 2.04335093e-01,
          2.30957478e-01, 1.26132175e-01, 1.03092395e-01, 8.19324255e-02,
          9.05791894e-02, 5.12890518e-02, 7.04147965e-02, 1.43489510e-01,
          2.08293334e-01, 9.51656550e-02, 7.73058981e-02, 9.45887938e-02,
          1.06763527e-01, 9.75011140e-02, 1.35635644e-01, 3.80164117e-01,
          3.41016591e-01, 1.18043244e-01, 6.56847954e-02, 5.96816018e-02,
          1.81349531e-01, 1.20568462e-01, 1.03924111e-01, 2.95513481e-01,
          3.90792608e-01, 1.82409272e-01, 9.89703238e-02, 7.39085972e-02 ]
      - [ 3.44318971e-02, 9.81219951e-03, 6.67472789e-03, 5.07888235e-02,
          1.13952354e-01, 4.05705050e-02, 4.04797904e-02, 1.86849721e-02,
          3.95796001e-02, 3.14551443e-02, 3.94876413e-02, 6.60619438e-02,
          1.05977863e-01, 2.45311614e-02, 2.46501304e-02, 2.98956297e-02,
          4.96421270e-02, 1.10337036e-02, 1.62920039e-02, 1.89702939e-02,
          6.09995238e-02, 1.64396279e-02, 1.50971431e-02, 1.19362371e-02,
          1.37571571e-02, 7.14320550e-03, 1.13659790e-02, 4.02940670e-03,
          4.49025668e-02, 2.14659218e-02, 1.02693379e-01, 1.35004610e-01,
          2.79984791e-02, 2.92294510e-02, 2.21720133e-02, 1.91105664e-01,
          3.08935404e-01, 4.89838496e-02, 7.22302422e-02, 7.27140903e-02,
          6.78776428e-02, 3.81218344e-02, 4.41667773e-02, 2.61960715e-01,
          4.36943471e-01, 2.53864508e-02, 1.84574574e-02, 1.50465099e-02,
          3.21391821e-02, 5.92597499e-02, 9.89451036e-02, 2.34038904e-01,
          4.40433890e-01, 1.58325627e-01, 1.41061857e-01, 8.38277265e-02,
          7.36141652e-02, 6.58599585e-02, 8.34805518e-02, 2.23061875e-01,
          3.06780696e-01, 1.17374353e-01, 8.97669494e-02, 7.19452500e-02 ]
      - [ 1.17311608e-02, 8.45460966e-03, 1.50742391e-02, 6.62731286e-03,
          0., 0., 2.25958950e-03, 0., 0., 0., 0., 0., 7.30242580e-03,
          1.38990665e-02, 5.57288388e-03, 7.85448588e-03, 6.00858266e-03,
          6.83960877e-03, 0., 0., 0., 0., 0., 0., 5.37423976e-03,
          5.53484121e-03, 0., 0., 6.00858266e-03, 0., 5.97831188e-03, 0.,
          1.28466710e-01, 1.54515877e-01, 1.89339459e-01, 1.67972803e-01,
          2.57215708e-01, 1.63817778e-01, 7.16798007e-02, 7.79264420e-02,
          1.08547017e-01, 1.13186270e-01, 2.17664689e-01, 1.52271986e-01,
          2.13669941e-01, 2.48637587e-01, 1.04143396e-01, 8.82641152e-02,
          1.18160315e-01, 1.23987809e-01, 2.42335975e-01, 2.25118399e-01,
          1.75280362e-01, 1.44035280e-01, 9.53330621e-02, 1.03525355e-01,
          1.25400081e-01, 1.80754036e-01, 2.82687873e-01, 2.22717226e-01,
          2.70321608e-01, 2.96851933e-01, 1.05251692e-01, 9.40236524e-02 ]
      - [ 1.17692262e-01, 2.69911736e-02, 3.17337178e-02, 1.71321779e-02,
          3.44291627e-02, 2.56103836e-02, 2.70910654e-02, 1.58529226e-02,
          7.53981248e-03, 2.39047073e-02, 2.38904059e-02, 2.84813251e-02,
          3.00753210e-02, 2.89771724e-02, 2.19630059e-02, 5.49830347e-02,
          7.19385222e-02, 3.43951955e-02, 4.35373820e-02, 4.68261242e-02,
          8.32540169e-02, 5.76946363e-02, 6.68857694e-02, 7.81802461e-02,
          6.86061159e-02, 5.96556179e-02, 4.89833206e-02, 4.57963645e-02,
          1.00244857e-01, 5.93822077e-02, 6.39292076e-02, 7.87403286e-02,
          1.61046922e-01, 1.31873041e-01, 1.01533048e-01, 1.69926181e-01,
          1.75046146e-01, 1.49742305e-01, 1.49789393e-01, 1.61490247e-01,
          1.39322475e-01, 9.28124711e-02, 1.28411219e-01, 1.81341544e-01,
          1.90012574e-01, 1.08480446e-01, 1.19616620e-01, 1.46104604e-01,
          1.54625371e-01, 1.46662906e-01, 1.25012666e-01, 2.47876793e-01,
          2.40480855e-01, 1.62648231e-01, 1.59800082e-01, 1.81918159e-01,
          1.80585980e-01, 1.36723742e-01, 1.44881755e-01, 2.66484082e-01,
          2.77806669e-01, 1.56081751e-01, 1.39871091e-01, 1.76867887e-01 ]
      - [ 2.95019764e-02, 1.57030895e-02, 2.29531154e-02, 4.36713472e-02,
          1.05747059e-01, 3.96040007e-02, 0., 0., 2.76999902e-02, 0., 0.,
          1.87804606e-02, 1.25004917e-01, 6.57448694e-02, 2.84835659e-02,
          2.02569440e-02, 3.98659818e-02, 1.88342333e-02, 1.78834908e-02,
          7.66704902e-02, 8.21961537e-02, 2.73468737e-02, 2.84003001e-02,
          1.15346322e-02, 1.51290772e-02, 2.11985987e-02, 3.73299047e-02,
          5.02368025e-02, 4.57534641e-02, 4.08357456e-02, 9.34465900e-02,
          4.32929471e-02, 1.08616978e-01, 8.45192596e-02, 7.77323022e-02,
          1.09280683e-01, 2.34815165e-01, 1.23514101e-01, 1.16470046e-01,
          1.19779803e-01, 1.29802242e-01, 9.77045894e-02, 7.47842789e-02,
          1.35018140e-01, 3.34291697e-01, 1.54292077e-01, 9.26579013e-02,
          7.96362683e-02, 5.93176484e-02, 3.38087864e-02, 6.46413714e-02,
          2.01338440e-01, 4.41333026e-01, 1.25112057e-01, 7.65619501e-02,
          5.24771623e-02, 9.04196277e-02, 4.45852615e-02, 7.97228739e-02,
          2.14391857e-01, 4.93761390e-01, 1.06671438e-01, 5.36524355e-02,
          3.10359672e-02 ]
      - [ 2.53295600e-02, 3.69280577e-03, 2.63527539e-02, 3.73095647e-02,
          7.25031272e-02, 9.42294020e-03, 4.52274503e-03, 0.,
          1.00622158e-02, 0., 0., 3.76162641e-02, 1.10249557e-01,
          8.24183878e-03, 3.19806370e-03, 6.24936121e-03, 1.01156067e-02,
          1.32491831e-02, 1.10402871e-02, 1.30282100e-02, 1.26179289e-02,
          1.09675834e-02, 9.98554472e-03, 9.64890886e-03, 1.29584940e-02,
          9.71071888e-03, 9.01071262e-03, 1.23084392e-02, 5.10439761e-02,
          2.36459821e-02, 1.43766487e-02, 1.63625944e-02, 2.75887363e-02,
          1.49470624e-02, 2.84995809e-02, 2.74893969e-01, 3.72074664e-01,
          8.03147927e-02, 2.97540650e-02, 2.05674618e-02, 3.68779786e-02,
          2.53146756e-02, 3.05144414e-02, 2.04985648e-01, 3.37548316e-01,
          4.05386128e-02, 2.09698770e-02, 0., 1.13711923e-01,
          1.08122036e-01, 1.38543278e-01, 2.68348813e-01, 2.78123021e-01,
          1.75171062e-01, 1.11872107e-01, 1.01692952e-01, 1.27084076e-01,
          1.05834208e-01, 1.24593578e-01, 3.11821193e-01, 3.83016765e-01,
          1.71338126e-01, 1.16037361e-01, 1.09737545e-01 ]
      - [ 1.82214268e-02, 4.86310199e-02, 2.03964580e-02, 1.56468712e-02,
          1.18290028e-02, 0., 1.10065686e-02, 1.11402459e-02,
          3.55431996e-03, 0., 0., 0., 0., 2.36120317e-02, 0.,
          2.78591048e-02, 1.66142788e-02, 2.67113727e-02, 2.21255086e-02,
          2.25332733e-02, 3.08310874e-02, 1.64816286e-02, 9.94273555e-03,
          9.34776664e-03, 4.58860723e-03, 1.45685794e-02, 1.18555408e-02,
          2.33739056e-02, 3.68438289e-02, 2.17737369e-02, 9.83029231e-03,
          1.62314530e-02, 1.25383899e-01, 9.56315473e-02, 9.56523865e-02,
          1.31900191e-01, 2.25614220e-01, 2.29891956e-01, 8.54641274e-02,
          5.94036765e-02, 8.51136222e-02, 6.87913969e-02, 8.79222900e-02,
          1.52987942e-01, 2.26546928e-01, 2.72529572e-01, 1.26815081e-01,
          7.64211342e-02, 1.22996166e-01, 1.07416436e-01, 1.34739101e-01,
          1.86467215e-01, 2.77942687e-01, 2.54050344e-01, 8.74324068e-02,
          6.74244389e-02, 1.19087711e-01, 1.73388153e-01, 1.88470379e-01,
          2.36404762e-01, 3.64113331e-01, 3.14419210e-01, 1.34128958e-01,
          1.14530034e-01 ]
      - [ 1.48742422e-01, 8.06429610e-02, 2.73481812e-02, 4.94799092e-02,
          3.95101458e-02, 1.46472156e-02, 2.51302980e-02, 2.42144335e-02,
          2.28613075e-02, 2.40865666e-02, 9.44315083e-03, 0., 0.,
          1.20229879e-02, 1.20645193e-02, 2.45661009e-02, 8.49471390e-02,
          2.33699065e-02, 2.27163620e-02, 4.58553098e-02, 7.19554052e-02,
          6.49799779e-02, 4.84408364e-02, 3.46870869e-02, 2.22968310e-02,
          2.50780564e-02, 3.68927084e-02, 5.86138777e-02, 9.13612843e-02,
          5.93748651e-02, 2.77455337e-02, 3.64972986e-02, 1.29448339e-01,
          8.12925398e-02, 7.46575594e-02, 9.52527225e-02, 1.85980380e-01,
          1.27876148e-01, 1.03265159e-01, 7.38642514e-02, 1.28102258e-01,
          8.24766383e-02, 1.35036349e-01, 1.39966309e-01, 2.73273021e-01,
          1.70868799e-01, 1.54495031e-01, 1.03949390e-01, 1.99196190e-01,
          1.47146851e-01, 1.81392595e-01, 2.30472460e-01, 2.36118659e-01,
          1.86515540e-01, 1.49692565e-01, 1.21176086e-01, 2.77131200e-01,
          1.41721219e-01, 1.16918527e-01, 1.75612450e-01, 2.88597792e-01,
          2.11326286e-01, 1.94823891e-01, 1.81456521e-01 ]
      - [ 1.41799655e-02, 7.34980591e-03, 1.41670192e-02, 2.40409710e-02,
          3.94877382e-02, 1.03137614e-02, 9.89997387e-03, 1.07469810e-02,
          4.12028376e-03, 2.44993530e-03, 0., 1.90178566e-02,
          2.60222722e-02, 1.71122719e-02, 4.89987060e-03, 4.65200795e-03,
          1.10268807e-02, 1.20621314e-02, 4.35666973e-03, 4.64262627e-02,
          9.66918841e-02, 1.47822239e-02, 6.53866818e-03, 3.66350776e-03,
          9.89897735e-03, 3.46473162e-03, 1.73423924e-02, 4.35177200e-02,
          1.03175141e-01, 8.62168521e-03, 1.41408648e-02, 0.,
          7.97517747e-02, 7.05409870e-02, 8.05487037e-02, 1.67289495e-01,
          3.23691219e-01, 1.03240013e-01, 5.37103638e-02, 2.77287550e-02,
          6.01588339e-02, 5.57612069e-02, 8.65393505e-02, 1.17298096e-01,
          9.89281610e-02, 7.98054785e-02, 8.90773162e-02, 1.01109587e-01,
          1.24187835e-01, 1.03148378e-01, 1.24051884e-01, 2.83995986e-01,
          3.57826591e-01, 1.92065969e-01, 1.45831764e-01, 1.57597676e-01,
          1.07595146e-01, 1.20056801e-01, 1.24010444e-01, 2.63201803e-01,
          4.89162296e-01, 1.67195633e-01, 1.23693451e-01, 1.29971310e-01 ]
      - [ 2.37684064e-02, 2.10401826e-02, 1.96331944e-02, 1.21123316e-02,
          2.49596834e-02, 1.12335794e-02, 8.94105341e-03, 4.32339730e-03,
          1.41374106e-02, 4.48683044e-03, 3.92601872e-03, 1.11576682e-02,
          1.47581175e-02, 1.87989175e-02, 9.65865888e-03, 1.13977939e-02,
          8.63326639e-02, 7.55003318e-02, 1.54291376e-01, 4.60970365e-02,
          3.39082815e-02, 1.50518296e-02, 1.09736221e-02, 5.20105520e-03,
          1.65438987e-02, 1.14663597e-02, 2.71957852e-02, 3.02804187e-02,
          5.84725849e-02, 1.46216471e-02, 3.58891748e-02, 1.77853122e-01,
          1.01667985e-01, 1.09003104e-01, 1.83792233e-01, 1.14739493e-01,
          1.26276180e-01, 1.47023141e-01, 1.14348687e-01, 1.54139712e-01,
          1.10624209e-01, 1.11589059e-01, 1.67865306e-01, 8.36995095e-02,
          9.08007994e-02, 1.28798217e-01, 1.29275531e-01, 6.47601932e-02,
          1.60340443e-01, 1.41552344e-01, 2.04016715e-01, 2.03447387e-01,
          2.48257756e-01, 2.83889025e-01, 2.07193404e-01, 1.19024128e-01,
          1.58807129e-01, 1.97597712e-01, 2.66926855e-01, 1.66491553e-01,
          2.25200027e-01, 2.46056035e-01, 2.11646974e-01, 1.43857226e-01 ]
      - [ 0., 2.96246447e-03, 5.26808947e-03, 0., 0., 0., 0., 0., 0., 0.,
          0., 0., 0., 0., 0., 0., 1.75324734e-02, 2.59636939e-02,
          2.68567204e-02, 2.57371832e-02, 1.67333279e-02, 1.29041318e-02,
          8.65932181e-03, 1.03502236e-02, 7.04596750e-03, 1.77319776e-02,
          2.00386364e-02, 2.21560616e-02, 2.80791391e-02, 1.59811359e-02,
          1.84444394e-02, 8.85983557e-03, 1.04888022e-01, 6.76210299e-02,
          1.47484392e-01, 1.96180761e-01, 3.13529789e-01, 8.07134882e-02,
          7.06772283e-02, 7.18999356e-02, 7.03850687e-02, 7.41832778e-02,
          8.16014037e-02, 1.21416181e-01, 1.27270386e-01, 1.03589416e-01,
          6.78346083e-02, 4.79499623e-02, 1.19177416e-01, 7.99437836e-02,
          1.24619909e-01, 1.95756420e-01, 3.96721482e-01, 2.81472117e-01,
          1.15746133e-01, 7.53182992e-02, 1.18849836e-01, 1.20032474e-01,
          2.20259681e-01, 1.78305358e-01, 4.12779152e-01, 3.38399500e-01,
          8.85038972e-02, 7.78891146e-02 ]
      - [ 5.17556295e-02, 1.73781127e-01, 1.35097718e-02, 1.46758314e-02,
          1.27114644e-02, 2.14718897e-02, 1.33442394e-02, 1.99410263e-02,
          1.36543978e-02, 0., 0., 0., 4.98978049e-03, 0., 0.,
          4.40610712e-03, 5.15063256e-02, 1.34706259e-01, 3.99339795e-02,
          3.02801132e-02, 7.02949166e-02, 3.02442051e-02, 2.35155486e-02,
          1.63200162e-02, 6.37607723e-02, 1.33792534e-01, 5.94589338e-02,
          4.36152294e-02, 6.57226741e-02, 2.05263905e-02, 1.72397085e-02,
          3.00374683e-02, 1.31985918e-01, 1.33891553e-01, 1.60719112e-01,
          1.08108066e-01, 1.42821625e-01, 1.43870100e-01, 9.91462469e-02,
          9.37624872e-02, 1.51859507e-01, 1.32998392e-01, 1.44829795e-01,
          1.04453519e-01, 8.13118815e-02, 5.21987714e-02, 6.56570867e-02,
          4.63890582e-02, 1.87897041e-01, 2.51340240e-01, 2.06792459e-01,
          2.40301475e-01, 2.53392160e-01, 1.49694517e-01, 1.42714903e-01,
          1.21086612e-01, 1.89226761e-01, 2.76960909e-01, 1.64301977e-01,
          3.69741052e-01, 2.41703406e-01, 9.42375287e-02, 7.67869949e-02,
          1.04405433e-01 ]
      - [ 3.87930102e-03, 8.54389071e-02, 4.72144708e-02, 3.12002171e-02,
          0., 5.50746592e-03, 0., 7.01276772e-03, 0., 0., 0.,
          3.09707574e-03, 0., 0., 0., 0., 5.43194339e-02, 9.18822587e-02,
          3.86797972e-02, 6.61851093e-02, 1.26531646e-01, 1.34239253e-02,
          1.33104399e-02, 1.29208285e-02, 2.78970972e-02, 8.61411914e-03,
          3.95030081e-02, 8.45730528e-02, 1.45076424e-01, 3.42126600e-02,
          2.59302072e-02, 2.35234331e-02, 3.38324308e-02, 4.88216020e-02,
          4.23540026e-02, 1.42543927e-01, 2.44680271e-01, 9.84930322e-02,
          2.94260569e-02, 3.01010739e-02, 3.81384604e-02, 2.54287645e-02,
          3.89017649e-02, 9.33951885e-02, 1.18181095e-01, 7.31830150e-02,
          3.32768597e-02, 2.74533816e-02, 9.18664560e-02, 1.20513462e-01,
          1.24771044e-01, 3.00751626e-01, 4.42207068e-01, 1.80626869e-01,
          1.01933561e-01, 8.09323564e-02, 9.81805176e-02, 1.59931302e-01,
          1.90023184e-01, 3.25300574e-01, 4.42542970e-01, 1.71257362e-01,
          9.49302763e-02, 8.15444887e-02 ]
      - [ 1.18049189e-01, 1.90342739e-02, 1.45276859e-02, 7.16195907e-03,
          2.05848962e-02, 0., 4.61946428e-03, 9.11617372e-03,
          2.61293445e-02, 3.00755017e-02, 2.45583598e-02, 2.58581582e-02,
          1.99249480e-02, 1.28449863e-02, 0., 3.28063220e-02,
          5.68152443e-02, 2.70698611e-02, 1.04381079e-02, 3.08669824e-02,
          5.89260235e-02, 4.14076410e-02, 3.76956351e-02, 3.27639170e-02,
          2.49400083e-02, 2.37210020e-02, 3.57935205e-02, 3.85812819e-02,
          4.71402407e-02, 4.12383303e-02, 3.55551019e-02, 2.75491308e-02,
          1.86256379e-01, 1.33842215e-01, 1.26909822e-01, 1.30350515e-01,
          1.25053644e-01, 8.59282315e-02, 1.31575853e-01, 1.42824024e-01,
          1.24890149e-01, 1.51821822e-01, 1.89919978e-01, 2.27244720e-01,
          3.80567461e-01, 1.95207626e-01, 9.08989310e-02, 6.81486204e-02,
          1.37447089e-01, 1.34825513e-01, 1.70076907e-01, 2.48609468e-01,
          2.20374793e-01, 1.45043522e-01, 1.31947339e-01, 1.13501094e-01,
          1.82405755e-01, 1.06471397e-01, 1.50759861e-01, 2.69129902e-01,
          2.51104474e-01, 1.60545737e-01, 1.39255449e-01, 1.16134346e-01 ]
      - [ 1.32626578e-01, 6.31129295e-02, 2.44149901e-02, 4.55926582e-02,
          1.19978026e-01, 0., 3.67204798e-03, 0., 8.73365067e-03, 0.,
          1.80378892e-02, 5.55851087e-02, 7.60373026e-02, 5.32690473e-02,
          4.02343050e-02, 7.43787289e-02, 5.24031259e-02, 1.76140461e-02,
          0., 1.80046409e-02, 4.01482768e-02, 2.68849079e-02,
          1.23457536e-02, 1.31293098e-02, 2.33952794e-02, 3.07561569e-02,
          3.36884856e-02, 5.95501065e-02, 9.25333649e-02, 4.10644300e-02,
          5.88676222e-02, 4.32986170e-02, 5.22218980e-02, 4.26312573e-02,
          6.16169833e-02, 1.75330296e-01, 3.96525472e-01, 1.08966023e-01,
          6.35554865e-02, 6.01496510e-02, 6.38250560e-02, 6.35328889e-02,
          8.66030902e-02, 1.15092389e-01, 1.27628252e-01, 5.96869662e-02,
          7.10447356e-02, 5.36631979e-02, 1.08390406e-01, 1.53341457e-01,
          1.47573248e-01, 1.96019918e-01, 1.53646350e-01, 8.77016187e-02,
          9.68831182e-02, 1.99917749e-01, 1.69413999e-01, 1.93239346e-01,
          2.36959293e-01, 3.07004005e-01, 4.16761726e-01, 1.94072574e-01,
          1.51175290e-01, 1.22598812e-01 ]
      - [ 1.14430860e-01, 4.52198423e-02, 0., 0., 8.49218853e-03,
          1.52299413e-02, 7.16563314e-03, 2.18868721e-02, 2.81197261e-02,
          2.15378795e-02, 7.63179138e-02, 5.12197986e-02, 1.94653049e-02,
          1.50423516e-02, 1.10937031e-02, 4.19685692e-02, 4.36691344e-02,
          4.46439721e-02, 4.23709489e-02, 1.68407504e-02, 5.84692955e-02,
          9.75480527e-02, 9.91632566e-02, 3.77692953e-02, 3.56106274e-02,
          1.23080760e-02, 1.80388391e-02, 8.36445019e-03, 3.48164067e-02,
          1.14248432e-01, 9.86434817e-02, 1.92678813e-02, 7.82177076e-02,
          4.95857000e-02, 5.57942912e-02, 1.43105209e-01, 2.91220307e-01,
          1.68337047e-01, 8.18813667e-02, 5.50412983e-02, 8.93481821e-02,
          4.27446775e-02, 7.17435181e-02, 1.09024398e-01, 1.68833107e-01,
          2.26462588e-01, 1.08840026e-01, 7.76871666e-02, 1.07490338e-01,
          9.59133431e-02, 1.38276055e-01, 1.92948088e-01, 2.69624352e-01,
          2.80946702e-01, 1.41391873e-01, 7.83544332e-02, 1.59303159e-01,
          1.00323133e-01, 1.36134624e-01, 2.66964167e-01, 3.51121753e-01,
          3.22109908e-01, 1.52166799e-01, 7.49111921e-02 ]
      - [ 3.33796032e-02, 1.16424441e-01, 7.74174929e-02, 0.,
          1.83138121e-02, 1.25601310e-02, 0., 0., 0., 0., 0., 0., 0.,
          2.32967772e-02, 2.22293120e-02, 0., 3.58271264e-02,
          8.85908902e-02, 9.14886873e-03, 1.57718658e-02, 3.52732688e-02,
          8.70029256e-03, 2.23728232e-02, 1.80901196e-02, 2.62342002e-02,
          4.45194878e-02, 6.70729801e-02, 6.17925376e-02, 5.88108487e-02,
          6.95621967e-02, 5.18034101e-02, 3.87107171e-02, 8.21995288e-02,
          1.01975664e-01, 8.12651664e-02, 8.47094133e-02, 3.46376270e-01,
          7.97479823e-02, 4.95466962e-02, 4.62694503e-02, 8.50232691e-02,
          7.96009153e-02, 9.31948721e-02, 1.73448116e-01, 2.87184507e-01,
          8.74529257e-02, 7.38968998e-02, 5.41173182e-02, 1.04054093e-01,
          2.31464237e-01, 2.14383602e-01, 2.23471001e-01, 2.16973066e-01,
          1.38548568e-01, 1.25086039e-01, 9.31136310e-02, 1.55650288e-01,
          2.74651349e-01, 2.12910697e-01, 1.76379412e-01, 3.98881614e-01,
          1.69411972e-01, 8.84455442e-02, 8.59696046e-02 ]
      - [ 0., 2.05864967e-03, 0., 0., 2.44816067e-03, 0., 0., 0., 0., 0.,
          0., 0., 0., 0., 0., 0., 6.28044549e-03, 9.22290329e-03,
          1.40632633e-02, 8.82600807e-03, 3.63472477e-02, 2.81157531e-02,
          6.05917498e-02, 5.40227182e-02, 4.04945463e-02, 1.74597055e-02,
          1.08356914e-02, 8.40589032e-03, 1.04708401e-02, 3.66085419e-03,
          8.23459867e-03, 0., 1.23859003e-01, 1.00544445e-01,
          1.14810266e-01, 1.33746460e-01, 1.54195875e-01, 1.67330578e-01,
          1.65353879e-01, 1.12796694e-01, 1.02839157e-01, 6.75439835e-02,
          7.37757310e-02, 1.95148781e-01, 1.09186292e-01, 1.58866659e-01,
          1.41248032e-01, 1.21604286e-01, 1.12386860e-01, 4.57155555e-02,
          6.32242337e-02, 1.53395355e-01, 3.17210793e-01, 2.90893316e-01,
          2.34864220e-01, 1.51809081e-01, 1.22328319e-01, 6.24231063e-02,
          1.70330673e-01, 2.88901836e-01, 2.31480941e-01, 3.16947609e-01,
          2.87764162e-01, 1.89100057e-01 ]
      - [ 1.12529255e-01, 1.54202357e-01, 5.54772690e-02, 2.56749522e-02,
          0., 1.21244472e-02, 1.80026181e-02, 9.93036199e-03, 0.,
          1.24260541e-02, 4.40122858e-02, 9.10660923e-02, 3.00735757e-02,
          3.45108397e-02, 1.54116573e-02, 3.99084911e-02, 5.67197837e-02,
          6.52388856e-02, 3.26727740e-02, 6.16153888e-02, 5.11811189e-02,
          2.35688407e-02, 1.68454982e-02, 1.29324682e-02, 3.19976546e-02,
          4.43533473e-02, 5.59028052e-02, 7.29864985e-02, 5.77770323e-02,
          1.06452657e-02, 1.25702024e-02, 2.23650094e-02, 1.00182727e-01,
          1.09063886e-01, 1.80459306e-01, 2.28519395e-01, 1.34351894e-01,
          3.77875380e-02, 4.82093282e-02, 5.59141859e-02, 9.99544337e-02,
          5.61701469e-02, 1.70504823e-01, 3.48415166e-01, 1.38244539e-01,
          8.14437717e-02, 5.89283146e-02, 6.69953227e-02, 1.36693716e-01,
          1.95151091e-01, 3.48878086e-01, 3.05325389e-01, 1.19345427e-01,
          6.06516115e-02, 5.12548797e-02, 4.27600034e-02, 1.04268000e-01,
          2.94836640e-01, 1.75720021e-01, 3.42358887e-01, 1.60395086e-01,
          9.18987095e-02, 6.75513744e-02, 7.58500919e-02 ]
      - [ 6.61786944e-02, 1.21258520e-01, 0., 0., 0., 0., 0., 0., 0., 0.,
          0., 0., 4.19462770e-02, 5.27589880e-02, 3.58018801e-02,
          5.63513339e-02, 1.39535693e-02, 4.53103967e-02, 1.56870056e-02,
          5.14049502e-03, 2.01923102e-02, 8.77727382e-03, 4.21025185e-03,
          6.52752118e-03, 4.08808514e-03, 8.06201808e-03, 2.03723349e-02,
          5.68502434e-02, 5.05444221e-02, 1.08990110e-02, 8.06201808e-03,
          1.85798407e-02, 1.17940262e-01, 1.28458962e-01, 1.33395299e-01,
          1.67889372e-01, 2.01666370e-01, 2.03147054e-01, 1.22304417e-01,
          6.25556782e-02, 1.10626742e-01, 9.56708267e-02, 1.02476619e-01,
          1.26205355e-01, 2.37540901e-01, 1.95315406e-01, 7.92045593e-02,
          4.46467511e-02, 8.81972834e-02, 3.85012254e-02, 4.56736535e-02,
          9.93153304e-02, 3.92337233e-01, 3.11819375e-01, 8.72216150e-02,
          5.03369085e-02, 8.68686587e-02, 9.22577530e-02, 1.03165917e-01,
          9.70079526e-02, 4.04181242e-01, 3.70685637e-01, 1.11858122e-01,
          4.76373956e-02 ]
      - [ 1.20569333e-01, 6.12956807e-02, 2.09163055e-02, 0.,
          1.17173586e-02, 1.09547777e-02, 3.78892720e-02, 1.73437372e-02,
          2.31668819e-02, 2.61384118e-02, 2.76392829e-02, 4.74980623e-02,
          7.87780527e-03, 0., 1.53517397e-02, 1.45679880e-02,
          4.85951006e-02, 2.04850100e-02, 2.80480795e-02, 7.46666268e-02,
          8.08652118e-02, 2.69196108e-02, 1.71964522e-02, 1.32432347e-02,
          1.82167739e-02, 1.82737596e-02, 2.70667523e-02, 9.80384871e-02,
          5.07130921e-02, 3.45273651e-02, 1.56477429e-02, 3.19877900e-02,
          1.12567052e-01, 9.66789350e-02, 1.31816879e-01, 2.39810094e-01,
          3.23775798e-01, 1.96609065e-01, 9.58877355e-02, 6.79735616e-02,
          1.06602363e-01, 9.84926969e-02, 1.13193557e-01, 1.55331612e-01,
          2.66381055e-01, 1.61811873e-01, 9.52474326e-02, 9.80399847e-02,
          7.61252567e-02, 9.78504494e-02, 1.28060371e-01, 2.01476038e-01,
          2.50594109e-01, 1.39009774e-01, 8.84541124e-02, 6.76468909e-02,
          1.34603515e-01, 1.33418739e-01, 1.65132448e-01, 1.95932284e-01,
          4.49766248e-01, 1.69079468e-01, 9.99343321e-02, 6.51570037e-02 ]
      - [ 7.33152777e-02, 1.58877358e-01, 1.59925129e-02, 0., 0.,
          3.90251284e-03, 0., 0., 0., 1.96379181e-02, 5.61561547e-02,
          5.61790764e-02, 3.15298177e-02, 7.28780963e-03, 2.31367014e-02,
          3.27513739e-02, 4.33897041e-02, 6.97684884e-02, 2.69735623e-02,
          9.10586305e-03, 6.44888654e-02, 8.71277303e-02, 5.78621030e-02,
          0., 5.24723120e-02, 3.89867090e-02, 6.36779368e-02,
          3.28077376e-02, 6.96392432e-02, 8.01760182e-02, 3.89784724e-02,
          1.92750581e-02, 7.18477890e-02, 6.54426739e-02, 1.13744266e-01,
          1.60124078e-01, 1.34098366e-01, 8.27787966e-02, 6.19947463e-02,
          5.25453947e-02, 7.34671429e-02, 6.98998123e-02, 1.41132310e-01,
          2.75546432e-01, 1.95085227e-01, 1.08771570e-01, 6.18907511e-02,
          4.30863388e-02, 1.17158517e-01, 8.81410614e-02, 1.29125834e-01,
          1.98540047e-01, 2.78601140e-01, 3.23071837e-01, 1.66986719e-01,
          1.00700185e-01, 1.34399980e-01, 1.63188845e-01, 1.65966853e-01,
          1.70049965e-01, 2.86277205e-01, 3.79689336e-01, 1.93277091e-01,
          1.05486870e-01 ]
      - [ 1.52277812e-01, 7.69235790e-02, 0., 2.38797013e-02,
          4.96511953e-03, 0., 0., 0., 0., 7.53353303e-03, 1.74471065e-02,
          1.32353202e-01, 3.48953158e-02, 3.11047584e-02, 2.69462354e-02,
          5.76185510e-02, 7.31209517e-02, 8.56403410e-02, 1.16909049e-01,
          7.11126998e-02, 4.09135744e-02, 1.52001427e-02, 1.47969248e-02,
          2.25076638e-02, 5.85678443e-02, 3.02630384e-02, 1.59993470e-02,
          9.68124643e-02, 4.03965600e-02, 2.51515321e-02, 1.37778353e-02,
          2.68381089e-02, 4.33570258e-02, 4.33786139e-02, 9.44324136e-02,
          2.86121160e-01, 1.12510189e-01, 6.31808564e-02, 5.61050400e-02,
          5.34899570e-02, 1.09290972e-01, 5.49516715e-02, 9.13306624e-02,
          4.17417347e-01, 1.11764275e-01, 2.91357040e-02, 3.63091752e-02,
          4.71000299e-02, 2.27955863e-01, 1.48770019e-01, 1.39234588e-01,
          3.64523292e-01, 2.33503863e-01, 1.46278635e-01, 1.63080454e-01,
          1.75378442e-01, 2.67646313e-01, 9.25122052e-02, 7.79627115e-02,
          2.53735960e-01, 1.25862092e-01, 5.70720807e-02, 7.08729476e-02,
          1.70211077e-01 ]
      - [ 1.07066140e-01, 3.64611484e-03, 0., 0., 3.14755961e-02, 0.,
          2.97704036e-03, 6.29567355e-03, 1.54318865e-02, 7.90431350e-03,
          1.44274151e-02, 6.90479726e-02, 6.24053963e-02, 4.75349510e-03,
          2.16669925e-02, 7.31642097e-02, 2.49365494e-02, 4.21017082e-03,
          5.59773343e-03, 2.02799123e-02, 4.51632626e-02, 3.10391523e-02,
          2.11415216e-02, 1.36638777e-02, 2.44732052e-02, 2.68104877e-02,
          3.72381397e-02, 5.41094169e-02, 4.57956903e-02, 1.34008750e-02,
          1.56131787e-02, 2.22853031e-02, 1.17212757e-01, 7.75014162e-02,
          1.04649402e-01, 1.40683964e-01, 2.54173607e-01, 1.89852268e-01,
          1.06518663e-01, 5.79512082e-02, 1.14340231e-01, 5.17199747e-02,
          6.37748763e-02, 1.68564081e-01, 2.48111740e-01, 2.03152731e-01,
          8.51592794e-02, 4.36681174e-02, 7.73347318e-02, 8.12193826e-02,
          1.34640679e-01, 1.27933189e-01, 3.38433474e-01, 2.30492130e-01,
          8.54824036e-02, 5.29646538e-02, 1.14223078e-01, 8.54164660e-02,
          1.62996873e-01, 2.47306988e-01, 4.41818774e-01, 3.11073154e-01,
          7.34076276e-02, 5.25350831e-02 ]
      - [ 0., 2.61162538e-02, 8.21120515e-02, 3.65319140e-02,
          1.62073728e-02, 0., 0., 0., 0., 0., 0., 0., 0., 0., 0., 0.,
          3.40802521e-02, 5.76002449e-02, 9.71924514e-02, 5.78905568e-02,
          8.35054815e-02, 2.81848609e-02, 1.06456308e-02, 3.11676157e-03,
          1.06104864e-02, 2.37405747e-02, 2.50586662e-02, 5.60664013e-02,
          1.50942907e-01, 3.94310728e-02, 2.61102039e-02, 2.56641600e-02,
          1.02103271e-01, 6.23428412e-02, 1.66764498e-01, 1.78801611e-01,
          3.32256526e-01, 9.28412080e-02, 4.66505177e-02, 4.82311286e-02,
          1.07208058e-01, 9.43057612e-02, 1.93955794e-01, 1.32261187e-01,
          2.44887218e-01, 1.70670435e-01, 6.24573380e-02, 4.70490418e-02,
          8.48257467e-02, 9.47817042e-02, 1.29570633e-01, 2.33857274e-01,
          3.54891300e-01, 1.12397678e-01, 5.16692214e-02, 5.44885732e-02,
          8.00715312e-02, 1.27804056e-01, 1.86617449e-01, 2.20729843e-01,
          4.55870658e-01, 1.21928811e-01, 6.24593459e-02, 5.10720685e-02 ]
      - [ 6.19125143e-02, 2.00413559e-02, 2.10519284e-02, 2.37162542e-02,
          5.13025112e-02, 3.51772830e-02, 2.87703518e-02, 1.42908227e-02,
          5.55090234e-02, 5.17963581e-02, 7.18261376e-02, 6.77284524e-02,
          9.18435380e-02, 1.85695942e-02, 3.00952289e-02, 3.74877751e-02,
          1.39820389e-02, 1.44595467e-02, 8.44235625e-03, 6.57391921e-02,
          1.64559752e-01, 3.12434938e-02, 1.12494510e-02, 1.34855974e-02,
          1.07455766e-02, 1.52763892e-02, 2.22609807e-02, 6.06401898e-02,
          7.14089945e-02, 2.00706329e-02, 9.20895580e-03, 3.66172078e-03,
          8.90321285e-02, 8.63321424e-02, 1.17798224e-01, 1.82223216e-01,
          2.28508368e-01, 1.43755570e-01, 8.10418651e-02, 7.46511668e-02,
          1.09536380e-01, 9.26329345e-02, 1.07383095e-01, 1.73281685e-01,
          1.61137193e-01, 1.04540654e-01, 8.29696283e-02, 7.75274783e-02,
          9.91891846e-02, 9.89194959e-02, 1.35251716e-01, 2.79282689e-01,
          4.07458931e-01, 2.70430952e-01, 1.52626291e-01, 8.87776688e-02,
          1.47127643e-01, 1.09885208e-01, 1.57597035e-01, 2.61863023e-01,
          2.77115881e-01, 2.03700513e-01, 1.46330908e-01, 8.65217149e-02 ]
      - [ 4.96992394e-02, 3.87937538e-02, 5.77364750e-02, 7.77076259e-02,
          5.81040867e-02, 3.62755768e-02, 8.68489686e-03, 2.47536674e-02,
          4.10069451e-02, 3.28080133e-02, 4.33421768e-02, 6.79302812e-02,
          6.14748374e-02, 3.14989872e-02, 4.47222777e-02, 4.46467288e-02,
          1.03887051e-01, 5.07828407e-02, 5.74156754e-02, 5.45533225e-02,
          7.36789182e-02, 2.66064033e-02, 2.36068703e-02, 6.44041672e-02,
          5.99774309e-02, 3.77712734e-02, 3.07494085e-02, 4.51775864e-02,
          3.63135301e-02, 3.79401371e-02, 7.28897154e-02, 7.97281042e-02,
          7.51639977e-02, 6.69676214e-02, 8.30220953e-02, 1.91285267e-01,
          2.41248742e-01, 8.77308846e-02, 9.01872665e-02, 8.46002623e-02,
          5.70085719e-02, 7.67448917e-02, 7.94032663e-02, 1.47087052e-01,
          1.73519745e-01, 8.14336240e-02, 5.49996011e-02, 4.34948578e-02,
          2.30546594e-01, 1.79213405e-01, 2.00611100e-01, 2.87483901e-01,
          2.82238990e-01, 1.62894905e-01, 1.58639356e-01, 1.55024439e-01,
          1.58306360e-01, 1.89961746e-01, 2.17184097e-01, 3.16812843e-01,
          2.49554232e-01, 1.53347582e-01, 1.40321434e-01, 1.38089702e-01 ]
      - [ 1.51507974e-01, 9.56913978e-02, 4.18876819e-02, 6.27341419e-02,
          5.19892536e-02, 1.02062579e-02, 0., 0., 1.48015879e-02,
          7.03332480e-03, 1.93075463e-02, 3.64369862e-02, 1.63328629e-02,
          0., 0., 0., 9.20208097e-02, 1.76491626e-02, 1.94606744e-02,
          1.88386384e-02, 6.42537028e-02, 2.68707704e-02, 1.55171286e-02,
          1.52447261e-02, 3.03472113e-02, 2.05540322e-02, 3.56442146e-02,
          1.28124133e-01, 1.10622622e-01, 1.23993354e-02, 0.,
          4.70346771e-03, 7.85641372e-02, 7.85031170e-02, 8.41308162e-02,
          1.28561974e-01, 3.26638430e-01, 1.89137399e-01, 8.38355273e-02,
          5.14647365e-02, 8.58302712e-02, 4.07556966e-02, 4.43901122e-02,
          7.04621226e-02, 2.23587900e-01, 8.90385285e-02, 5.90356030e-02,
          4.11221609e-02, 8.05371180e-02, 1.20889433e-01, 1.55650124e-01,
          1.41823187e-01, 3.45522970e-01, 1.88979253e-01, 9.28250551e-02,
          9.06051621e-02, 1.04283743e-01, 1.59332469e-01, 2.51706928e-01,
          3.42159897e-01, 3.68439347e-01, 1.93472296e-01, 1.05087973e-01,
          7.38397241e-02 ]
      - [ 1.22296423e-01, 9.15047377e-02, 2.87369695e-02, 6.11335225e-02,
          6.85300585e-03, 7.86905177e-03, 5.47601003e-03, 0.,
          9.95124038e-03, 0., 1.15501899e-02, 1.09234206e-01,
          8.70834887e-02, 4.22393121e-02, 4.12353501e-02, 5.03053851e-02,
          2.87778601e-02, 1.51065895e-02, 3.17774527e-02, 8.21371451e-02,
          1.26834556e-01, 3.39979939e-02, 1.48597723e-02, 1.10832164e-02,
          2.73900647e-02, 1.74790677e-02, 4.44790833e-02, 4.67229821e-02,
          6.10683821e-02, 1.35694407e-02, 1.41067915e-02, 1.00985821e-02,
          7.91280568e-02, 6.40273690e-02, 7.39632025e-02, 2.17865646e-01,
          2.42472991e-01, 1.03035592e-01, 9.79743302e-02, 8.47883299e-02,
          8.14459547e-02, 6.76717311e-02, 9.21529606e-02, 2.45347023e-01,
          2.71745682e-01, 9.92655158e-02, 7.98684880e-02, 7.11042956e-02,
          1.37532771e-01, 1.28578275e-01, 1.57323927e-01, 3.08582962e-01,
          3.03562403e-01, 2.03172222e-01, 1.71110272e-01, 1.02944613e-01,
          1.62855744e-01, 1.32227793e-01, 1.08511716e-01, 2.67583311e-01,
          2.70387918e-01, 1.58533663e-01, 1.31629303e-01, 1.19027846e-01 ]
      - [ 5.74390516e-02, 4.86305021e-02, 4.57960442e-02, 5.48641868e-02,
          8.61472040e-02, 0., 0., 0., 0., 0., 0., 7.78322145e-02,
          5.72604127e-02, 4.22222950e-02, 1.40086534e-02, 2.80726552e-02,
          2.14087088e-02, 3.58320884e-02, 2.09004655e-02, 2.01263186e-02,
          3.58869061e-02, 1.50134536e-02, 9.79219098e-03, 9.96669941e-03,
          1.56772956e-02, 1.83848552e-02, 3.03436723e-02, 2.34957337e-02,
          4.80716340e-02, 2.76861284e-02, 2.15887558e-02, 2.26524621e-02,
          1.13642983e-01, 9.62444246e-02, 1.24905311e-01, 2.13775188e-01,
          2.30028972e-01, 1.04029700e-01, 7.66614601e-02, 7.15428442e-02,
          9.80170816e-02, 6.35096431e-02, 1.33941799e-01, 2.39559710e-01,
          1.84416831e-01, 5.75681552e-02, 1.01600781e-01, 1.15038857e-01,
          1.07166447e-01, 7.10099787e-02, 1.34376138e-01, 2.26727068e-01,
          3.03417683e-01, 3.57374460e-01, 1.58407837e-01, 7.72987157e-02,
          1.14240207e-01, 8.49024281e-02, 1.70039386e-01, 2.17809975e-01,
          1.95010886e-01, 3.63864899e-01, 1.90367952e-01, 1.05453774e-01 ]
      - [ 2.64051221e-02, 1.45315668e-02, 1.14222514e-02, 6.26980066e-02,
          1.19190820e-01, 1.93694606e-02, 3.17379870e-02, 7.92933628e-03,
          1.75059214e-02, 0., 1.85409412e-02, 8.96043926e-02,
          9.74411294e-02, 2.96538174e-02, 0., 2.22848058e-02,
          2.06790119e-02, 1.10841747e-02, 0., 0., 2.03502201e-03, 0., 0.,
          0., 8.48266762e-03, 1.52380625e-02, 8.28581024e-03,
          1.96564179e-02, 3.02959736e-02, 2.75245160e-02, 3.59573774e-02,
          2.49695275e-02, 8.35637376e-02, 4.41450290e-02, 5.91088161e-02,
          1.51649579e-01, 2.59169191e-01, 5.97395040e-02, 4.40907516e-02,
          1.02167226e-01, 1.00031361e-01, 6.55454770e-02, 6.83417246e-02,
          2.18724683e-01, 3.67630780e-01, 1.06816649e-01, 5.29296659e-02,
          4.01332341e-02, 9.10589769e-02, 9.59582776e-02, 1.46063372e-01,
          2.02142984e-01, 3.72583032e-01, 1.37436599e-01, 9.34355110e-02,
          6.09994233e-02, 8.35919753e-02, 8.24472606e-02, 1.13902882e-01,
          2.44903237e-01, 4.90534753e-01, 1.53670594e-01, 1.05333149e-01,
          8.16518217e-02 ]
      - [ 7.14184344e-02, 5.70929721e-02, 0., 0., 0., 0., 0., 0., 0., 0.,
          0., 0., 1.42295584e-02, 4.90235463e-02, 4.13611978e-02,
          3.63861918e-02, 2.33411621e-02, 3.55303921e-02, 2.49958020e-02,
          2.31198389e-02, 2.81217415e-02, 1.77206714e-02, 1.24176322e-02,
          1.07770972e-02, 1.87795199e-02, 1.40256267e-02, 6.95676729e-03,
          7.46991672e-03, 1.57688688e-02, 8.88149068e-03, 1.91092826e-02,
          1.63951609e-02, 1.04532681e-01, 8.95049125e-02, 1.51294962e-01,
          2.76853830e-01, 2.07170382e-01, 9.83251855e-02, 9.89945903e-02,
          1.03123046e-01, 8.42189789e-02, 6.36689663e-02, 1.21841274e-01,
          1.95825234e-01, 1.24128930e-01, 9.26812962e-02, 6.29361644e-02,
          6.71486035e-02, 1.48551241e-01, 1.40170991e-01, 1.05560556e-01,
          2.12956011e-01, 3.09131980e-01, 2.27660745e-01, 1.59584209e-01,
          9.57190320e-02, 1.44398764e-01, 1.92914888e-01, 1.72540084e-01,
          2.50048786e-01, 3.74215722e-01, 2.89376885e-01, 1.55048907e-01,
          1.15451045e-01 ]
      - [ 1.09491525e-02, 7.40619097e-03, 1.41905611e-02, 6.67837914e-03,
          0., 0., 2.23305053e-03, 0., 0., 0., 0., 0., 0., 0.,
          7.63974246e-03, 1.11293513e-02, 2.05867402e-02, 2.15294436e-02,
          1.99619047e-02, 1.75037198e-02, 6.94530159e-02, 8.40940326e-02,
          6.06521405e-02, 5.80754578e-02, 5.84166050e-02, 3.42059322e-02,
          3.74311656e-02, 6.06427714e-02, 8.69692117e-02, 2.44856700e-02,
          1.95164122e-02, 9.21016093e-03, 1.21991619e-01, 1.10620975e-01,
          1.21126696e-01, 1.50942028e-01, 2.43716404e-01, 1.82738274e-01,
          1.18741147e-01, 9.18318704e-02, 1.03839509e-01, 5.40918373e-02,
          5.12104668e-02, 3.98514122e-02, 1.21347949e-01, 1.14790149e-01,
          8.81652907e-02, 9.74757001e-02, 8.99724364e-02, 1.19498089e-01,
          1.76377371e-01, 2.38948688e-01, 2.88841754e-01, 1.63258746e-01,
          1.30736113e-01, 1.29712850e-01, 1.64485693e-01, 1.44710854e-01,
          2.00265601e-01, 2.61402965e-01, 4.78986770e-01, 2.16225401e-01,
          1.32934302e-01, 1.12696707e-01 ]
      - [ 9.46263596e-03, 8.62885360e-03, 7.20505929e-03, 3.21585080e-03,
          3.61681147e-03, 0., 4.86765755e-03, 0., 3.21585080e-03, 0., 0.,
          0., 4.54789959e-03, 0., 0., 0., 6.34865183e-03, 5.68987057e-03,
          0., 3.21585080e-03, 0., 0., 3.04136379e-03, 0., 0., 0., 0., 0.,
          1.01271234e-02, 3.82431247e-03, 8.04669224e-03, 0.,
          1.01185799e-01, 5.97209670e-02, 9.09570307e-02, 1.35414332e-01,
          1.33821100e-01, 1.29842892e-01, 1.02336578e-01, 6.20746575e-02,
          5.37989698e-02, 9.38443542e-02, 1.24062188e-01, 1.78076893e-01,
          1.84991583e-01, 2.42944911e-01, 1.97495431e-01, 8.85270610e-02,
          7.65047148e-02, 4.25326526e-02, 7.69405738e-02, 1.48488894e-01,
          3.48905802e-01, 2.86760509e-01, 1.04428157e-01, 6.47187606e-02,
          1.00436263e-01, 1.40285388e-01, 1.84950367e-01, 1.55688927e-01,
          4.42167193e-01, 3.79679710e-01, 1.53322130e-01, 7.03750923e-02 ]
      - [ 9.21817422e-02, 1.17032804e-01, 3.59868594e-02, 1.19167361e-02,
          3.74655463e-02, 3.34517993e-02, 1.28733125e-02, 0., 0., 0., 0.,
          6.70536608e-03, 4.52894084e-02, 9.02179554e-02, 3.86189073e-02,
          4.76573706e-02, 4.05769013e-02, 3.93402204e-02, 1.78870913e-02,
          1.67011600e-02, 4.95501198e-02, 3.14702727e-02, 2.65035257e-02,
          1.55637087e-02, 2.08416525e-02, 3.08892913e-02, 3.60890403e-02,
          2.75308341e-02, 5.49868755e-02, 3.41105834e-02, 4.71612578e-03,
          0., 6.67468905e-02, 4.69328091e-02, 6.07613474e-02,
          8.46058428e-02, 2.44311437e-01, 1.43914431e-01, 6.12185895e-02,
          3.78525667e-02, 8.61544907e-02, 5.87948784e-02, 5.68174534e-02,
          1.36361420e-01, 3.09236795e-01, 1.42315149e-01, 5.68708405e-02,
          3.66757736e-02, 7.56950453e-02, 5.39290719e-02, 7.85768554e-02,
          1.15763895e-01, 4.69800889e-01, 1.38872370e-01, 5.34638576e-02,
          6.61692843e-02, 1.02884494e-01, 1.34956732e-01, 9.00355279e-02,
          1.30708665e-01, 5.72729945e-01, 1.62863895e-01, 4.58507389e-02,
          3.87972631e-02 ]
      - [ 2.12791730e-02, 1.17371930e-02, 8.52170028e-03, 3.35357077e-02,
          3.05455849e-02, 1.18196281e-02, 0., 1.10082924e-02,
          1.24008954e-02, 0., 1.67641100e-02, 4.43450846e-02,
          1.35072768e-01, 4.35215011e-02, 6.70104241e-03, 7.98246544e-03,
          4.70950976e-02, 1.61240622e-02, 3.28866206e-02, 4.32772413e-02,
          1.62648007e-01, 2.64246892e-02, 1.57606155e-02, 9.38423816e-03,
          8.00474361e-03, 9.32665914e-03, 6.91081537e-03, 2.39997320e-02,
          1.42826423e-01, 3.33470255e-02, 4.29827496e-02, 8.86198413e-03,
          6.15733042e-02, 4.31414545e-02, 6.27331957e-02, 1.61588326e-01,
          1.88610509e-01, 6.03044704e-02, 3.92048210e-02, 1.47759438e-01,
          7.15144426e-02, 3.70496102e-02, 5.61378524e-02, 1.06279261e-01,
          3.10708284e-01, 7.20935464e-02, 4.99544069e-02, 4.90724482e-02,
          1.32127672e-01, 9.79618430e-02, 8.14780146e-02, 1.80326611e-01,
          3.94568056e-01, 1.07439607e-01, 7.01667145e-02, 7.22115710e-02,
          1.06417753e-01, 1.14395142e-01, 1.27234846e-01, 2.48794615e-01,
          5.57122409e-01, 1.58677027e-01, 7.38956556e-02, 6.54491708e-02 ]
      - [ 6.32118583e-02, 1.76049292e-01, 4.80060056e-02, 4.36066389e-02,
          9.80960112e-03, 0., 0., 0., 1.22078657e-02, 0., 9.31528863e-03,
          1.93557627e-02, 1.74677595e-02, 2.50786729e-02, 8.24885815e-03,
          2.07875054e-02, 5.01142517e-02, 1.06995389e-01, 3.17969956e-02,
          2.81918906e-02, 5.88295124e-02, 1.88099053e-02, 0.,
          7.62352301e-03, 9.58373398e-03, 1.17620938e-02, 1.46874571e-02,
          3.73656526e-02, 1.47147015e-01, 3.69247682e-02, 3.21573466e-02,
          2.97266208e-02, 4.76494282e-02, 4.62407768e-02, 7.86091983e-02,
          2.22521320e-01, 3.97841692e-01, 7.50630200e-02, 4.73735444e-02,
          3.85981835e-02, 5.13130464e-02, 5.67641221e-02, 5.33224158e-02,
          1.25411168e-01, 1.34348676e-01, 6.41632155e-02, 3.24930437e-02,
          4.96208631e-02, 1.13380298e-01, 2.01893270e-01, 1.76155165e-01,
          1.74761400e-01, 2.15857297e-01, 9.72605497e-02, 8.30232501e-02,
          9.33279917e-02, 1.40507862e-01, 2.80768305e-01, 2.17517123e-01,
          2.94224381e-01, 3.98145556e-01, 1.81901157e-01, 1.15478821e-01,
          1.00723825e-01 ]
      - [ 5.67866601e-02, 4.35549878e-02, 1.06346980e-02, 6.85280189e-03,
          5.39665716e-03, 8.41792952e-03, 7.69370189e-03, 0., 0., 0., 0.,
          1.36959469e-02, 2.22023539e-02, 1.51468460e-02, 1.93970297e-02,
          2.62549482e-02, 7.59357587e-03, 4.35665399e-02, 1.96319241e-02,
          2.64209770e-02, 7.69914314e-02, 5.57096861e-02, 5.70206046e-02,
          2.95314174e-02, 2.54846737e-02, 1.50677469e-02, 1.62468031e-02,
          6.66034641e-03, 1.03482995e-02, 0., 0., 0., 9.94479954e-02,
          8.11736509e-02, 7.49434158e-02, 1.55951291e-01, 3.36356550e-01,
          1.76818371e-01, 1.10377483e-01, 5.34905232e-02, 9.36617255e-02,
          3.09295580e-02, 9.79986414e-02, 9.28775147e-02, 1.75117046e-01,
          2.63738215e-01, 1.04526199e-01, 5.40846996e-02, 8.86609554e-02,
          4.56819683e-02, 7.34765455e-02, 1.88651666e-01, 3.92358482e-01,
          1.45244285e-01, 6.80574328e-02, 4.30313461e-02, 9.56728756e-02,
          2.11655974e-01, 1.00617096e-01, 1.13788359e-01, 4.23276216e-01,
          3.55970949e-01, 9.39812511e-02, 5.48474304e-02 ]
      - [ 1.90674849e-02, 5.57695376e-03, 1.11555057e-02, 5.96497022e-02,
          5.23975305e-02, 2.70250589e-02, 0., 8.18207115e-03,
          2.01129094e-02, 6.23236177e-03, 6.30442379e-03, 2.70517413e-02,
          4.53122072e-02, 3.96469906e-02, 2.23497488e-02, 1.31043075e-02,
          5.82331046e-02, 3.21130082e-02, 2.61033978e-02, 4.56241667e-02,
          4.67195660e-02, 3.41750495e-02, 1.18196653e-02, 6.43945625e-03,
          1.44500164e-02, 1.19126067e-02, 2.80198045e-02, 4.73224558e-02,
          5.32481670e-02, 1.51139759e-02, 3.23020928e-02, 8.98644552e-02,
          8.04785639e-02, 3.69036421e-02, 4.67511602e-02, 1.85249105e-01,
          2.88924009e-01, 8.38779882e-02, 5.42943478e-02, 1.08407274e-01,
          9.43643749e-02, 4.74777445e-02, 4.01371084e-02, 1.64733872e-01,
          4.29090112e-01, 5.42671420e-02, 2.68161297e-02, 2.16365065e-02,
          1.32098243e-01, 1.62362650e-01, 1.85203895e-01, 2.79286027e-01,
          3.02904189e-01, 1.47270322e-01, 1.01741523e-01, 1.06796965e-01,
          1.09561108e-01, 1.59690231e-01, 1.79651827e-01, 2.48631209e-01,
          3.59456897e-01, 1.33942932e-01, 9.08636376e-02, 6.75978363e-02 ]
      - [ 9.57128182e-02, 6.50253668e-02, 6.40896484e-02, 5.24392053e-02,
          2.62490306e-02, 6.15245104e-03, 0., 2.61705685e-02,
          2.38266047e-02, 1.05319917e-02, 0., 0., 2.48444136e-02,
          3.29059884e-02, 1.93276368e-02, 2.81248987e-02, 4.86083962e-02,
          4.36607897e-02, 5.21926545e-02, 2.84730527e-03, 4.69884016e-02,
          2.82776598e-02, 2.50185616e-02, 7.02238223e-03, 1.56918578e-02,
          9.54885129e-03, 1.32893613e-02, 4.09339145e-02, 6.67858347e-02,
          1.16696686e-01, 5.94120398e-02, 4.02040258e-02, 1.14837006e-01,
          8.46205652e-02, 1.29029423e-01, 1.40431479e-01, 1.66278452e-01,
          2.40417391e-01, 1.19090065e-01, 7.64808357e-02, 9.32364166e-02,
          8.36275518e-02, 9.00593847e-02, 1.25533894e-01, 1.74582079e-01,
          1.66795895e-01, 1.00169510e-01, 9.42884237e-02, 1.37058854e-01,
          1.17941424e-01, 1.76944464e-01, 2.45548636e-01, 2.11912811e-01,
          2.39520520e-01, 1.58255905e-01, 1.07638612e-01, 1.56503692e-01,
          1.87031463e-01, 2.70172536e-01, 2.35749036e-01, 2.72521764e-01,
          3.15331578e-01, 1.45992175e-01, 1.15989715e-01 ]
      - [ 1.77752171e-02, 1.44016342e-02, 2.29276530e-02, 3.55007797e-02,
          1.98708642e-02, 3.56995780e-03, 3.47715220e-03, 3.00196488e-03,
          2.38737464e-03, 6.04633614e-03, 9.19956155e-03, 2.03133374e-02,
          2.13993564e-02, 9.99011192e-03, 1.66901760e-02, 6.86190510e-03,
          6.76009133e-02, 4.46590930e-02, 6.11981452e-02, 7.89255425e-02,
          6.84722289e-02, 2.02581864e-02, 1.44438827e-02, 7.24895345e-03,
          8.60780198e-03, 4.65867715e-03, 0., 2.49158014e-02,
          4.09856401e-02, 7.48065412e-02, 1.32166713e-01, 8.35706294e-02,
          6.12029396e-02, 3.51906791e-02, 5.52216843e-02, 1.79813728e-01,
          2.15143621e-01, 9.21823010e-02, 1.04791395e-01, 7.56297782e-02,
          6.83454797e-02, 3.93271446e-02, 3.91431972e-02, 2.13589787e-01,
          2.98482507e-01, 7.87238777e-02, 5.89618757e-02, 3.61365601e-02,
          7.60830864e-02, 1.02619149e-01, 1.29219010e-01, 2.93675095e-01,
          3.40479702e-01, 1.95902541e-01, 1.90054104e-01, 1.04988247e-01,
          9.36384350e-02, 8.33976716e-02, 1.34296685e-01, 3.61333609e-01,
          3.79625887e-01, 1.60605788e-01, 1.13243088e-01, 9.18540657e-02 ]
      - [ 3.98923792e-02, 0., 1.53540606e-02, 0., 9.82252136e-02,
          5.76865077e-02, 1.68830641e-02, 1.39516555e-02, 1.57686006e-02,
          8.04327428e-03, 1.30181862e-02, 1.38396407e-02, 1.10245481e-01,
          5.22301048e-02, 2.86521912e-02, 2.93756612e-02, 3.41708995e-02,
          2.25114338e-02, 3.43242735e-02, 1.28234122e-02, 1.11708686e-01,
          7.93206766e-02, 1.41680818e-02, 1.01443948e-02, 8.14353954e-03,
          1.26461498e-02, 2.43696589e-02, 7.50377849e-02, 6.66199848e-02,
          6.86276779e-02, 1.37281552e-01, 5.93427308e-02, 6.61053136e-02,
          5.44196069e-02, 6.70762882e-02, 1.34604678e-01, 3.11804324e-01,
          6.81851953e-02, 1.17542461e-01, 6.38575554e-02, 7.34618977e-02,
          4.73524183e-02, 8.26232061e-02, 1.58798233e-01, 2.73488671e-01,
          1.18742622e-01, 6.07651323e-02, 4.32831086e-02, 5.20861559e-02,
          3.47287692e-02, 3.96016836e-02, 1.80441841e-01, 4.67951506e-01,
          1.56364918e-01, 1.00505315e-01, 4.33074236e-02, 5.98371886e-02,
          3.42493281e-02, 3.95238325e-02, 1.48857310e-01, 5.24058402e-01,
          1.59848228e-01, 3.31883878e-02, 1.85556710e-02 ]
      - [ 8.08742568e-02, 9.61714331e-03, 1.57352909e-02, 2.57855281e-02,
          5.62185049e-02, 3.20425779e-02, 1.90875474e-02, 4.69215475e-02,
          5.05604967e-02, 3.55415754e-02, 1.41758285e-02, 2.15164814e-02,
          6.98348358e-02, 5.52609898e-02, 4.20363694e-02, 9.23563689e-02,
          4.84255441e-02, 2.27055885e-02, 1.35695376e-02, 3.11929900e-02,
          6.86483532e-02, 2.81331651e-02, 2.99809445e-02, 2.21274737e-02,
          2.97932997e-02, 2.51703281e-02, 6.26598159e-03, 2.35386770e-02,
          9.40603688e-02, 3.45232375e-02, 8.79088417e-03, 2.88024060e-02,
          8.46498907e-02, 7.64395222e-02, 8.14442784e-02, 1.63184151e-01,
          2.84889936e-01, 9.63513479e-02, 7.67343789e-02, 1.29326358e-01,
          1.20104365e-01, 7.72180930e-02, 8.83526579e-02, 1.85556024e-01,
          4.23988342e-01, 1.23360954e-01, 5.26337251e-02, 4.19836789e-02,
          1.31775528e-01, 1.26219630e-01, 1.14013493e-01, 1.80771559e-01,
          2.51443446e-01, 9.02423263e-02, 9.30577070e-02, 1.38882935e-01,
          1.58087850e-01, 1.32926390e-01, 1.23425394e-01, 2.45189443e-01,
          4.14150089e-01, 1.57908082e-01, 1.09183304e-01, 1.13440201e-01 ]
      - [ 1.31854057e-01, 6.59877583e-02, 0., 1.43677266e-02,
          5.34608923e-02, 3.26543003e-02, 0., 2.03262400e-02,
          1.08845038e-02, 4.78678830e-02, 5.49173392e-02, 7.61712268e-02,
          6.06556199e-02, 3.04665696e-02, 4.49899100e-02, 4.59483899e-02,
          2.70236637e-02, 2.73198877e-02, 4.17684913e-02, 4.47154231e-02,
          7.39724785e-02, 7.23386481e-02, 5.83025552e-02, 3.27408016e-02,
          5.10373116e-02, 4.89426218e-02, 5.70725538e-02, 9.41485316e-02,
          7.56568834e-02, 2.06372533e-02, 1.73129048e-02, 1.17662782e-02,
          9.89837572e-02, 6.77643716e-02, 4.75150123e-02, 9.31352824e-02,
          1.76321626e-01, 1.13325775e-01, 6.68582246e-02, 7.11737424e-02,
          1.04615122e-01, 1.09532632e-01, 8.42160285e-02, 1.14476055e-01,
          3.52256387e-01, 1.84542164e-01, 6.53259307e-02, 5.06078415e-02,
          1.05631739e-01, 1.04065046e-01, 1.17444709e-01, 2.24244341e-01,
          3.34498554e-01, 2.04799339e-01, 1.11596964e-01, 1.08044356e-01,
          1.22900240e-01, 1.30751193e-01, 1.49757102e-01, 1.78731918e-01,
          4.52523530e-01, 2.09327608e-01, 1.19085759e-01, 9.67811123e-02 ]
      - [ 9.04263277e-03, 5.84055949e-03, 2.16634180e-02, 6.73747957e-02,
          1.57777015e-02, 1.67579073e-02, 1.38797211e-02, 1.27681606e-02,
          2.08369065e-02, 1.09912427e-02, 1.37108276e-02, 3.95643376e-02,
          3.01047657e-02, 4.54917690e-03, 1.04610305e-02, 3.20147187e-03,
          3.52699123e-02, 1.68034770e-02, 4.80930805e-02, 6.00573607e-02,
          4.34812605e-02, 0., 5.07361256e-03, 0., 0., 5.33167738e-03,
          5.53322537e-03, 1.88960880e-02, 4.93709818e-02, 3.28042842e-02,
          1.30153537e-01, 8.32269266e-02, 5.02034351e-02, 7.25687817e-02,
          1.02957115e-01, 3.57377529e-01, 2.37115026e-01, 1.36600986e-01,
          1.30024850e-01, 6.58005923e-02, 4.68642600e-02, 3.30947749e-02,
          4.01119143e-02, 6.12953044e-02, 9.73044261e-02, 7.92190805e-02,
          5.12241721e-02, 4.58449312e-02, 1.03672408e-01, 7.96454698e-02,
          1.21443555e-01, 2.41247147e-01, 2.14776888e-01, 2.00030521e-01,
          2.29037181e-01, 1.51776776e-01, 9.06858072e-02, 1.03260167e-01,
          1.10299446e-01, 4.12026197e-01, 3.69891912e-01, 1.97646737e-01,
          1.86940789e-01, 1.37109175e-01 ]
      - [ 9.13071781e-02, 3.00730988e-02, 3.66372056e-02, 1.53739545e-02,
          3.77991498e-02, 4.54980843e-02, 3.44089456e-02, 1.63432267e-02,
          2.56225131e-02, 3.28359902e-02, 6.21383563e-02, 5.50622195e-02,
          1.73942093e-02, 1.13574741e-02, 5.58325043e-03, 5.98310716e-02,
          3.24475467e-02, 4.52824086e-02, 3.93137969e-02, 3.85250375e-02,
          5.84052801e-02, 7.61097670e-02, 3.43902707e-02, 5.27217845e-03,
          3.30092758e-02, 4.82418947e-03, 2.51485035e-02, 3.11628859e-02,
          1.09359466e-01, 9.43998545e-02, 4.98584919e-02, 3.73755917e-02,
          6.29582554e-02, 5.79044111e-02, 9.25896540e-02, 1.14766784e-01,
          1.70813769e-01, 8.47294331e-02, 7.42739439e-02, 5.69653884e-02,
          7.44097456e-02, 5.58816679e-02, 1.01197317e-01, 1.17814891e-01,
          2.45203897e-01, 1.18500538e-01, 4.32499014e-02, 4.53691334e-02,
          9.28579196e-02, 5.74529208e-02, 7.95482993e-02, 3.07220250e-01,
          4.10884500e-01, 2.07858190e-01, 7.32807741e-02, 6.41736761e-02,
          1.14993721e-01, 7.56532103e-02, 1.18101820e-01, 2.31714770e-01,
          5.15797377e-01, 2.08091706e-01, 8.31584781e-02, 7.40252286e-02 ]
      - [ 3.25652733e-02, 1.42538203e-02, 2.90881023e-02, 5.79955727e-02,
          4.79492582e-02, 3.32408622e-02, 0., 6.20498136e-03,
          7.46810669e-03, 5.01361955e-03, 0., 2.85418574e-02,
          1.07161038e-01, 2.93983854e-02, 1.41663561e-02, 0.,
          6.45931736e-02, 2.93559041e-02, 2.67194957e-02, 6.38879687e-02,
          1.02631427e-01, 8.56063701e-03, 1.54736731e-02, 9.28620808e-03,
          7.46810669e-03, 1.22356080e-02, 0., 3.64254043e-02,
          6.02104031e-02, 2.93336455e-02, 1.00129813e-01, 1.37861595e-01,
          9.85581353e-02, 6.58668205e-02, 1.08556315e-01, 1.36384413e-01,
          2.64614314e-01, 6.83726221e-02, 1.14723518e-01, 1.54726833e-01,
          8.38788822e-02, 7.31083602e-02, 6.28616661e-02, 1.28578007e-01,
          2.11355537e-01, 1.02719657e-01, 7.48561919e-02, 7.63611272e-02,
          6.13584593e-02, 4.79793698e-02, 6.83452934e-02, 1.82926118e-01,
          4.77045387e-01, 1.22127578e-01, 7.67607912e-02, 1.03811540e-01,
          6.75812885e-02, 9.45189670e-02, 1.27223179e-01, 1.83024913e-01,
          5.14805913e-01, 1.50481492e-01, 9.57745463e-02, 5.18482402e-02 ]
      - [ 2.85179950e-02, 3.19803655e-02, 2.26070173e-02, 5.48182875e-02,
          7.09193349e-02, 4.43048552e-02, 1.10606411e-02, 1.30447317e-02,
          1.44947041e-02, 2.68213023e-02, 2.79965810e-02, 7.14841187e-02,
          1.27026394e-01, 2.29980070e-02, 2.81470381e-02, 6.88496931e-03,
          3.59995775e-02, 3.42172161e-02, 1.92326624e-02, 3.84292863e-02,
          6.93951473e-02, 2.81439759e-02, 1.92702040e-02, 3.67790721e-02,
          2.74624489e-02, 1.74249299e-02, 3.63703258e-03, 1.61742456e-02,
          6.23136200e-02, 5.64327724e-02, 6.44274577e-02, 4.33272012e-02,
          5.90481833e-02, 3.33759002e-02, 4.93062474e-02, 2.24716663e-01,
          2.99546808e-01, 9.26662087e-02, 1.30629301e-01, 3.19742598e-02,
          6.91523254e-02, 4.63535450e-02, 9.32938531e-02, 2.24901170e-01,
          3.46756458e-01, 1.10914916e-01, 6.06070459e-02, 1.71671268e-02,
          1.45404130e-01, 1.19642578e-01, 1.44985408e-01, 2.05929250e-01,
          3.03813487e-01, 1.81314990e-01, 2.03990981e-01, 1.31317601e-01,
          1.49372533e-01, 1.40528157e-01, 1.08095288e-01, 1.97992384e-01,
          3.13183755e-01, 1.55257851e-01, 1.86002508e-01, 1.66297004e-01 ]
      - [ 3.01718339e-02, 2.31727287e-02, 0., 1.98568832e-02,
          1.06943380e-02, 5.03229396e-03, 8.30580667e-03, 0.,
          1.22737261e-02, 5.98443951e-03, 9.55546461e-03, 1.53993769e-02,
          6.63049296e-02, 7.95820877e-02, 2.49151941e-02, 7.13446364e-03,
          3.66965979e-02, 2.70476360e-02, 2.02052798e-02, 3.50473449e-02,
          6.60717934e-02, 6.25895709e-02, 1.90573726e-02, 6.07225439e-03,
          6.24526804e-03, 0., 1.36761088e-02, 2.86149755e-02,
          4.45211455e-02, 3.09097245e-02, 7.38602802e-02, 5.66133037e-02,
          8.24482962e-02, 2.97509171e-02, 4.36665602e-02, 7.71068260e-02,
          1.70332938e-01, 1.41678870e-01, 1.60801217e-01, 1.12336420e-01,
          8.58123899e-02, 5.69482073e-02, 5.01923822e-02, 1.00805148e-01,
          2.72758931e-01, 1.64003700e-01, 1.28037766e-01, 6.98635802e-02,
          9.03816223e-02, 7.32349455e-02, 1.06511869e-01, 2.53493160e-01,
          4.05461848e-01, 2.25030616e-01, 1.47187889e-01, 8.14917609e-02,
          9.80206355e-02, 6.42634481e-02, 1.03446804e-01, 1.96259439e-01,
          4.82762218e-01, 2.60739535e-01, 1.06357597e-01, 6.51583150e-02 ]
      - [ 2.51007136e-02, 1.74856670e-02, 1.58530697e-02, 6.29072040e-02,
          7.67985582e-02, 0., 4.87220893e-03, 0., 2.97435489e-03,
          4.44769813e-03, 0., 4.20637289e-03, 5.92479557e-02,
          1.65801886e-02, 1.49008445e-02, 1.22683691e-02, 5.25025502e-02,
          3.93899567e-02, 3.29934433e-02, 3.76939178e-02, 3.69206667e-02,
          2.81282794e-02, 3.20491306e-02, 1.18096583e-02, 1.08900629e-02,
          0., 0., 3.66268605e-02, 1.02920316e-01, 6.06057309e-02,
          4.84105870e-02, 4.32379507e-02, 7.32235163e-02, 2.82195937e-02,
          5.73479421e-02, 2.28123769e-01, 4.17487949e-01, 8.57956037e-02,
          6.63966984e-02, 5.60389534e-02, 9.28445682e-02, 1.40352780e-02,
          5.21783233e-02, 2.95896500e-01, 5.15984893e-01, 1.01408035e-01,
          4.50381748e-02, 2.63978485e-02, 8.71799663e-02, 7.91333988e-02,
          1.04247063e-01, 1.62546903e-01, 2.74127901e-01, 1.15074612e-01,
          1.04495749e-01, 9.28374678e-02, 8.40109587e-02, 7.30595887e-02,
          1.13632008e-01, 1.96934015e-01, 2.61072546e-01, 1.22481123e-01,
          1.20386027e-01, 6.92342520e-02 ]
      - [ 9.29263979e-03, 3.24484333e-02, 7.96535090e-02, 6.16742671e-02,
          3.95239182e-02, 8.93855467e-03, 8.60439520e-03, 6.52603339e-03,
          6.65909238e-03, 7.26978714e-03, 4.26943786e-03, 0.,
          1.56405456e-02, 1.02704577e-02, 0., 1.18453000e-02,
          3.53517048e-02, 3.17390412e-02, 2.15710737e-02, 3.67784016e-02,
          4.11946662e-02, 2.56214850e-02, 2.96057109e-02, 1.08527001e-02,
          2.79429723e-02, 3.23641263e-02, 3.59177589e-02, 3.58412862e-02,
          6.08883314e-02, 1.00338958e-01, 6.55727461e-02, 5.09208925e-02,
          7.70037547e-02, 4.88342270e-02, 8.56122077e-02, 1.41673222e-01,
          1.95128426e-01, 3.37422676e-02, 6.08665571e-02, 8.42911378e-02,
          4.13089804e-02, 5.26852682e-02, 6.59293979e-02, 2.13845089e-01,
          3.34480852e-01, 4.80393954e-02, 4.25304174e-02, 3.19519788e-02,
          8.73722732e-02, 9.03489888e-02, 9.62943062e-02, 3.36925656e-01,
          3.97884816e-01, 1.65606558e-01, 1.14437856e-01, 1.01568565e-01,
          9.34005007e-02, 9.89937857e-02, 1.03103809e-01, 2.75271535e-01,
          4.35287267e-01, 1.80009618e-01, 1.31826207e-01, 6.79601505e-02 ]
      - [ 2.40833927e-02, 4.87213349e-03, 3.06319189e-03, 8.42779130e-03,
          9.84631199e-03, 0., 0., 0., 7.30043184e-03, 3.85175971e-03, 0.,
          6.09969813e-03, 1.06492257e-02, 2.78226919e-02, 2.80125625e-02,
          1.48066822e-02, 4.50844802e-02, 9.20990855e-02, 1.07015818e-01,
          1.05326831e-01, 3.85181978e-02, 1.01384846e-02, 5.50737651e-03,
          5.05316583e-03, 1.13155376e-02, 6.92509068e-03, 1.88163538e-02,
          1.08961709e-01, 7.81950653e-02, 3.86260822e-02, 6.51058694e-03,
          3.19308005e-02, 1.73144072e-01, 9.64540467e-02, 1.11032404e-01,
          1.15594551e-01, 1.11761183e-01, 1.26824006e-01, 1.57685146e-01,
          1.13068871e-01, 1.29370257e-01, 1.29158050e-01, 1.34334207e-01,
          1.48974240e-01, 1.40715063e-01, 1.39593408e-01, 1.49370581e-01,
          1.03833266e-01, 9.16252807e-02, 1.88247249e-01, 2.31532946e-01,
          2.81525224e-01, 2.03775182e-01, 1.64427489e-01, 1.54928192e-01,
          1.49828345e-01, 1.29466236e-01, 1.29699349e-01, 2.11080834e-01,
          3.98792058e-01, 3.06954324e-01, 1.46484539e-01, 9.13724005e-02,
          1.06320411e-01 ]
      - [ 0., 0., 0., 0., 0., 0., 0., 0., 0., 0., 0., 0., 0., 0., 0., 0.,
          0., 0., 0., 0., 0., 0., 0., 0., 0., 0., 0., 0., 0., 0., 0., 0.,
          1.25156686e-01, 1.08965822e-01, 2.10555673e-01, 9.47328210e-02,
          2.92611003e-01, 1.94653779e-01, 6.71815053e-02, 2.67928820e-02,
          9.46022719e-02, 4.67516966e-02, 8.96981806e-02, 1.65247589e-01,
          2.26023361e-01, 1.80609256e-01, 9.03835446e-02, 5.46707734e-02,
          1.09541677e-01, 8.68888646e-02, 1.54318273e-01, 1.59837171e-01,
          1.95128724e-01, 1.31342232e-01, 9.95573625e-02, 7.29508996e-02,
          9.87628996e-02, 1.17114946e-01, 3.08829069e-01, 3.00043523e-01,
          3.73236030e-01, 3.52262169e-01, 1.56534210e-01, 1.13227725e-01 ]
      - [ 4.15977165e-02, 9.50713679e-02, 2.44493224e-02, 1.51250996e-02,
          1.91859137e-02, 0., 0., 0., 0., 0., 0., 3.09111811e-02,
          1.61528476e-02, 1.04527511e-02, 1.17560280e-02, 1.70517042e-02,
          2.99341716e-02, 7.36540630e-02, 3.91757786e-02, 3.41379754e-02,
          4.08431068e-02, 1.38752153e-02, 1.21518094e-02, 4.99150436e-03,
          1.72978509e-02, 2.80513782e-02, 4.42027822e-02, 8.35800692e-02,
          3.34544256e-02, 8.33347160e-03, 1.20927989e-02, 8.98518972e-03,
          1.04688443e-01, 5.52702323e-02, 9.28607360e-02, 1.96047023e-01,
          5.06154597e-01, 7.82821253e-02, 3.06578223e-02, 1.96826719e-02,
          7.21247792e-02, 3.10557075e-02, 4.49087098e-02, 1.50830105e-01,
          4.70778555e-01, 9.96617898e-02, 1.14904135e-01, 4.61924113e-02,
          8.56730714e-02, 8.79935324e-02, 1.13053583e-01, 1.32438391e-01,
          2.03627393e-01, 6.47156760e-02, 4.09242176e-02, 3.34442779e-02,
          7.12161139e-02, 1.46217704e-01, 1.34729713e-01, 1.39217302e-01,
          4.11940604e-01, 1.47215053e-01, 8.42975676e-02, 7.01703206e-02 ]
      - [ 6.56056106e-02, 3.12019903e-02, 2.90583856e-02, 1.71921048e-02,
          7.07858875e-02, 9.14130285e-02, 0., 0., 3.32780816e-02, 0., 0.,
          3.37825110e-03, 3.38940769e-02, 7.11271763e-02, 3.74116935e-02,
          3.73610258e-02, 2.03014053e-02, 5.85940946e-03, 1.34054143e-02,
          1.74645986e-02, 4.95104566e-02, 5.43271080e-02, 2.35885791e-02,
          7.50982296e-03, 1.86457913e-02, 8.20390321e-03, 3.79946036e-03,
          2.24207696e-02, 5.80817536e-02, 9.07805637e-02, 2.60874201e-02,
          2.85971779e-02, 9.73185226e-02, 5.87570257e-02, 4.97663729e-02,
          1.09720051e-01, 2.56861776e-01, 2.14201570e-01, 7.97701925e-02,
          6.26270846e-02, 8.54119062e-02, 2.69250032e-02, 7.09045976e-02,
          7.07630143e-02, 1.95810035e-01, 2.54964650e-01, 8.86292681e-02,
          7.69305676e-02, 1.16183355e-01, 6.48822263e-02, 1.03722326e-01,
          2.16708213e-01, 3.68337154e-01, 2.87511647e-01, 8.75436291e-02,
          7.09121823e-02, 1.57501966e-01, 9.64275673e-02, 8.99972990e-02,
          1.61189303e-01, 3.67551774e-01, 3.72194141e-01, 1.03669390e-01,
          7.29831755e-02 ]
      - [ 4.30260710e-02, 4.92683165e-02, 2.45379172e-02, 2.36459654e-02,
          1.39228292e-02, 1.57475378e-02, 1.69443209e-02, 7.04658171e-03,
          0., 0., 1.32541424e-02, 0., 0., 8.79754126e-03, 1.77536085e-02,
          4.37757745e-02, 3.53856981e-02, 2.66358759e-02, 2.57224124e-02,
          1.46151371e-02, 2.55260486e-02, 3.01194172e-02, 6.47461265e-02,
          2.47690380e-02, 1.48710040e-02, 1.76545512e-02, 3.76768759e-03,
          8.72004684e-03, 2.59797424e-02, 3.40123288e-02, 8.26696232e-02,
          4.75919917e-02, 1.28079027e-01, 7.90832639e-02, 6.47674948e-02,
          8.16902295e-02, 1.49982601e-01, 2.14384675e-01, 1.81114614e-01,
          6.40361905e-02, 1.06035694e-01, 7.55078644e-02, 5.91358803e-02,
          1.08259670e-01, 1.41928524e-01, 1.94807574e-01, 2.21640095e-01,
          1.27594709e-01, 1.28098890e-01, 1.15132675e-01, 1.42012522e-01,
          2.01663628e-01, 1.64013952e-01, 2.40204811e-01, 2.18004912e-01,
          1.39096022e-01, 1.47355840e-01, 2.66540140e-01, 1.81905001e-01,
          1.94561318e-01, 2.26861462e-01, 2.98392534e-01, 3.22216958e-01,
          1.61224276e-01 ]
      - [ 3.09106186e-02, 2.11411882e-02, 2.94065010e-02, 2.78296005e-02,
          2.60847304e-02, 1.04762437e-02, 0., 0., 4.79540275e-03, 0., 0.,
          0., 1.47987623e-02, 1.36081921e-02, 1.76993217e-02,
          2.31509395e-02, 2.57267822e-02, 1.38813443e-02, 2.06272118e-02,
          1.01760719e-02, 4.42495458e-02, 2.64044926e-02, 1.85880642e-02,
          1.63815022e-02, 2.27250885e-02, 1.23573039e-02, 3.72502729e-02,
          6.58296496e-02, 1.04482241e-01, 3.78213562e-02, 2.01760139e-02,
          3.60753126e-02, 9.72146913e-02, 7.62199238e-02, 1.21668354e-01,
          1.09685436e-01, 6.77088872e-02, 1.87478568e-02, 2.32508872e-02,
          1.03543371e-01, 6.44101277e-02, 6.43035397e-02, 1.49692193e-01,
          1.64629906e-01, 4.27301437e-01, 9.35800150e-02, 6.24424815e-02,
          4.75493036e-02, 5.90944178e-02, 9.61636826e-02, 1.88380197e-01,
          2.29164287e-01, 3.15078974e-01, 1.17178127e-01, 3.98937948e-02,
          2.53094640e-02, 5.04733101e-02, 6.12093471e-02, 1.70878366e-01,
          2.72977233e-01, 5.39275706e-01, 1.69563800e-01, 7.73232877e-02,
          6.82877451e-02 ]
      - [ 9.18947607e-02, 1.14691127e-02, 0., 1.57725289e-02,
          3.43732759e-02, 0., 1.33080063e-02, 1.83507036e-02,
          1.49501516e-02, 1.99469570e-02, 1.66423600e-02, 6.07582107e-02,
          2.24278420e-02, 1.08867614e-02, 7.42164021e-03, 4.54749651e-02,
          3.63783389e-02, 2.11868510e-02, 3.14074717e-02, 8.13447833e-02,
          1.10627815e-01, 7.22948611e-02, 3.07625812e-02, 0.,
          3.87341678e-02, 3.41701992e-02, 4.36073542e-02, 4.42121290e-02,
          1.68355227e-01, 5.69210164e-02, 2.95984242e-02, 3.88406813e-02,
          7.05238134e-02, 3.94048020e-02, 3.78469639e-02, 3.69276479e-02,
          2.07725719e-01, 1.18769988e-01, 5.89956641e-02, 4.51677404e-02,
          9.78047997e-02, 1.33659884e-01, 6.36468455e-02, 1.06530324e-01,
          2.59414703e-01, 1.23213023e-01, 7.51479268e-02, 5.52666374e-02,
          1.49403691e-01, 1.20191775e-01, 1.23492233e-01, 2.86821038e-01,
          3.48814368e-01, 1.64042532e-01, 1.11815728e-01, 9.68575254e-02,
          1.66180342e-01, 2.12589651e-01, 1.39969274e-01, 2.05365390e-01,
          4.69783485e-01, 1.75724685e-01, 8.39349255e-02, 9.90440622e-02 ]
      - [ 3.03340238e-03, 9.54413414e-03, 5.17946295e-03, 0., 0., 0., 0.,
          0., 0., 0., 0., 0., 0., 0., 2.55077705e-03, 0., 9.10020713e-03,
          6.24810252e-03, 0., 9.03631374e-03, 2.85201948e-02,
          2.74918657e-02, 3.91661003e-02, 1.25922374e-02, 1.75783336e-02,
          5.70371095e-03, 8.62131547e-03, 5.39423712e-03, 1.47809256e-02,
          5.91932284e-03, 7.65233114e-03, 5.39423712e-03, 9.02114436e-02,
          1.01147100e-01, 2.19123736e-01, 2.20270470e-01, 2.11025476e-01,
          1.18426621e-01, 1.00092575e-01, 9.04034525e-02, 1.25555664e-01,
          1.12933107e-01, 1.40984088e-01, 1.19428679e-01, 1.25103861e-01,
          1.17562547e-01, 1.19599000e-01, 6.11374676e-02, 1.16482712e-01,
          1.59441844e-01, 2.12278858e-01, 2.13114440e-01, 2.25633532e-01,
          2.41444185e-01, 1.78587168e-01, 1.27276927e-01, 9.79899019e-02,
          1.66897684e-01, 2.58515090e-01, 2.95671433e-01, 2.79724091e-01,
          2.77602851e-01, 2.09639966e-01, 1.26717612e-01 ]
      - [ 4.91650626e-02, 7.51177920e-03, 1.42177362e-02, 7.79133616e-03,
          2.84576993e-02, 2.45563239e-02, 2.86450032e-02, 6.94077788e-03,
          1.85575001e-02, 0., 0., 0., 9.90867391e-02, 5.17316647e-02,
          4.45351265e-02, 1.99608747e-02, 3.81161906e-02, 2.16791071e-02,
          2.02073697e-02, 2.12321300e-02, 3.22465487e-02, 4.13535610e-02,
          2.91948617e-02, 1.50014628e-02, 1.04138618e-02, 8.72223917e-03,
          8.10903404e-03, 9.54158511e-03, 3.31221595e-02, 5.03121950e-02,
          4.82859835e-02, 3.30367684e-02, 1.30632028e-01, 1.12608716e-01,
          1.19878739e-01, 1.27613947e-01, 3.53488028e-01, 1.16557360e-01,
          4.59569916e-02, 8.29268247e-02, 1.06292546e-01, 1.83983054e-02,
          8.24085623e-02, 1.02348998e-01, 3.23674381e-01, 1.64537281e-01,
          5.97004443e-02, 6.10581525e-02, 1.30243525e-01, 8.79274011e-02,
          1.16910003e-01, 2.28762522e-01, 3.71605575e-01, 1.85207635e-01,
          1.14902042e-01, 7.38418996e-02, 6.56524301e-02, 5.16183339e-02,
          7.00206682e-02, 1.29643202e-01, 4.61571306e-01, 1.99036151e-01,
          1.29451796e-01, 9.97375771e-02 ]
      - [ 1.99663062e-02, 0., 0., 5.28632058e-03, 1.90645102e-02, 0.,
          4.92429128e-03, 2.60340213e-03, 2.39716731e-02, 1.74099987e-03,
          9.20365006e-03, 2.63886731e-02, 2.67943889e-02, 1.67993866e-02,
          1.08101526e-02, 0., 1.64095070e-02, 3.94630209e-02,
          4.78754751e-02, 5.82982935e-02, 4.60660160e-02, 3.26236598e-02,
          9.56446771e-03, 2.15619989e-02, 1.14913965e-02, 3.48199974e-03,
          1.87796056e-02, 4.68327943e-03, 8.42243358e-02, 4.85374182e-02,
          3.17501277e-02, 1.70916263e-02, 7.92565569e-02, 5.82786612e-02,
          1.40791178e-01, 3.23546737e-01, 1.33466303e-01, 1.75952554e-01,
          8.32132921e-02, 4.21786159e-02, 7.71206021e-02, 4.22284119e-02,
          1.02480844e-01, 2.79477537e-01, 1.56725794e-01, 9.23501924e-02,
          6.05480298e-02, 3.28077264e-02, 1.02413073e-01, 1.14699237e-01,
          1.86354011e-01, 3.32992107e-01, 2.56851792e-01, 1.65555164e-01,
          1.22273460e-01, 1.03095032e-01, 1.31667376e-01, 1.24848545e-01,
          1.79472193e-01, 3.68721902e-01, 2.93196499e-01, 2.20915422e-01,
          1.30259037e-01, 8.54359642e-02 ]
      - [ 1.90531224e-01, 5.15234172e-02, 2.05541998e-02, 6.49116263e-02,
          5.85135035e-02, 2.15293486e-02, 5.95129142e-03, 7.86032248e-03,
          1.54006584e-02, 6.20407239e-03, 4.04420830e-02, 4.25123610e-02,
          5.74829839e-02, 8.88772588e-03, 0., 4.38265651e-02,
          7.70185888e-02, 4.78245430e-02, 4.19255942e-02, 1.01677395e-01,
          1.12972282e-01, 4.10879254e-02, 1.25322202e-02, 1.18411854e-02,
          1.98310334e-02, 3.34769227e-02, 3.92065458e-02, 1.84114188e-01,
          1.20812498e-01, 4.89466405e-03, 0., 0., 6.64499179e-02,
          6.47666901e-02, 1.19571239e-01, 3.48921716e-01, 2.66764164e-01,
          8.88788924e-02, 7.97826871e-02, 1.03143342e-01, 1.27925977e-01,
          7.45754838e-02, 1.30490020e-01, 1.92917019e-01, 9.87435579e-02,
          4.51411605e-02, 4.57403548e-02, 4.50832844e-02, 8.94134939e-02,
          1.09753363e-01, 1.61031947e-01, 2.15320811e-01, 1.82298973e-01,
          9.12372097e-02, 5.58376200e-02, 6.62204325e-02, 1.84255913e-01,
          1.39454514e-01, 1.95297897e-01, 4.21943903e-01, 3.03059340e-01,
          1.17882326e-01, 5.71237430e-02, 6.31540269e-02 ]
      - [ 4.83463854e-02, 1.65258683e-02, 3.43160443e-02, 8.95113423e-02,
          9.28759500e-02, 4.87500280e-02, 3.69183347e-02, 4.54827510e-02,
          2.76777744e-02, 0., 0., 7.94244707e-02, 8.62884074e-02,
          3.99152599e-02, 0., 3.43556590e-02, 4.57167402e-02,
          4.24394244e-03, 2.54644845e-02, 5.67406788e-02, 9.95901674e-02,
          3.71121801e-02, 2.11732183e-02, 2.60864068e-02, 0.,
          1.75863933e-02, 1.35038542e-02, 2.38287579e-02, 1.09934151e-01,
          1.29072413e-01, 3.82464044e-02, 2.20510922e-02, 8.04794654e-02,
          5.95310219e-02, 8.23730081e-02, 1.28289670e-01, 1.50507778e-01,
          1.58310980e-01, 8.32753554e-02, 6.67452663e-02, 9.71081480e-02,
          6.88660666e-02, 7.73492828e-02, 1.76895589e-01, 2.60407656e-01,
          1.05447941e-01, 6.21464215e-02, 9.25771892e-02, 1.20069176e-01,
          8.62621069e-02, 1.40781865e-01, 2.53976643e-01, 3.82954329e-01,
          2.10432082e-01, 1.29254311e-01, 9.43082273e-02, 1.58351615e-01,
          9.93218496e-02, 1.48565173e-01, 2.50923723e-01, 3.94099176e-01,
          1.89492732e-01, 1.14861548e-01, 1.55016139e-01 ]
      - [ 1.83728542e-02, 1.03703821e-02, 0., 4.21794597e-03,
          5.30378614e-03, 0., 0., 0., 3.35440878e-03, 0., 0.,
          2.98253819e-03, 1.01535460e-02, 1.01245418e-02, 1.39311636e-02,
          9.75107774e-03, 7.71555537e-03, 9.06346273e-03, 9.96832177e-03,
          1.47464816e-02, 8.70185718e-02, 1.29457653e-01, 2.66548265e-02,
          1.86474416e-02, 1.93031952e-02, 1.69436093e-02, 9.64409392e-03,
          4.21794597e-03, 6.15943642e-03, 0., 4.45993477e-03, 0.,
          1.14601485e-01, 7.95837939e-02, 9.81337279e-02, 1.50883973e-01,
          2.23301604e-01, 2.54888386e-01, 9.74871740e-02, 6.51712790e-02,
          1.22693367e-01, 8.74112919e-02, 1.90170959e-01, 1.61199525e-01,
          2.33054817e-01, 3.08589637e-01, 1.03261754e-01, 7.63581842e-02,
          7.38865957e-02, 3.20611633e-02, 4.26913463e-02, 6.67705685e-02,
          4.30186242e-01, 1.77711993e-01, 7.07525685e-02, 5.26154526e-02,
          1.03790030e-01, 1.29866332e-01, 1.42802179e-01, 1.35909125e-01,
          4.11977798e-01, 2.49395654e-01, 6.79181516e-02, 2.77253035e-02 ]
      - [ 8.67268667e-02, 1.36943340e-01, 2.74358634e-02, 1.38435392e-02,
          0., 0., 0., 0., 0., 1.29586710e-02, 1.10787433e-02,
          4.96694222e-02, 3.99665944e-02, 0., 0., 5.26878685e-02,
          2.85312105e-02, 7.86413103e-02, 5.03020510e-02, 9.76573825e-02,
          8.38662684e-02, 2.48187352e-02, 2.04093531e-02, 1.81303322e-02,
          2.29017101e-02, 1.66921187e-02, 2.62546670e-02, 1.18987754e-01,
          6.19313531e-02, 2.63666902e-02, 2.53850780e-02, 1.50194755e-02,
          1.05298825e-01, 8.81141052e-02, 1.00885205e-01, 1.17932148e-01,
          1.82573080e-01, 2.15209752e-01, 1.05661139e-01, 7.29870722e-02,
          1.22370534e-01, 8.47497433e-02, 1.32877067e-01, 1.86666697e-01,
          2.63176918e-01, 2.28560984e-01, 8.56784284e-02, 7.04122111e-02,
          1.02378637e-01, 7.15212375e-02, 1.16385125e-01, 1.97802931e-01,
          3.21477205e-01, 3.32095891e-01, 9.89943370e-02, 7.65478164e-02,
          1.17188163e-01, 1.09438241e-01, 9.54794735e-02, 2.47185752e-01,
          2.68101305e-01, 3.05324674e-01, 8.48118067e-02, 6.17842413e-02 ]
      - [ 1.00671187e-01, 1.19936161e-01, 1.64332837e-02, 0.,
          1.66819207e-02, 0., 0., 2.28514597e-02, 8.17217380e-02,
          7.56120905e-02, 0., 0., 0., 0., 0., 1.33290552e-02,
          5.80592640e-02, 8.13127980e-02, 2.37565916e-02, 1.69934053e-02,
          4.28898409e-02, 1.44873019e-02, 1.29550770e-02, 1.61788873e-02,
          5.28630540e-02, 1.00075006e-01, 4.54507023e-02, 5.52393682e-02,
          4.16520387e-02, 2.44640112e-02, 1.43786119e-02, 1.74745489e-02,
          6.10111915e-02, 5.05433083e-02, 1.34254381e-01, 3.69553804e-01,
          3.65340561e-01, 8.25127065e-02, 4.04125042e-02, 5.94137236e-03,
          8.61719698e-02, 7.04756528e-02, 5.27082197e-02, 1.80840522e-01,
          2.18721151e-01, 6.41912967e-02, 2.64868475e-02, 2.80007757e-02,
          1.99172825e-01, 2.01454356e-01, 1.84832901e-01, 1.88322514e-01,
          1.40579060e-01, 1.06925465e-01, 9.81357470e-02, 1.20371580e-01,
          2.31753305e-01, 1.79536819e-01, 1.38216555e-01, 2.35292748e-01,
          3.18964511e-01, 1.64486662e-01, 1.19417697e-01, 1.22257315e-01 ]
      - [ 1.08939242e-02, 7.18189729e-03, 1.08761974e-02, 3.38410586e-03,
          1.68700404e-02, 5.58151212e-03, 1.02864383e-02, 2.14626100e-02,
          2.86924616e-02, 3.19873691e-02, 2.06509437e-02, 6.35075346e-02,
          1.27856314e-01, 2.60284636e-02, 2.38061342e-02, 0.,
          2.50990670e-02, 7.25791138e-03, 4.59529785e-03, 4.30637226e-02,
          1.39458135e-01, 4.59529785e-03, 5.98756783e-03, 7.10222404e-03,
          8.07384122e-03, 4.52617602e-03, 9.78155248e-03, 3.49012241e-02,
          1.33939236e-01, 3.56766395e-02, 4.48851660e-02, 2.91166399e-02,
          6.89760745e-02, 4.68713157e-02, 5.57817444e-02, 1.12664983e-01,
          1.19383655e-01, 9.24986377e-02, 6.11357093e-02, 1.36450067e-01,
          8.93171132e-02, 5.03252223e-02, 7.23873153e-02, 1.96420416e-01,
          3.54209691e-01, 1.29779086e-01, 7.96948448e-02, 4.97528017e-02,
          6.93394318e-02, 4.93631288e-02, 9.31637064e-02, 2.29963079e-01,
          4.64605749e-01, 1.28438622e-01, 9.95609686e-02, 6.69457838e-02,
          6.34204447e-02, 8.14425722e-02, 8.33035260e-02, 2.17384607e-01,
          4.88416076e-01, 1.49031088e-01, 1.09144539e-01, 5.35011180e-02 ]
      - [ 1.51868891e-02, 3.76078412e-02, 1.18705127e-02, 0., 0., 0., 0.,
          0., 0., 0., 0., 0., 0., 0., 9.41469334e-03, 1.00019528e-02,
          1.51117519e-02, 1.04932981e-02, 4.72736033e-03, 6.26106001e-03,
          1.16773471e-02, 0., 0., 0., 0., 0., 3.72284837e-03,
          5.42223686e-03, 1.84103679e-02, 3.02030668e-02, 1.25341415e-02,
          1.32181915e-02, 1.19573638e-01, 8.55461657e-02, 1.63462326e-01,
          1.65795863e-01, 2.38979071e-01, 2.41380945e-01, 1.23644494e-01,
          9.00921151e-02, 9.42987800e-02, 8.03944394e-02, 6.02522530e-02,
          1.13482095e-01, 2.24132732e-01, 2.31746033e-01, 1.51062950e-01,
          6.52035251e-02, 1.09511293e-01, 5.19443527e-02, 6.72180206e-02,
          1.05830915e-01, 1.43275842e-01, 3.02737057e-01, 2.36706108e-01,
          1.18755542e-01, 1.01481557e-01, 1.07620560e-01, 2.16878504e-01,
          2.00797215e-01, 2.80147105e-01, 3.78390282e-01, 2.45724916e-01,
          1.19925961e-01 ]
      - [ 1.17039904e-01, 1.71431497e-01, 5.70069551e-02, 5.79203926e-02,
          2.00393870e-02, 0., 0., 1.45085333e-02, 0., 0., 2.03399193e-02,
          4.68244776e-02, 2.45961100e-02, 1.68917663e-02, 2.63804775e-02,
          0., 6.39691055e-02, 1.02971517e-01, 3.39095406e-02,
          4.56172377e-02, 7.52571523e-02, 3.97919752e-02, 0.,
          2.19622217e-02, 4.86943126e-02, 7.05158189e-02, 9.07886848e-02,
          1.22993670e-01, 7.59785920e-02, 2.88662128e-02, 3.06478366e-02,
          2.96885651e-02, 7.97283053e-02, 9.30944234e-02, 1.03845358e-01,
          1.29550979e-01, 2.33210430e-01, 1.05658293e-01, 7.95764849e-02,
          8.77342671e-02, 1.43371463e-01, 1.14188425e-01, 1.35599628e-01,
          1.82539791e-01, 1.41788632e-01, 8.09191391e-02, 5.41267991e-02,
          6.28630370e-02, 1.74403191e-01, 2.16709271e-01, 1.84263974e-01,
          1.92334130e-01, 2.16841623e-01, 1.49024993e-01, 1.17297009e-01,
          1.28854945e-01, 1.91093862e-01, 2.70284981e-01, 2.18314752e-01,
          2.74820685e-01, 3.20958257e-01, 1.76954448e-01, 1.17635123e-01,
          1.04218423e-01 ]
      - [ 6.00229949e-03, 5.00241481e-03, 0., 8.75956658e-03,
          1.50067070e-02, 5.13592968e-03, 7.84298684e-03, 0.,
          7.18553364e-03, 1.55221103e-02, 1.35135259e-02, 1.66223180e-02,
          1.97002441e-02, 3.86952749e-03, 0., 0., 9.31418501e-03,
          7.16417981e-03, 2.96523026e-03, 2.49345158e-03, 1.22320745e-02,
          5.14172902e-03, 1.41785843e-02, 1.62337273e-02, 2.66895257e-02,
          1.35058230e-02, 1.49195325e-02, 3.53950001e-02, 1.43166602e-01,
          5.20218536e-02, 8.15716013e-02, 1.19360834e-01, 4.15314957e-02,
          5.52082993e-02, 7.90408179e-02, 1.12695172e-01, 1.05098426e-01,
          7.78435469e-02, 7.49024004e-02, 1.79378912e-01, 8.13424885e-02,
          5.97239099e-02, 1.08232394e-01, 2.58091033e-01, 2.41286546e-01,
          1.28592893e-01, 1.01242654e-01, 3.57387736e-02, 7.34966397e-02,
          7.87501857e-02, 1.37612522e-01, 2.63455898e-01, 3.45923156e-01,
          1.62582204e-01, 1.11387260e-01, 1.14543192e-01, 1.04834639e-01,
          7.87075162e-02, 1.30222440e-01, 4.28690821e-01, 4.07498240e-01,
          1.50002733e-01, 1.14454292e-01, 8.10884312e-02 ]
      - [ 1.38462316e-02, 3.59115866e-03, 6.80437870e-03, 1.96400601e-02,
          6.87561706e-02, 1.79198869e-02, 7.23168347e-03, 0.,
          4.27063182e-03, 0., 8.33362807e-03, 3.35339978e-02,
          8.34793523e-02, 2.50215586e-02, 1.17802201e-02, 0.,
          3.49914394e-02, 7.04453327e-03, 0., 0., 1.96746383e-02,
          3.39037515e-02, 2.09429432e-02, 8.32563452e-03, 1.96354855e-02,
          1.49683300e-02, 4.54250760e-02, 1.29546836e-01, 1.07637949e-01,
          5.41452430e-02, 1.04814708e-01, 5.81754819e-02, 5.22194616e-02,
          2.87263524e-02, 6.05560839e-02, 1.50493279e-01, 2.53006101e-01,
          1.19506031e-01, 1.56547174e-01, 1.29899263e-01, 8.80137160e-02,
          3.65376845e-02, 6.88770637e-02, 2.14923710e-01, 3.07609111e-01,
          1.13740154e-01, 3.82162258e-02, 2.11937372e-02, 6.50473163e-02,
          7.57028759e-02, 6.30845279e-02, 1.38785407e-01, 2.69276589e-01,
          1.58468634e-01, 1.33351743e-01, 1.00583166e-01, 1.37157485e-01,
          1.57670200e-01, 1.94637895e-01, 3.17282051e-01, 4.43071008e-01,
          2.50863612e-01, 1.07397072e-01, 5.38281389e-02 ]
      - [ 5.90483211e-02, 4.68786955e-02, 3.39395367e-02, 3.06442976e-02,
          5.30710369e-02, 5.04029617e-02, 2.99690086e-02, 5.50597608e-02,
          6.09267466e-02, 2.77519915e-02, 2.40454227e-02, 2.70445794e-02,
          5.20736016e-02, 2.71317177e-02, 4.20791805e-02, 5.17626479e-02,
          1.61309857e-02, 2.00206731e-02, 1.28657566e-02, 2.59031300e-02,
          9.64929722e-03, 4.56460640e-02, 0., 0., 0., 0., 0., 0.,
          5.39220124e-02, 1.34185374e-01, 1.13443397e-01, 3.22023705e-02,
          7.42603391e-02, 5.66190816e-02, 6.15918338e-02, 1.40028372e-01,
          1.71173558e-01, 1.40436038e-01, 1.89760864e-01, 5.34670316e-02,
          8.09373185e-02, 6.00792840e-02, 7.64630586e-02, 1.58105552e-01,
          3.50342214e-01, 1.24584608e-01, 7.25977644e-02, 5.91056533e-02,
          1.09332986e-01, 7.25339949e-02, 9.41849276e-02, 2.11392060e-01,
          3.82363260e-01, 1.94618911e-01, 1.46066606e-01, 9.74169448e-02,
          1.29128784e-01, 1.25940233e-01, 1.21778630e-01, 2.59593070e-01,
          3.88573676e-01, 2.11990044e-01, 1.11410312e-01, 1.18073374e-01 ]
      - [ 3.74461450e-02, 4.64820210e-03, 1.03087109e-02, 1.02425199e-02,
          4.68007363e-02, 4.61938716e-02, 2.02778745e-02, 2.03212686e-02,
          4.44189496e-02, 1.78299248e-02, 2.50938050e-02, 4.80459780e-02,
          8.29698220e-02, 9.27842632e-02, 3.45899984e-02, 2.09697280e-02,
          3.78818624e-02, 1.66730732e-02, 3.83820906e-02, 1.30649554e-02,
          8.16921368e-02, 4.65291925e-02, 1.66816656e-02, 3.07811028e-03,
          1.08508607e-02, 2.91109690e-03, 0., 2.30820812e-02,
          1.02848805e-01, 4.53144237e-02, 4.53628898e-02, 1.66488271e-02,
          4.57495153e-02, 5.41449040e-02, 8.64761323e-02, 1.08627200e-01,
          2.57568181e-01, 1.17001019e-01, 7.23826364e-02, 9.52341929e-02,
          7.22600147e-02, 4.32116389e-02, 6.94423541e-02, 1.30633786e-01,
          2.82523453e-01, 7.99417496e-02, 5.83355688e-02, 3.57570611e-02,
          1.50718614e-01, 9.05012563e-02, 1.34268433e-01, 1.93453193e-01,
          4.59324658e-01, 1.74060479e-01, 1.46064237e-01, 1.72753334e-01,
          1.20285287e-01, 9.29199979e-02, 1.25631437e-01, 2.14998767e-01,
          3.95486623e-01, 1.86514571e-01, 1.71906754e-01, 1.39880985e-01 ]
      - [ 7.67432991e-03, 2.68929508e-02, 3.36355940e-02, 5.46690077e-02,
          8.06715488e-02, 6.80214986e-02, 6.96616024e-02, 1.38181970e-02,
          2.17618812e-02, 7.90975802e-03, 0., 0., 1.41573269e-02,
          2.54814923e-02, 6.65850490e-02, 6.21057488e-02, 4.18466404e-02,
          1.13999126e-02, 1.83498356e-02, 2.53961887e-02, 2.97262445e-02,
          1.40441637e-02, 1.94908492e-02, 1.80743709e-02, 8.16486310e-03,
          1.76225323e-02, 0., 1.61275566e-02, 3.73930521e-02,
          5.27459718e-02, 1.45216510e-01, 1.08209878e-01, 7.75625780e-02,
          4.46508452e-02, 8.38743672e-02, 1.95550650e-01, 2.25460470e-01,
          1.72334924e-01, 1.55882314e-01, 5.41456416e-02, 8.16914663e-02,
          4.00151312e-02, 6.73375800e-02, 1.61458373e-01, 1.79734468e-01,
          1.87966064e-01, 9.30568129e-02, 3.80090997e-02, 1.00525454e-01,
          8.45733956e-02, 1.19964533e-01, 2.54524350e-01, 2.77695924e-01,
          3.59878212e-01, 1.70609310e-01, 1.08132586e-01, 1.00024678e-01,
          9.50632915e-02, 1.52662188e-01, 2.60292113e-01, 2.53734708e-01,
          2.83273280e-01, 2.02235967e-01, 9.91377458e-02 ]
      - [ 2.44225338e-02, 1.20403580e-02, 1.53934611e-02, 1.40997088e-02,
          6.26188368e-02, 3.09651867e-02, 8.39003082e-03, 4.22027055e-03,
          2.05389783e-02, 7.44966371e-03, 0., 3.13280560e-02,
          5.25007136e-02, 3.08958683e-02, 3.14807110e-02, 1.42175620e-02,
          6.76110089e-02, 3.68509181e-02, 4.27640676e-02, 4.11836766e-02,
          1.36815056e-01, 3.20861600e-02, 2.86452882e-02, 4.76798415e-03,
          3.12601328e-02, 1.11940717e-02, 1.88901443e-02, 3.75232622e-02,
          9.92885232e-02, 5.64495884e-02, 4.99786474e-02, 8.22353214e-02,
          6.82616159e-02, 9.95979980e-02, 9.54806358e-02, 1.63470969e-01,
          2.80572951e-01, 8.14665258e-02, 6.07827231e-02, 8.43222737e-02,
          6.57763258e-02, 3.82844396e-02, 7.13642463e-02, 1.19484745e-01,
          1.57391697e-01, 7.76469409e-02, 4.46661673e-02, 5.07567078e-02,
          1.45400882e-01, 1.15273044e-01, 1.22019790e-01, 2.56434053e-01,
          4.15975332e-01, 1.13259196e-01, 1.21183656e-01, 2.53887504e-01,
          1.61681205e-01, 8.52827802e-02, 1.17286943e-01, 2.07831785e-01,
          3.57625902e-01, 1.97924852e-01, 2.05810592e-01, 2.12793916e-01 ]
      - [ 0., 0., 0., 0., 0., 0., 0., 0., 0., 0., 0., 0., 0., 0., 0., 0.,
          2.16754563e-02, 2.79478636e-02, 5.90239428e-02, 6.73563853e-02,
          3.79632562e-02, 0., 3.00244754e-03, 0., 1.10051185e-02,
          1.06745586e-02, 2.66955234e-02, 5.32034673e-02, 4.05342877e-02,
          1.62586551e-02, 1.03974920e-02, 1.07587883e-02, 1.07450657e-01,
          8.83653685e-02, 1.63323626e-01, 1.83370799e-01, 3.29158187e-01,
          2.03902617e-01, 6.27899021e-02, 2.93031912e-02, 1.00846395e-01,
          5.06779477e-02, 8.53957161e-02, 1.12534195e-01, 2.83306360e-01,
          1.64753482e-01, 5.90957962e-02, 5.24395630e-02, 7.73491263e-02,
          8.49097818e-02, 1.53219476e-01, 2.05681428e-01, 2.84691900e-01,
          2.05874011e-01, 8.70839506e-02, 5.69142103e-02, 6.86472878e-02,
          1.19339041e-01, 2.56787390e-01, 3.06137860e-01, 3.19095880e-01,
          3.02113324e-01, 1.11102760e-01, 7.32545927e-02 ]
      - [ 4.62548025e-02, 1.33172199e-02, 1.02209030e-02, 3.24505344e-02,
          3.01556233e-02, 5.36113903e-02, 4.77734432e-02, 5.81503566e-03,
          1.70430057e-02, 7.82502070e-03, 1.18106585e-02, 0.,
          2.14728173e-02, 4.30060402e-02, 5.33548146e-02, 4.17059250e-02,
          1.44360177e-02, 0., 1.03773847e-02, 7.74410740e-03,
          7.04226270e-02, 9.54440609e-02, 3.85270566e-02, 0., 0., 0., 0.,
          1.21897757e-02, 6.52362332e-02, 1.08918041e-01, 8.07752460e-02,
          4.52917367e-02, 1.03200383e-01, 6.03592433e-02, 4.83006388e-02,
          5.96240051e-02, 1.44376218e-01, 1.81564122e-01, 1.09811984e-01,
          1.50222480e-01, 1.08127207e-01, 5.23372926e-02, 7.10017830e-02,
          1.00401163e-01, 2.08063409e-01, 2.15600252e-01, 1.11908264e-01,
          7.53606185e-02, 1.07847080e-01, 6.06605448e-02, 7.39488974e-02,
          1.36450410e-01, 4.04029340e-01, 3.61333936e-01, 8.29506740e-02,
          8.68482292e-02, 8.52899179e-02, 2.75856145e-02, 3.40006538e-02,
